{"learner":{"attributes":{"scikit_learn":"{\"_estimator_type\": \"classifier\"}"},"feature_names":[],"feature_types":[],"gradient_booster":{"model":{"cats":{"enc":[],"feature_segments":[],"sorted_idx":[]},"gbtree_model_param":{"num_parallel_tree":"1","num_trees":"700"},"iteration_indptr":[0,7,14,21,28,35,42,49,56,63,70,77,84,91,98,105,112,119,126,133,140,147,154,161,168,175,182,189,196,203,210,217,224,231,238,245,252,259,266,273,280,287,294,301,308,315,322,329,336,343,350,357,364,371,378,385,392,399,406,413,420,427,434,441,448,455,462,469,476,483,490,497,504,511,518,525,532,539,546,553,560,567,574,581,588,595,602,609,616,623,630,637,644,651,658,665,672,679,686,693,700],"tree_info":[0,1,2,3,4,5,6,0,1,2,3,4,5,6,0,1,2,3,4,5,6,0,1,2,3,4,5,6,0,1,2,3,4,5,6,0,1,2,3,4,5,6,0,1,2,3,4,5,6,0,1,2,3,4,5,6,0,1,2,3,4,5,6,0,1,2,3,4,5,6,0,1,2,3,4,5,6,0,1,2,3,4,5,6,0,1,2,3,4,5,6,0,1,2,3,4,5,6,0,1,2,3,4,5,6,0,1,2,3,4,5,6,0,1,2,3,4,5,6,0,1,2,3,4,5,6,0,1,2,3,4,5,6,0,1,2,3,4,5,6,0,1,2,3,4,5,6,0,1,2,3,4,5,6,0,1,2,3,4,5,6,0,1,2,3,4,5,6,0,1,2,3,4,5,6,0,1,2,3,4,5,6,0,1,2,3,4,5,6,0,1,2,3,4,5,6,0,1,2,3,4,5,6,0,1,2,3,4,5,6,0,1,2,3,4,5,6,0,1,2,3,4,5,6,0,1,2,3,4,5,6,0,1,2,3,4,5,6,0,1,2,3,4,5,6,0,1,2,3,4,5,6,0,1,2,3,4,5,6,0,1,2,3,4,5,6,0,1,2,3,4,5,6,0,1,2,3,4,5,6,0,1,2,3,4,5,6,0,1,2,3,4,5,6,0,1,2,3,4,5,6,0,1,2,3,4,5,6,0,1,2,3,4,5,6,0,1,2,3,4,5,6,0,1,2,3,4,5,6,0,1,2,3,4,5,6,0,1,2,3,4,5,6,0,1,2,3,4,5,6,0,1,2,3,4,5,6,0,1,2,3,4,5,6,0,1,2,3,4,5,6,0,1,2,3,4,5,6,0,1,2,3,4,5,6,0,1,2,3,4,5,6,0,1,2,3,4,5,6,0,1,2,3,4,5,6,0,1,2,3,4,5,6,0,1,2,3,4,5,6,0,1,2,3,4,5,6,0,1,2,3,4,5,6,0,1,2,3,4,5,6,0,1,2,3,4,5,6,0,1,2,3,4,5,6,0,1,2,3,4,5,6,0,1,2,3,4,5,6,0,1,2,3,4,5,6,0,1,2,3,4,5,6,0,1,2,3,4,5,6,0,1,2,3,4,5,6,0,1,2,3,4,5,6,0,1,2,3,4,5,6,0,1,2,3,4,5,6,0,1,2,3,4,5,6,0,1,2,3,4,5,6,0,1,2,3,4,5,6,0,1,2,3,4,5,6,0,1,2,3,4,5,6,0,1,2,3,4,5,6,0,1,2,3,4,5,6,0,1,2,3,4,5,6,0,1,2,3,4,5,6,0,1,2,3,4,5,6,0,1,2,3,4,5,6,0,1,2,3,4,5,6,0,1,2,3,4,5,6,0,1,2,3,4,5,6,0,1,2,3,4,5,6,0,1,2,3,4,5,6,0,1,2,3,4,5,6,0,1,2,3,4,5,6,0,1,2,3,4,5,6,0,1,2,3,4,5,6,0,1,2,3,4,5,6,0,1,2,3,4,5,6,0,1,2,3,4,5,6,0,1,2,3,4,5,6,0,1,2,3,4,5,6,0,1,2,3,4,5,6],"trees":[{"base_weights":[1.1718875E-3,5.9146917E-1,-1.7021911E0,6.609138E-1,-1.6620321E0,-1.7023149E0,4.4172637E-2,-8.6463314E-1,6.903649E-1,-1.6880621E0,6.8528004E-2,-5.2980925E-3,-1.7023768E0,-1.2711528E-1,-1.0816564E-2,7.06379E-2,-1.6995797E-1,-1.7007414E-1,-1.0589247E-2,-1.7024077E-1,-4.9848996E-2],"categories":[],"categories_nodes":[],"categories_segments":[],"categories_sizes":[],"default_left":[1,1,1,1,1,0,0,1,1,1,0,0,1,0,0,0,0,0,0,0,0],"id":0,"left_children":[1,3,5,7,9,11,-1,13,15,17,-1,-1,19,-1,-1,-1,-1,-1,-1,-1,-1],"loss_changes":[1.2624191E5,1.4592621E4,9.328125E0,4.0645898E3,1.714873E2,3.2109375E0,0E0,5.268273E2,3.397543E3,5.513623E1,0E0,0E0,3.4375E-1,0E0,0E0,0E0,0E0,0E0,0E0,0E0,0E0],"parents":[2147483647,0,0,1,1,2,2,3,3,4,4,5,5,7,7,8,8,9,9,12,12],"right_children":[2,4,6,8,10,12,-1,14,16,18,-1,-1,20,-1,-1,-1,-1,-1,-1,-1,-1],"split_conditions":[-1E-5,-1E-5,-1E-5,-1E-5,-1E-5,4.2354128E-1,4.4172637E-2,-1E-5,-1E-5,6.3258104E-2,6.8528004E-2,-5.2980925E-3,5.0735578E-2,-1.2711528E-1,-1.0816564E-2,7.06379E-2,-1.6995797E-1,-1.7007414E-1,-1.0589247E-2,-1.7024077E-1,-4.9848996E-2],"split_indices":[9760,9812,7432,8170,8206,5254,0,8109,7407,8109,0,0,8192,0,0,0,0,0,0,0,0],"split_type":[0,0,0,0,0,0,0,0,0,0,0,0,0,0,0,0,0,0,0,0,0],"sum_hessian":[1.2555056E5,9.323931E4,3.2311256E4,9.045259E4,2.786712E3,3.2309596E4,1.659498E0,1.7126019E3,8.873999E4,2.756426E3,3.0285837E1,1.2446234E0,3.2308352E4,1.1135232E3,5.990788E2,8.815005E4,5.8995154E2,2.7344377E3,2.1988348E1,3.2307107E4,1.2446234E0],"tree_param":{"num_deleted":"0","num_feature":"10000","num_nodes":"21","size_leaf_vector":"1"}},{"base_weights":[5.9378176E-4,-6.169719E-1,1.776714E0,-6.816111E-1,1.7838323E-1,-6.87657E-2,1.7844951E-1,-6.875594E-1,1.7762122E-1,-6.9281094E-2,1.0233975E-2],"categories":[],"categories_nodes":[],"categories_segments":[],"categories_sizes":[],"default_left":[1,1,0,1,0,0,0,1,0,0,0],"id":1,"left_children":[1,3,5,7,-1,-1,-1,9,-1,-1,-1],"loss_changes":[1.3385745E5,1.4053449E4,6.0497656E2,1.2903594E3,0E0,0E0,0E0,3.6496484E2,0E0,0E0,0E0],"parents":[2147483647,0,0,1,1,2,2,3,3,7,7],"right_children":[2,4,6,8,-1,-1,-1,10,-1,-1,-1],"split_conditions":[-1E-5,-1E-5,3.665112E-2,8.504401E-2,1.7838323E-1,-6.87657E-2,1.7844951E-1,7.4415244E-2,1.7762122E-1,-6.9281094E-2,1.0233975E-2],"split_indices":[9760,8180,8170,8997,0,0,0,8112,0,0,0],"split_type":[0,0,0,0,0,0,0,0,0,0,0],"sum_hessian":[1.2203375E5,9.05498E4,3.1483953E4,8.8176445E4,2.3733467E3,9.882223E1,3.138513E4,8.796428E4,2.1216527E2,8.738345E4,5.8083264E2],"tree_param":{"num_deleted":"0","num_feature":"10000","num_nodes":"11","size_leaf_vector":"1"}},{"base_weights":[-7.3535904E-2,-4.0615737E-1,1.9962282E-1,-4.6662938E-2,2.4830429E-2],"categories":[],"categories_nodes":[],"categories_segments":[],"categories_sizes":[],"default_left":[1,1,0,0,0],"id":2,"left_children":[1,3,-1,-1,-1],"loss_changes":[1.291779E1,7.4838066E-1,0E0,0E0,0E0],"parents":[2147483647,0,0,1,1],"right_children":[2,4,-1,-1,-1],"split_conditions":[7.838125E-2,9.406937E-2,1.9962282E-1,-4.6662938E-2,2.4830429E-2],"split_indices":[0,183,0,0,0],"split_type":[0,0,0,0,0],"sum_hessian":[1.6585941E1,1.4982022E1,1.6039197E0,1.3977509E1,1.0045137E0],"tree_param":{"num_deleted":"0","num_feature":"10000","num_nodes":"5","size_leaf_vector":"1"}},{"base_weights":[-3.0368422E-3,-2.7069566E-1,5.485765E0,-4.3686065E-1,4.3139782E1,-4.6163502E-1,3.947275E0,4.7250896E1,4.543992E-3,-4.8470005E-2,3.8360722E0,1.3851193E0,5.1072664E0],"categories":[],"categories_nodes":[],"categories_segments":[],"categories_sizes":[],"default_left":[1,1,0,1,0,1,0,0,0,0,0,0,0],"id":3,"left_children":[1,3,-1,5,7,9,-1,11,-1,-1,-1,-1,-1],"loss_changes":[7.7054555E4,3.7687055E4,0E0,5.162738E3,3.5274453E3,4.6756685E3,0E0,1.6140234E3,0E0,0E0,0E0,0E0,0E0],"parents":[2147483647,0,0,1,1,3,3,4,4,5,5,7,7],"right_children":[2,4,-1,6,8,10,-1,12,-1,-1,-1,-1,-1],"split_conditions":[-1E-5,1.5885589E-1,5.485765E0,-1E-5,3.076874E-1,5.213123E-2,3.947275E0,1.383189E-1,4.543992E-3,-4.8470005E-2,3.8360722E0,1.3851193E0,5.1072664E0],"split_indices":[7408,9324,0,9209,9324,5614,0,2566,0,0,0,0,0],"split_type":[0,0,0,0,0,0,0,0,0,0,0,0,0],"sum_hessian":[5.2455264E3,5.2210483E3,2.4477816E1,5.202126E3,1.8922567E1,5.1998867E3,2.2394598E0,1.7186552E1,1.7360153E0,5.197786E3,2.1005785E0,2.2394598E0,1.4947091E1],"tree_param":{"num_deleted":"0","num_feature":"10000","num_nodes":"13","size_leaf_vector":"1"}},{"base_weights":[-2.5728804E-1,1.0234407E-1,-4.479766E-2,1.00122765E-1,-3.8837973E-2],"categories":[],"categories_nodes":[],"categories_segments":[],"categories_sizes":[],"default_left":[1,1,0,0,0],"id":4,"left_children":[1,3,-1,-1,-1],"loss_changes":[1.0347233E0,2.951908E0,0E0,0E0,0E0],"parents":[2147483647,0,0,1,1],"right_children":[2,4,-1,-1,-1],"split_conditions":[-1E-5,-1E-5,-4.479766E-2,1.00122765E-1,-3.8837973E-2],"split_indices":[9691,8206,0,0,0],"split_type":[0,0,0,0,0],"sum_hessian":[1.3419775E1,4.8105445E0,8.60923E0,1.3314157E0,3.4791286E0],"tree_param":{"num_deleted":"0","num_feature":"10000","num_nodes":"5","size_leaf_vector":"1"}},{"base_weights":[-7.8020007E-3,-2.9418805E-1,9.414916E0,7.5565276E0,-3.8656786E-1,-4.6703625E-1,6.099668E0,-4.7803145E-2,1.4894019E0],"categories":[],"categories_nodes":[],"categories_segments":[],"categories_sizes":[],"default_left":[1,0,0,0,1,1,0,0,0],"id":5,"left_children":[1,3,-1,-1,5,7,-1,-1,-1],"loss_changes":[7.633449E4,1.9807117E4,0E0,0E0,1.3956631E4,4.829217E2,0E0,0E0,0E0],"parents":[2147483647,0,0,1,1,4,4,5,5],"right_children":[2,4,-1,-1,6,8,-1,-1,-1],"split_conditions":[-1E-5,2.1269841E-1,9.414916E0,7.5565276E0,3.2933705E-2,3.3792328E-2,6.099668E0,-4.7803145E-2,1.4894019E0],"split_indices":[8384,7014,0,0,5656,9617,0,0,0],"split_type":[0,0,0,0,0,0,0,0,0],"sum_hessian":[2.8288208E3,2.8212366E3,7.5841455E0,2.437761E0,2.8187988E3,2.8160996E3,2.6992834E0,2.8150535E3,1.046089E0],"tree_param":{"num_deleted":"0","num_feature":"10000","num_nodes":"9","size_leaf_vector":"1"}},{"base_weights":[-8.923165E-3,5.9743005E-1,-4.3044712E-2,2.2249913E-1,-3.747974E-2],"categories":[],"categories_nodes":[],"categories_segments":[],"categories_sizes":[],"default_left":[1,1,0,0,0],"id":6,"left_children":[1,3,-1,-1,-1],"loss_changes":[3.1197207E0,8.764198E0,0E0,0E0,0E0],"parents":[2147483647,0,0,1,1],"right_children":[2,4,-1,-1,-1],"split_conditions":[-1E-5,-1E-5,-4.3044712E-2,2.2249913E-1,-3.747974E-2],"split_indices":[8699,8206,0,0,0],"split_type":[0,0,0,0,0],"sum_hessian":[1.0199701E1,4.011678E0,6.1880236E0,1.0183519E0,2.9933262E0],"tree_param":{"num_deleted":"0","num_feature":"10000","num_nodes":"5","size_leaf_vector":"1"}},{"base_weights":[1.9834021E-2,5.882102E-1,-1.3543987E0,6.55785E-1,-1.3131528E0,-6.307349E-1,-1.3561642E0,-3.255459E-1,6.7045E-1,-1.3236408E0,7.6682264E-1,4.8240542E-2,-6.662366E-2,-1.356364E0,-6.378391E-2,-1.1994606E-1,-6.5527624E-4,6.776224E-2,-6.266219E-2,-7.6505475E-2,-1.3574871E-1,6.339005E-2,1.2250483E-1,-4.54687E-3,-1.3564081E-1],"categories":[],"categories_nodes":[],"categories_segments":[],"categories_sizes":[],"default_left":[1,1,0,1,1,1,1,0,1,1,1,0,0,0,0,0,0,0,0,0,0,0,0,0,0],"id":7,"left_children":[1,3,5,7,9,11,13,15,17,19,21,-1,-1,23,-1,-1,-1,-1,-1,-1,-1,-1,-1,-1,-1],"loss_changes":[9.699614E4,1.1287979E4,4.55625E1,1.2210781E3,6.6793945E1,3.8896675E0,4.3359375E0,3.483899E2,7.7803125E2,5.568994E1,1.834383E-1,0E0,0E0,2.0390625E0,0E0,0E0,0E0,0E0,0E0,0E0,0E0,0E0,0E0,0E0,0E0],"parents":[2147483647,0,0,1,1,2,2,3,3,4,4,5,5,6,6,7,7,8,8,9,9,10,10,13,13],"right_children":[2,4,6,8,10,12,14,16,18,20,22,-1,-1,24,-1,-1,-1,-1,-1,-1,-1,-1,-1,-1,-1],"split_conditions":[-1E-5,-1E-5,2.8993903E-2,-1E-5,-1E-5,3.1816896E-2,1.5292504E-1,2.499497E-1,-1E-5,1.1738749E-2,-1E-5,4.8240542E-2,-6.662366E-2,1.1227565E-1,-6.378391E-2,-1.1994606E-1,-6.5527624E-4,6.776224E-2,-6.266219E-2,-7.6505475E-2,-1.3574871E-1,6.339005E-2,1.2250483E-1,-4.54687E-3,-1.3564081E-1],"split_indices":[9760,9059,8170,8170,8178,7988,9132,9413,7407,8170,9921,0,0,8522,0,0,0,0,0,0,0,0,0,0,0],"split_type":[0,0,0,0,0,0,0,0,0,0,0,0,0,0,0,0,0,0,0,0,0,0,0,0,0],"sum_hessian":[1.2417988E5,8.784724E4,3.6332637E4,8.483292E4,3.014325E3,8.929406E1,3.624334E4,1.2487551E3,8.3584164E4,2.9995635E3,1.4761327E1,2.3707864E0,8.692327E1,3.623237E4,1.0968565E1,3.3318906E2,9.155661E2,8.3124984E4,4.5918082E2,1.727167E2,2.826847E3,1.3289646E1,1.4716811E0,1.2539983E0,3.6231117E4],"tree_param":{"num_deleted":"0","num_feature":"10000","num_nodes":"25","size_leaf_vector":"1"}},{"base_weights":[5.607381E-4,-5.65354E-1,1.4009923E0,-6.624548E-1,1.3870869E0,1.4092389E0,-6.4733885E-2,-6.6732025E-1,7.8091E-2,1.4073304E0,-6.897815E-2,1.4086968E0,3.109263E-1,-6.677409E-2,1.9460367E-1,6.163565E-3,8.8897064E-2,-5.2379142E-2,1.4095236E-1,-5.0761756E-2,1.4088984E-1],"categories":[],"categories_nodes":[],"categories_segments":[],"categories_sizes":[],"default_left":[1,1,1,1,1,1,0,1,1,0,0,0,0,0,0,0,0,0,0,0,0],"id":8,"left_children":[1,3,5,7,9,11,-1,13,15,17,-1,19,-1,-1,-1,-1,-1,-1,-1,-1,-1],"loss_changes":[9.527492E4,1.6232771E4,5.8533594E2,2.939375E2,1.7152588E2,2.7390625E1,0E0,9.037891E1,7.0608983E0,1.7756348E1,0E0,1.403125E1,0E0,0E0,0E0,0E0,0E0,0E0,0E0,0E0,0E0],"parents":[2147483647,0,0,1,1,2,2,3,3,4,4,5,5,7,7,8,8,9,9,11,11],"right_children":[2,4,6,8,10,12,-1,14,16,18,-1,20,-1,-1,-1,-1,-1,-1,-1,-1,-1],"split_conditions":[-1E-5,9.692329E-2,-1E-5,7.089977E-2,-1E-5,1.5885589E-1,-6.4733885E-2,-1E-5,3.027676E-1,2.9878098E-1,-6.897815E-2,4.6313237E-2,3.109263E-1,-6.677409E-2,1.9460367E-1,6.163565E-3,8.8897064E-2,-5.2379142E-2,1.4095236E-1,-5.0761756E-2,1.4088984E-1],"split_indices":[5720,9815,9904,8109,8643,9324,0,5595,9197,9324,0,9313,0,0,0,0,0,0,0,0,0],"split_type":[0,0,0,0,0,0,0,0,0,0,0,0,0,0,0,0,0,0,0,0,0],"sum_hessian":[1.2021497E5,8.561751E4,3.459746E4,8.156185E4,4.0556565E3,3.445904E4,1.3842111E2,8.102957E4,5.3227765E2,4.0168262E3,3.8830196E1,3.444988E4,9.157873E0,8.101727E4,1.2296903E1,5.227455E2,9.532177E0,4.287237E0,4.012539E3,3.3589342E0,3.444652E4],"tree_param":{"num_deleted":"0","num_feature":"10000","num_nodes":"21","size_leaf_vector":"1"}},{"base_weights":[-3.7158055E-3,-4.068113E-1,3.1897995E-1,-4.6672966E-2,2.2416824E-2],"categories":[],"categories_nodes":[],"categories_segments":[],"categories_sizes":[],"default_left":[1,1,0,0,0],"id":9,"left_children":[1,3,-1,-1,-1],"loss_changes":[2.3344889E1,7.1310425E-1,0E0,0E0,0E0],"parents":[2147483647,0,0,1,1],"right_children":[2,4,-1,-1,-1],"split_conditions":[9.746232E-2,3.0895483E-2,3.1897995E-1,-4.6672966E-2,2.2416824E-2],"split_indices":[0,9681,0,0,0],"split_type":[0,0,0,0,0],"sum_hessian":[1.6126842E1,1.5094217E1,1.0326258E0,1.40229E1,1.071318E0],"tree_param":{"num_deleted":"0","num_feature":"10000","num_nodes":"5","size_leaf_vector":"1"}},{"base_weights":[-2.4416064E-1,3.160574E0,-2.5758582E-1,-3.5962102E-1,7.053858E-2,8.351671E-1,-4.5849785E-1,7.409896E-1,7.3914275E-2,1.3633743E-1,-4.962642E-2],"categories":[],"categories_nodes":[],"categories_segments":[],"categories_sizes":[],"default_left":[0,0,1,0,0,0,0,0,0,0,0],"id":10,"left_children":[1,-1,3,5,-1,7,9,-1,-1,-1,-1],"loss_changes":[2.5758691E3,0E0,5.901467E2,6.4175397E2,0E0,2.567195E2,3.4571875E2,0E0,0E0,0E0,0E0],"parents":[2147483647,0,0,2,2,3,3,5,5,6,6],"right_children":[2,-1,4,6,-1,8,10,-1,-1,-1,-1],"split_conditions":[4.4021988E-1,3.160574E0,1.7697665E-1,3.6763597E-1,7.053858E-2,1.2551567E-1,7.470134E-1,7.409896E-1,7.3914275E-2,1.3633743E-1,-4.962642E-2],"split_indices":[7011,0,9185,9324,0,2808,9413,0,0,0,0],"split_type":[0,0,0,0,0,0,0,0,0,0,0],"sum_hessian":[6.004112E3,1.538255E0,6.002573E3,5.428051E3,5.745225E2,4.143052E2,5.0137456E3,4.8674483E0,4.0943777E2,1.0110861E2,4.912637E3],"tree_param":{"num_deleted":"0","num_feature":"10000","num_nodes":"11","size_leaf_vector":"1"}},{"base_weights":[-1.02521524E-1,4.1331404E-1,-4.432874E-2,1.8317339E-1,-3.927859E-2],"categories":[],"categories_nodes":[],"categories_segments":[],"categories_sizes":[],"default_left":[1,1,0,0,0],"id":11,"left_children":[1,3,-1,-1,-1],"loss_changes":[2.6154523E0,7.604923E0,0E0,0E0,0E0],"parents":[2147483647,0,0,1,1],"right_children":[2,4,-1,-1,-1],"split_conditions":[-1E-5,-1E-5,-4.432874E-2,1.8317339E-1,-3.927859E-2],"split_indices":[8699,8206,0,0,0],"split_type":[0,0,0,0,0],"sum_hessian":[1.2836882E1,5.0219655E0,7.814916E0,1.3587528E0,3.6632128E0],"tree_param":{"num_deleted":"0","num_feature":"10000","num_nodes":"5","size_leaf_vector":"1"}},{"base_weights":[-4.0994072E-1,6.6606677E-1,-4.737335E-1,5.6546474E-1,4.2639465E0,-4.8315364E-1,1.7619778E0,5.074265E-1,4.665218E-1,8.151328E-1,4.4700246E-2,-4.8650426E-1,3.9493492E-1,8.080848E-1,1.6388302E-1,4.0825248E-2,2.2213157E-1,-4.9499843E-2,6.0213145E-2,-8.892747E-2,6.2067863E-2],"categories":[],"categories_nodes":[],"categories_segments":[],"categories_sizes":[],"default_left":[0,1,1,1,1,1,1,1,0,0,0,1,0,0,1,0,0,0,0,0,0],"id":12,"left_children":[1,3,5,7,9,11,13,15,-1,-1,-1,17,-1,-1,19,-1,-1,-1,-1,-1,-1],"loss_changes":[1.9595358E2,5.5477432E1,5.753009E1,3.4926872E1,5.863765E1,4.173419E1,1.1487511E2,2.5552902E1,0E0,0E0,0E0,2.5076172E1,0E0,0E0,5.461319E0,0E0,0E0,0E0,0E0,0E0,0E0],"parents":[2147483647,0,0,1,1,2,2,3,3,4,4,5,5,6,6,7,7,11,11,14,14],"right_children":[2,4,6,8,10,12,14,16,-1,-1,-1,18,-1,-1,20,-1,-1,-1,-1,-1,-1],"split_conditions":[2.2484486E-1,4.2478967E-2,-1E-5,3.0324182E-2,-1E-5,1.0761431E-1,9.119106E-3,2.2283372E-2,4.665218E-1,8.151328E-1,4.4700246E-2,7.089977E-2,3.9493492E-1,8.080848E-1,-1E-5,4.0825248E-2,2.2213157E-1,-4.9499843E-2,6.0213145E-2,-8.892747E-2,6.2067863E-2],"split_indices":[7630,6987,7162,7309,8979,9980,8146,9926,0,0,0,8109,0,0,8643,0,0,0,0,0,0],"split_type":[0,0,0,0,0,0,0,0,0,0,0,0,0,0,0,0,0,0,0,0,0],"sum_hessian":[2.849141E3,1.5893341E2,2.6902075E3,1.5573598E2,3.1974416E0,2.6797007E3,1.0506997E1,1.5467015E2,1.0658208E0,1.0215133E0,2.1759284E0,2.6785662E3,1.1345401E0,1.3020676E0,9.204929E0,1.4738022E2,7.289938E0,2.6583691E3,2.0196827E1,2.498284E0,6.7066455E0],"tree_param":{"num_deleted":"0","num_feature":"10000","num_nodes":"21","size_leaf_vector":"1"}},{"base_weights":[3.2945254E-3,-4.381897E-2,9.324628E-1,2.0344467E-1,-3.1269904E-2],"categories":[],"categories_nodes":[],"categories_segments":[],"categories_sizes":[],"default_left":[1,0,1,0,0],"id":13,"left_children":[1,-1,3,-1,-1],"loss_changes":[4.891335E0,0E0,5.904566E0,0E0,0E0],"parents":[2147483647,0,0,2,2],"right_children":[2,-1,4,-1,-1],"split_conditions":[3.9696965E-2,-4.381897E-2,-1E-5,2.0344467E-1,-3.1269904E-2],"split_indices":[8170,0,8206,0,0],"split_type":[0,0,0,0,0],"sum_hessian":[9.927831E0,7.088306E0,2.839525E0,1.170095E0,1.66943E0],"tree_param":{"num_deleted":"0","num_feature":"10000","num_nodes":"5","size_leaf_vector":"1"}},{"base_weights":[2.1396965E-2,5.6578636E-1,-1.1524858E0,6.3328165E-1,-1.1228693E0,-6.142499E-1,-1.1535579E0,-2.9427546E-1,6.481236E-1,-1.131434E0,7.11283E-2,-6.456541E-2,4.3414082E-2,-1.1536832E0,-6.2168714E-2,2.240729E-3,-1.0177553E-1,6.549209E-2,-6.1280686E-2,-7.495498E-2,-1.1527242E-1,-2.948502E-3,-1.15371965E-1],"categories":[],"categories_nodes":[],"categories_segments":[],"categories_sizes":[],"default_left":[1,1,0,1,1,1,1,1,1,1,0,0,0,0,0,0,0,0,0,0,0,0,0],"id":14,"left_children":[1,3,5,7,9,11,13,15,17,19,-1,-1,-1,21,-1,-1,-1,-1,-1,-1,-1,-1,-1],"loss_changes":[7.716583E4,9.403088E3,2.1367188E1,1.0922324E3,5.06167E1,2.8543396E0,1.8242188E0,2.8640955E2,6.6958203E2,2.4800049E1,0E0,0E0,0E0,1.5351562E0,0E0,0E0,0E0,0E0,0E0,0E0,0E0,0E0,0E0],"parents":[2147483647,0,0,1,1,2,2,3,3,4,4,5,5,6,6,7,7,8,8,9,9,13,13],"right_children":[2,4,6,8,10,12,14,16,18,20,-1,-1,-1,22,-1,-1,-1,-1,-1,-1,-1,-1,-1],"split_conditions":[-1E-5,-1E-5,2.8993903E-2,-1E-5,-1E-5,-1E-5,1.5292504E-1,-1E-5,-1E-5,1.1738749E-2,7.11283E-2,-6.456541E-2,4.3414082E-2,4.2354128E-1,-6.2168714E-2,2.240729E-3,-1.0177553E-1,6.549209E-2,-6.1280686E-2,-7.495498E-2,-1.1527242E-1,-2.948502E-3,-1.15371965E-1],"split_indices":[9760,9059,8170,8170,8178,8034,9132,7630,7407,8170,0,0,0,5254,0,0,0,0,0,0,0,0,0],"split_type":[0,0,0,0,0,0,0,0,0,0,0,0,0,0,0,0,0,0,0,0,0,0,0],"sum_hessian":[1.20748945E5,8.249317E4,3.8255777E4,7.932326E4,3.1699111E3,7.718136E1,3.8178594E4,1.248977E3,7.807428E4,3.155559E3,1.4351952E1,7.530963E1,1.8717314E0,3.8168434E4,1.016179E1,8.693936E2,3.795834E2,7.765614E4,4.1814255E2,1.6854547E2,2.9870137E3,1.2654864E0,3.8167168E4],"tree_param":{"num_deleted":"0","num_feature":"10000","num_nodes":"23","size_leaf_vector":"1"}},{"base_weights":[1.6109124E-4,-5.431974E-1,1.1845531E0,-6.4038557E-1,1.1901754E0,1.1910608E0,-6.312754E-2,-6.459067E-1,9.030672E-2,1.1904096E-1,3.0062566E-2,1.1906857E0,2.5221893E-1,-6.470567E-2,1.2506369E-1,1.209357E-2,-3.4037404E-2,1.19086325E-1,-5.134132E-2],"categories":[],"categories_nodes":[],"categories_segments":[],"categories_sizes":[],"default_left":[1,1,1,1,1,1,0,1,1,0,0,1,0,0,0,0,0,0,0],"id":15,"left_children":[1,3,5,7,9,11,-1,13,15,-1,-1,17,-1,-1,-1,-1,-1,-1,-1],"loss_changes":[7.549853E4,1.3548799E4,4.3672266E2,3.0727344E2,5.3222656E-1,1.53515625E1,0E0,1.656543E2,7.586164E0,0E0,0E0,1.171875E1,0E0,0E0,0E0,0E0,0E0,0E0,0E0],"parents":[2147483647,0,0,1,1,2,2,3,3,4,4,5,5,7,7,8,8,11,11],"right_children":[2,4,6,8,10,12,-1,14,16,-1,-1,18,-1,-1,-1,-1,-1,-1,-1],"split_conditions":[-1E-5,5.8908828E-2,-1E-5,-1E-5,1.986802E-1,1.5292504E-1,-6.312754E-2,-1E-5,3.9920654E-2,1.1904096E-1,3.0062566E-2,-1E-5,2.5221893E-1,-6.470567E-2,1.2506369E-1,1.209357E-2,-3.4037404E-2,1.19086325E-1,-5.134132E-2],"split_indices":[5720,9369,9904,8112,9370,9132,0,9201,9691,0,0,9284,0,0,0,0,0,0,0],"split_type":[0,0,0,0,0,0,0,0,0,0,0,0,0,0,0,0,0,0,0],"sum_hessian":[1.173138E5,8.042027E4,3.6893523E4,7.6151195E4,4.269077E3,3.676212E4,1.3140453E2,7.5580234E4,5.709674E2,4.2676157E3,1.4615941E0,3.675366E4,8.459548E0,7.5535086E4,4.514263E1,5.337291E2,3.7238335E1,3.6750137E4,3.5245242E0],"tree_param":{"num_deleted":"0","num_feature":"10000","num_nodes":"19","size_leaf_vector":"1"}},{"base_weights":[8.450111E-3,-4.0170568E-1,2.5505146E-1,-4.6483185E-2,2.3319557E-2],"categories":[],"categories_nodes":[],"categories_segments":[],"categories_sizes":[],"default_left":[1,1,0,0,0],"id":16,"left_children":[1,3,-1,-1,-1],"loss_changes":[1.8454458E1,7.1993876E-1,0E0,0E0,0E0],"parents":[2147483647,0,0,1,1],"right_children":[2,4,-1,-1,-1],"split_conditions":[9.746232E-2,6.15588E-2,2.5505146E-1,-4.6483185E-2,2.3319557E-2],"split_indices":[0,900,0,0,0],"split_type":[0,0,0,0,0],"sum_hessian":[1.5717046E1,1.4258456E1,1.4585898E0,1.3212634E1,1.045822E0],"tree_param":{"num_deleted":"0","num_feature":"10000","num_nodes":"5","size_leaf_vector":"1"}},{"base_weights":[-2.4428137E-1,5.448799E-1,-3.9434025E-1,-5.007566E-2,7.809911E-1,-4.473186E-1,8.145108E-1,6.8637764E-1,2.9230392E0,9.3087745E-1,-4.92357E-1,7.386629E-1,4.4860488E-1,6.9857486E-2,-4.4282667E-2,2.3435266E-1,5.4043716E-1,1.1923456E-1,-4.8216823E-2,-4.955016E-2,6.10382E-1,7.708403E-2,-4.3477606E-2],"categories":[],"categories_nodes":[],"categories_segments":[],"categories_sizes":[],"default_left":[0,0,1,0,1,0,1,1,1,1,1,1,0,0,0,0,0,0,0,0,0,0,0],"id":17,"left_children":[1,3,5,-1,7,9,11,13,15,17,19,21,-1,-1,-1,-1,-1,-1,-1,-1,-1,-1,-1],"loss_changes":[6.7578174E2,2.2552063E2,3.073819E2,0E0,1.4883618E2,2.8557227E2,5.283577E1,1.0144928E1,3.2166718E1,5.440667E1,9.5299194E1,7.8394012E0,0E0,0E0,0E0,0E0,0E0,0E0,0E0,0E0,0E0,0E0,0E0],"parents":[2147483647,0,0,1,1,2,2,4,4,5,5,6,6,7,7,8,8,9,9,10,10,11,11],"right_children":[2,4,6,-1,8,10,12,14,16,18,20,22,-1,-1,-1,-1,-1,-1,-1,-1,-1,-1,-1],"split_conditions":[1.1335427E-1,3.2563593E-2,-1E-5,-5.007566E-2,2.023073E-1,3.405733E-1,1.625139E-1,-1E-5,1.2078036E-1,5.8505267E-2,1.0598722E-1,-1E-5,4.4860488E-1,6.9857486E-2,-4.4282667E-2,2.3435266E-1,5.4043716E-1,1.1923456E-1,-4.8216823E-2,-4.955016E-2,6.10382E-1,7.708403E-2,-4.3477606E-2],"split_indices":[7564,8170,8179,0,8643,7630,9318,7415,7677,7971,7303,7662,0,0,0,0,0,0,0,0,0,0,0],"split_type":[0,0,0,0,0,0,0,0,0,0,0,0,0,0,0,0,0,0,0,0,0,0,0],"sum_hessian":[5.703805E3,9.108747E2,4.7929307E3,1.6758604E2,7.4328864E2,4.5923013E3,2.0062946E2,7.131112E2,3.0177427E1,1.4470134E2,4.4476E3,1.9774554E2,2.88391E0,7.0586804E2,7.2431607E0,2.604022E1,4.1372056E0,1.2223864E2,2.2462694E1,4.446405E3,1.1948671E0,1.9280174E2,4.943798E0],"tree_param":{"num_deleted":"0","num_feature":"10000","num_nodes":"23","size_leaf_vector":"1"}},{"base_weights":[-1.635697E-2,5.811014E-1,-4.406763E-2,1.9856127E-1,-3.8630113E-2],"categories":[],"categories_nodes":[],"categories_segments":[],"categories_sizes":[],"default_left":[1,1,0,0,0],"id":18,"left_children":[1,3,-1,-1,-1],"loss_changes":[3.6631403E0,8.936171E0,0E0,0E0,0E0],"parents":[2147483647,0,0,1,1],"right_children":[2,4,-1,-1,-1],"split_conditions":[-1E-5,-1E-5,-4.406763E-2,1.9856127E-1,-3.8630113E-2],"split_indices":[8699,8206,0,0,0],"split_type":[0,0,0,0,0],"sum_hessian":[1.2439393E1,5.0123353E0,7.4270577E0,1.6150402E0,3.3972952E0],"tree_param":{"num_deleted":"0","num_feature":"10000","num_nodes":"5","size_leaf_vector":"1"}},{"base_weights":[-4.1075078E-1,6.113898E-1,-4.7157332E-1,4.9660602E-1,5.2448595E-1,-4.7747353E-1,4.691479E-1,4.495485E-1,4.379746E-1,-4.8063415E-1,3.5993186E-1,5.8512397E-2,-5.5221885E-2,-4.8636865E-2,1.546345E-1],"categories":[],"categories_nodes":[],"categories_segments":[],"categories_sizes":[],"default_left":[0,0,1,0,1,1,0,1,0,1,0,0,0,0,0],"id":19,"left_children":[1,3,5,-1,7,9,-1,11,-1,13,-1,-1,-1,-1,-1],"loss_changes":[1.6659048E2,5.4415092E1,7.9168945E1,0E0,4.1031834E1,3.4243958E1,0E0,2.0303926E1,0E0,3.0070251E1,0E0,0E0,0E0,0E0,0E0],"parents":[2147483647,0,0,1,1,2,2,4,4,5,5,7,7,9,9],"right_children":[2,4,6,-1,8,10,-1,12,-1,14,-1,-1,-1,-1,-1],"split_conditions":[2.293374E-1,3.131079E-2,1.1615683E-1,4.9660602E-1,3.895235E-2,1.12316154E-1,4.691479E-1,2.6743298E-2,4.379746E-1,5.1481158E-2,3.5993186E-1,5.8512397E-2,-5.5221885E-2,-4.8636865E-2,1.546345E-1],"split_indices":[7630,5656,7647,0,8671,9980,0,8961,0,8362,0,0,0,0,0],"split_type":[0,0,0,0,0,0,0,0,0,0,0,0,0,0,0],"sum_hessian":[2.673993E3,1.4967133E2,2.5243215E3,1.8299512E0,1.4784137E2,2.5223464E3,1.9749453E0,1.4611778E2,1.7235876E0,2.521274E3,1.0725771E0,1.2906635E2,1.7051449E1,2.5149192E3,6.3548675E0],"tree_param":{"num_deleted":"0","num_feature":"10000","num_nodes":"15","size_leaf_vector":"1"}},{"base_weights":[1.4545754E-2,-3.408789E-1,1.4889139E-1,1.8814994E-2,-4.3937594E-2],"categories":[],"categories_nodes":[],"categories_segments":[],"categories_sizes":[],"default_left":[1,0,0,0,0],"id":20,"left_children":[1,3,-1,-1,-1],"loss_changes":[6.1088014E0,5.7385445E-1,0E0,0E0,0E0],"parents":[2147483647,0,0,1,1],"right_children":[2,4,-1,-1,-1],"split_conditions":[3.0842137E-2,1.2735972E-1,1.4889139E-1,1.8814994E-2,-4.3937594E-2],"split_indices":[8319,7662,0,0,0],"split_type":[0,0,0,0,0],"sum_hessian":[9.688885E0,8.426349E0,1.262536E0,1.1797398E0,7.2466087E0],"tree_param":{"num_deleted":"0","num_feature":"10000","num_nodes":"5","size_leaf_vector":"1"}},{"base_weights":[2.3024702E-2,5.4633176E-1,-1.0186902E0,-9.9634725E-1,6.135279E-1,-1.0195589E0,-6.678582E-1,-1.0041544E0,7.950549E-1,-2.711765E-1,6.2878186E-1,-1.0195793E-1,-2.802203E-2,-6.2803455E-2,-1.0014009E-1,-6.995906E-2,-1.0219431E-1,5.8671154E-2,1.3201343E-1,-9.617393E-2,-5.927565E-4,6.353842E-2,-5.973456E-2],"categories":[],"categories_nodes":[],"categories_segments":[],"categories_sizes":[],"default_left":[1,0,1,1,1,1,0,1,1,0,1,0,0,0,0,0,0,0,0,0,0,0,0],"id":21,"left_children":[1,3,5,7,9,11,13,15,17,19,21,-1,-1,-1,-1,-1,-1,-1,-1,-1,-1,-1,-1],"loss_changes":[6.3354207E4,8.0195703E3,1.1160156E1,4.5961914E1,1.00055664E3,2.9296875E-1,6.846161E-1,1.6706787E1,8.1943893E-1,2.3026819E2,5.902969E2,0E0,0E0,0E0,0E0,0E0,0E0,0E0,0E0,0E0,0E0,0E0,0E0],"parents":[2147483647,0,0,1,1,2,2,3,3,4,4,5,5,6,6,7,7,8,8,9,9,10,10],"right_children":[2,4,6,8,10,12,14,16,18,20,22,-1,-1,-1,-1,-1,-1,-1,-1,-1,-1,-1,-1],"split_conditions":[-1E-5,2.736929E-1,1.5885589E-1,-1E-5,-1E-5,1.7262457E-1,2.8087753E-1,3.6469787E-2,-1E-5,2.499497E-1,-1E-5,-1.0195793E-1,-2.802203E-2,-6.2803455E-2,-1.0014009E-1,-6.995906E-2,-1.0219431E-1,5.8671154E-2,1.3201343E-1,-9.617393E-2,-5.927565E-4,6.353842E-2,-5.973456E-2],"split_indices":[9681,9059,9324,8178,8170,5682,9324,8170,8976,9413,7408,0,0,0,0,0,0,0,0,0,0,0,0],"split_type":[0,0,0,0,0,0,0,0,0,0,0,0,0,0,0,0,0,0,0,0,0,0,0],"sum_hessian":[1.1621506E5,7.735576E4,3.8859305E4,3.2282488E3,7.412751E4,3.8761418E4,9.788918E1,3.2146782E3,1.357061E1,1.2561522E3,7.287136E4,3.8759973E4,1.4446328E0,9.002364E1,7.8655396E0,1.7962344E2,3.0350547E3,1.12315E1,2.33911E0,3.4786826E2,9.0828394E2,7.248155E4,3.8980576E2],"tree_param":{"num_deleted":"0","num_feature":"10000","num_nodes":"23","size_leaf_vector":"1"}},{"base_weights":[-1.2031063E-3,-5.5101246E-1,1.0452572E0,-6.1700296E-1,1.0258201E0,-5.6567278E-2,1.04733E0,-6.2305343E-1,1.0938778E-1,1.047977E0,-6.364187E-2,1.0470071E-1,1.9807099E-1,-6.288224E-2,8.140831E-3,1.04829155E-1,2.5479173E-2],"categories":[],"categories_nodes":[],"categories_segments":[],"categories_sizes":[],"default_left":[1,1,0,1,1,0,1,1,0,1,0,0,0,0,0,0,0],"id":22,"left_children":[1,3,5,7,9,-1,11,13,-1,15,-1,-1,-1,-1,-1,-1,-1],"loss_changes":[6.5147344E4,7.7246895E3,1.3082812E2,7.3822266E2,1.1049805E2,0E0,9.667969E0,2.8858594E2,0E0,4.675293E-1,0E0,0E0,0E0,0E0,0E0,0E0,0E0],"parents":[2147483647,0,0,1,1,2,2,3,3,4,4,6,6,7,7,9,9],"right_children":[2,4,6,8,10,-1,12,14,-1,16,-1,-1,-1,-1,-1,-1,-1],"split_conditions":[-1E-5,-1E-5,3.665112E-2,8.504401E-2,-1E-5,-5.6567278E-2,1.5292504E-1,-1E-5,1.0938778E-1,1.986802E-1,-6.364187E-2,1.0470071E-1,1.9807099E-1,-6.288224E-2,8.140831E-3,1.04829155E-1,2.5479173E-2],"split_indices":[9760,9815,8170,8997,8643,0,9132,8112,0,9370,0,0,0,0,0,0,0],"split_type":[0,0,0,0,0,0,0,0,0,0,0,0,0,0,0,0,0],"sum_hessian":[1.1322809E5,7.422881E4,3.8999285E4,7.12477E4,2.9811106E3,4.9768E1,3.8949516E4,7.099726E4,2.5044287E2,2.942261E3,3.884942E1,3.8938164E4,1.1351712E1,7.042069E4,5.765761E2,2.940773E3,1.4880414E0],"tree_param":{"num_deleted":"0","num_feature":"10000","num_nodes":"17","size_leaf_vector":"1"}},{"base_weights":[-1.0021043E-1,-3.956309E-1,1.4047673E-1,2.4597703E-2,-4.6258524E-2],"categories":[],"categories_nodes":[],"categories_segments":[],"categories_sizes":[],"default_left":[1,0,0,0,0],"id":23,"left_children":[1,3,-1,-1,-1],"loss_changes":[7.7840977E0,7.311213E-1,0E0,0E0,0E0],"parents":[2147483647,0,0,1,1],"right_children":[2,4,-1,-1,-1],"split_conditions":[9.746232E-2,1.499382E-1,1.4047673E-1,2.4597703E-2,-4.6258524E-2],"split_indices":[0,183,0,0,0],"split_type":[0,0,0,0,0],"sum_hessian":[1.5258004E1,1.33705435E1,1.8874605E0,1.0107697E0,1.2359775E1],"tree_param":{"num_deleted":"0","num_feature":"10000","num_nodes":"5","size_leaf_vector":"1"}},{"base_weights":[-2.4287146E-1,5.2218956E-1,-3.9047736E-1,-5.001707E-2,7.4135554E-1,6.594133E-1,-4.534978E-1,6.635107E-1,2.2099862E0,8.038991E-1,-1.0766094E-1,7.6697785E-1,-4.9369857E-1,6.744707E-2,-4.3516155E-2,1.8334194E-1,3.4769207E-1,7.4649476E-2,2.9503217E-1,9.951043E-2,-4.801649E-2,-4.9782127E-2,7.426065E-1],"categories":[],"categories_nodes":[],"categories_segments":[],"categories_sizes":[],"default_left":[0,0,0,0,1,1,0,1,1,1,0,1,1,0,0,0,0,0,0,0,0,0,0],"id":24,"left_children":[1,3,5,-1,7,9,11,13,15,17,-1,19,21,-1,-1,-1,-1,-1,-1,-1,-1,-1,-1],"loss_changes":[6.077014E2,1.9541219E2,2.9870593E2,0E0,8.0528076E1,6.502742E1,2.0915955E2,8.512146E0,1.0644272E1,2.6964386E1,0E0,3.9194817E1,1.3822406E2,0E0,0E0,0E0,0E0,0E0,0E0,0E0,0E0,0E0,0E0],"parents":[2147483647,0,0,1,1,2,2,4,4,5,5,6,6,7,7,8,8,9,9,11,11,12,12],"right_children":[2,4,6,-1,8,10,12,14,16,18,-1,20,22,-1,-1,-1,-1,-1,-1,-1,-1,-1,-1],"split_conditions":[1.1335427E-1,3.262651E-2,3.6763597E-1,-5.001707E-2,2.023073E-1,5.826683E-2,3.405733E-1,-1E-5,-1E-5,1.625139E-1,-1.0766094E-1,4.2212475E-2,1.09308936E-1,6.744707E-2,-4.3516155E-2,1.8334194E-1,3.4769207E-1,7.4649476E-2,2.9503217E-1,9.951043E-2,-4.801649E-2,-4.9782127E-2,7.426065E-1],"split_indices":[7564,8170,9324,0,8643,0,7630,5400,2566,9318,0,7971,7303,0,0,0,0,0,0,0,0,0,0],"split_type":[0,0,0,0,0,0,0,0,0,0,0,0,0,0,0,0,0,0,0,0,0,0,0],"sum_hessian":[5.3785337E3,8.694615E2,4.509072E3,1.5325926E2,7.162022E2,2.5479778E2,4.2542744E3,6.815295E2,3.4672726E1,2.3571648E2,1.9081297E1,1.3508488E2,4.1191895E3,6.7518024E2,6.3492446E0,2.8614777E1,6.05795E0,2.3088931E2,4.8271637E0,1.1436704E2,2.0717846E1,4.117983E3,1.206503E0],"tree_param":{"num_deleted":"0","num_feature":"10000","num_nodes":"23","size_leaf_vector":"1"}},{"base_weights":[7.2051376E-2,8.1066316E-1,-4.4040117E-2,2.0570624E-1,-3.680529E-2],"categories":[],"categories_nodes":[],"categories_segments":[],"categories_sizes":[],"default_left":[1,1,0,0,0],"id":25,"left_children":[1,3,-1,-1,-1],"loss_changes":[5.3193817E0,9.163953E0,0E0,0E0,0E0],"parents":[2147483647,0,0,1,1],"right_children":[2,4,-1,-1,-1],"split_conditions":[-1E-5,-1E-5,-4.4040117E-2,2.0570624E-1,-3.680529E-2],"split_indices":[9691,8206,0,0,0],"split_type":[0,0,0,0,0],"sum_hessian":[1.2110484E1,4.7222495E0,7.388235E0,1.9330401E0,2.7892094E0],"tree_param":{"num_deleted":"0","num_feature":"10000","num_nodes":"5","size_leaf_vector":"1"}},{"base_weights":[-4.068114E-1,5.856813E-1,-4.6849543E-1,4.867753E-1,3.8454113E0,-4.746052E-1,4.3030617E-1,3.764244E-1,4.08235E-1,4.4498926E-1,1.0947309E-1,-4.7882652E-1,4.556931E-1,3.525537E-2,3.6567217E-1,-4.8530973E-2,1.4319138E-1],"categories":[],"categories_nodes":[],"categories_segments":[],"categories_sizes":[],"default_left":[0,1,1,0,0,1,0,0,0,0,0,1,0,0,0,0,0],"id":26,"left_children":[1,3,5,7,9,11,-1,-1,13,-1,-1,15,-1,-1,-1,-1,-1],"loss_changes":[1.5398325E2,4.563698E1,7.0970825E1,3.557258E1,2.1028442E0,5.2355164E1,0E0,0E0,2.4379498E1,0E0,0E0,2.9944336E1,0E0,0E0,0E0,0E0,0E0],"parents":[2147483647,0,0,1,1,2,2,3,3,4,4,5,5,8,8,11,11],"right_children":[2,4,6,8,10,12,-1,-1,14,-1,-1,16,-1,-1,-1,-1,-1],"split_conditions":[2.293374E-1,3.895235E-2,1.1615683E-1,2.1024916E-2,9.6148625E-2,1.1456362E-1,4.3030617E-1,3.764244E-1,1.9377173E-1,4.4498926E-1,1.0947309E-1,5.1481158E-2,4.556931E-1,3.525537E-2,3.6567217E-1,-4.8530973E-2,1.4319138E-1],"split_indices":[7630,8671,7647,9819,8542,9980,0,0,7630,0,0,8362,0,0,0,0,0],"split_type":[0,0,0,0,0,0,0,0,0,0,0,0,0,0,0,0,0],"sum_hessian":[2.5097217E3,1.4635667E2,2.363365E3,1.4316222E2,3.194468E0,2.3612422E3,2.1229324E0,2.252168E0,1.4091005E2,2.1124911E0,1.081977E0,2.3601667E3,1.0752723E0,1.3962529E2,1.2847459E0,2.3529292E3,7.237553E0],"tree_param":{"num_deleted":"0","num_feature":"10000","num_nodes":"17","size_leaf_vector":"1"}},{"base_weights":[1.24361366E-1,9.256922E-1,-4.2702865E-2,2.512156E-1,-3.5299998E-2],"categories":[],"categories_nodes":[],"categories_segments":[],"categories_sizes":[],"default_left":[1,1,0,0,0],"id":27,"left_children":[1,3,-1,-1,-1],"loss_changes":[4.9951386E0,1.0135514E1,0E0,0E0,0E0],"parents":[2147483647,0,0,1,1],"right_children":[2,4,-1,-1,-1],"split_conditions":[-1E-5,-1E-5,-4.2702865E-2,2.512156E-1,-3.5299998E-2],"split_indices":[8699,8178,0,0,0],"split_type":[0,0,0,0,0],"sum_hessian":[9.410515E0,3.5591688E0,5.8513465E0,1.1579186E0,2.4012501E0],"tree_param":{"num_deleted":"0","num_feature":"10000","num_nodes":"5","size_leaf_vector":"1"}},{"base_weights":[2.2576114E-2,5.2970016E-1,-9.235198E-1,5.974435E-1,-8.9498794E-1,-6.118358E-2,-9.240652E-1,-2.9156318E-1,6.146896E-1,-9.0694577E-1,6.190319E-2,-9.240967E-1,-3.226709E-4,-8.4571585E-2,-1.6944219E-3,6.2105563E-2,-5.8646735E-2,-7.98903E-3,-9.118696E-2,-9.241681E-2,-5.806115E-2],"categories":[],"categories_nodes":[],"categories_segments":[],"categories_sizes":[],"default_left":[1,1,0,1,1,0,1,0,1,0,0,1,0,0,0,0,0,0,0,0,0],"id":28,"left_children":[1,3,5,7,9,-1,11,13,15,17,-1,19,-1,-1,-1,-1,-1,-1,-1,-1,-1],"loss_changes":[5.318402E4,6.965547E3,6.0078125E0,1.0564141E3,5.9873535E1,0E0,1.1171875E0,1.9959915E2,5.1712695E2,1.31657715E1,0E0,4.1015625E-1,0E0,0E0,0E0,0E0,0E0,0E0,0E0,0E0,0E0],"parents":[2147483647,0,0,1,1,2,2,3,3,4,4,6,6,7,7,8,8,9,9,11,11],"right_children":[2,4,6,8,10,-1,12,14,16,18,-1,20,-1,-1,-1,-1,-1,-1,-1,-1,-1],"split_conditions":[-1E-5,-1E-5,1.7748022E-1,-1E-5,-1E-5,-6.118358E-2,-1E-5,3.405733E-1,-1E-5,1.9177237E-1,6.190319E-2,1.5292504E-1,-3.226709E-4,-8.4571585E-2,-1.6944219E-3,6.2105563E-2,-5.8646735E-2,-7.98903E-3,-9.118696E-2,-9.241681E-2,-5.806115E-2],"split_indices":[9681,9812,9321,8170,8178,0,8109,7630,7408,8109,0,9132,0,0,0,0,0,0,0,0,0],"split_type":[0,0,0,0,0,0,0,0,0,0,0,0,0,0,0,0,0,0,0,0,0],"sum_hessian":[1.10846984E5,7.216546E4,3.868152E4,6.8890336E4,3.2751272E3,6.9527275E1,3.8611992E4,1.3106859E3,6.757965E4,3.2498606E3,2.5266638E1,3.8610664E4,1.3278756E0,4.3361536E2,8.770705E2,6.722385E4,3.557979E2,1.933568E1,3.230525E3,3.860096E4,9.704708E0],"tree_param":{"num_deleted":"0","num_feature":"10000","num_nodes":"21","size_leaf_vector":"1"}},{"base_weights":[-2.394776E-3,-5.105622E-1,9.4138974E-1,-6.075275E-1,9.328739E-1,9.4603944E-1,-6.0444165E-2,-6.137284E-1,8.025038E-2,9.443012E-1,-6.2262475E-2,9.4617146E-1,-4.8639633E-2,-6.1418023E-2,1.4958176E-1,6.813968E-3,1.3215542E-1,9.4557606E-2,-5.2151825E-2,9.462532E-2,-4.888558E-2],"categories":[],"categories_nodes":[],"categories_segments":[],"categories_sizes":[],"default_left":[1,1,1,1,1,1,0,1,1,1,0,1,0,0,0,0,0,0,0,0,0],"id":29,"left_children":[1,3,5,7,9,11,-1,13,15,17,-1,19,-1,-1,-1,-1,-1,-1,-1,-1,-1],"loss_changes":[5.1769867E4,9.821029E3,2.721172E2,2.8045312E2,7.910303E1,7.5820312E0,0E0,6.3021484E1,8.754826E0,8.688477E0,0E0,4.875E0,0E0,0E0,0E0,0E0,0E0,0E0,0E0,0E0,0E0],"parents":[2147483647,0,0,1,1,2,2,3,3,4,4,5,5,7,7,8,8,9,9,11,11],"right_children":[2,4,6,8,10,12,-1,14,16,18,-1,20,-1,-1,-1,-1,-1,-1,-1,-1,-1],"split_conditions":[-1E-5,9.692329E-2,-1E-5,7.4415244E-2,-1E-5,-1E-5,-6.0444165E-2,-1E-5,1.8277012E-1,-1E-5,-6.2262475E-2,-1E-5,-4.8639633E-2,-6.1418023E-2,1.4958176E-1,6.813968E-3,1.3215542E-1,9.4557606E-2,-5.2151825E-2,9.462532E-2,-4.888558E-2],"split_indices":[5720,9815,9904,8112,8643,8943,0,5595,5656,9052,0,8340,0,0,0,0,0,0,0,0,0],"split_type":[0,0,0,0,0,0,0,0,0,0,0,0,0,0,0,0,0,0,0,0,0],"sum_hessian":[1.0794171E5,7.016358E4,3.777813E4,6.574746E4,4.4161206E3,3.7665223E4,1.1290576E2,6.5160098E4,5.873615E2,4.3843047E3,3.181596E1,3.766209E4,3.132151E0,6.5146855E4,1.3243809E1,5.82731E2,4.630486E0,4.380849E3,3.4553065E0,3.766029E4,1.8011435E0],"tree_param":{"num_deleted":"0","num_feature":"10000","num_nodes":"21","size_leaf_vector":"1"}},{"base_weights":[4.279491E-2,-4.629892E-2,2.195393E0,-2.6774094E-2,3.7480336E-1],"categories":[],"categories_nodes":[],"categories_segments":[],"categories_sizes":[],"default_left":[1,0,0,0,0],"id":30,"left_children":[1,-1,3,-1,-1],"loss_changes":[1.806549E1,0E0,1.3063623E1,0E0,0E0],"parents":[2147483647,0,0,2,2],"right_children":[2,-1,4,-1,-1],"split_conditions":[9.746232E-2,-4.629892E-2,3.749292E-2,-2.6774094E-2,3.7480336E-1],"split_indices":[0,0,6803,0,0],"split_type":[0,0,0,0,0],"sum_hessian":[1.4659287E1,1.2505788E1,2.1534998E0,1.1525823E0,1.0009176E0],"tree_param":{"num_deleted":"0","num_feature":"10000","num_nodes":"5","size_leaf_vector":"1"}},{"base_weights":[-2.38906E-1,5.1207143E-1,-3.873733E-1,-4.9960043E-2,7.189982E-1,-4.4233358E-1,7.438249E-1,6.4717203E-1,1.750872E0,-4.900037E-1,9.735421E-1,6.939402E-1,2.2633326E-1,6.573512E-2,-4.2819574E-2,1.529687E-1,2.5525066E-1,-4.9677413E-2,6.4864404E-2,8.8738285E-2,5.604897E-1,7.380419E-2,-4.6194E-2],"categories":[],"categories_nodes":[],"categories_segments":[],"categories_sizes":[],"default_left":[0,0,1,0,1,1,1,1,1,1,1,1,0,0,0,0,0,0,0,0,0,0,0],"id":31,"left_children":[1,3,5,-1,7,9,11,13,15,17,19,21,-1,-1,-1,-1,-1,-1,-1,-1,-1,-1,-1],"loss_changes":[5.621979E2,1.7462643E2,2.6201306E2,0E0,5.0118195E1,2.7144934E2,1.3240761E1,7.375641E0,3.9707031E0,3.026892E1,4.7339836E1,1.0058601E1,0E0,0E0,0E0,0E0,0E0,0E0,0E0,0E0,0E0,0E0,0E0],"parents":[2147483647,0,0,1,1,2,2,4,4,5,5,6,6,7,7,8,8,9,9,10,10,11,11],"right_children":[2,4,6,-1,8,10,12,14,16,18,20,22,-1,-1,-1,-1,-1,-1,-1,-1,-1,-1,-1],"split_conditions":[1.1335427E-1,3.2563593E-2,-1E-5,-4.9960043E-2,1.9744445E-1,-1E-5,1.625139E-1,-1E-5,1.1603373E-1,2.5757405E-1,1.3147585E-1,-1E-5,2.2633326E-1,6.573512E-2,-4.2819574E-2,1.529687E-1,2.5525066E-1,-4.9677413E-2,6.4864404E-2,8.8738285E-2,5.604897E-1,7.380419E-2,-4.6194E-2],"split_indices":[7564,8170,8179,0,8643,9413,9318,8192,8793,9394,7303,7662,0,0,0,0,0,0,0,0,0,0,0],"split_type":[0,0,0,0,0,0,0,0,0,0,0,0,0,0,0,0,0,0,0,0,0,0,0],"sum_hessian":[5.0395547E3,8.314524E2,4.2081025E3,1.4094638E2,6.90506E2,4.0137021E3,1.9440036E2,6.470908E2,4.3415188E1,3.8836018E3,1.301004E2,1.8963153E2,4.76882E0,6.4140814E2,5.682641E0,3.630595E1,7.1092353E0,3.8612068E3,2.2395002E1,1.2889413E2,1.2062738E0,1.8301042E2,6.6211157E0],"tree_param":{"num_deleted":"0","num_feature":"10000","num_nodes":"23","size_leaf_vector":"1"}},{"base_weights":[8.586699E-2,7.694921E-1,-4.3666456E-2,1.7659013E-1,-3.61036E-2],"categories":[],"categories_nodes":[],"categories_segments":[],"categories_sizes":[],"default_left":[1,1,0,0,0],"id":32,"left_children":[1,3,-1,-1,-1],"loss_changes":[4.90884E0,7.2925253E0,0E0,0E0,0E0],"parents":[2147483647,0,0,1,1],"right_children":[2,4,-1,-1,-1],"split_conditions":[-1E-5,-1E-5,-4.3666456E-2,1.7659013E-1,-3.61036E-2],"split_indices":[9691,8206,0,0,0],"split_type":[0,0,0,0,0],"sum_hessian":[1.1801315E1,4.9078193E0,6.893496E0,2.3099198E0,2.5978994E0],"tree_param":{"num_deleted":"0","num_feature":"10000","num_nodes":"5","size_leaf_vector":"1"}},{"base_weights":[-4.0189242E-1,5.802904E-1,-4.655446E-1,4.7421193E-1,3.1818244E-1,-4.7084883E-1,3.8856235E-1,6.189276E-1,-6.0866064E-1,-4.758386E-1,3.985044E-1,5.4268938E-2,3.1415293E-1,-1.02463715E-1,-4.3237723E-2,3.205424E-1,-4.7901716E-2],"categories":[],"categories_nodes":[],"categories_segments":[],"categories_sizes":[],"default_left":[0,1,1,1,0,1,0,1,0,0,0,0,0,0,0,0,0],"id":33,"left_children":[1,3,5,7,-1,9,-1,11,13,15,-1,-1,-1,-1,-1,-1,-1],"loss_changes":[1.4654108E2,3.791097E1,5.255417E1,2.206858E1,0E0,5.0722473E1,0E0,2.1873291E1,7.905364E-1,2.7213318E1,0E0,0E0,0E0,0E0,0E0,0E0,0E0],"parents":[2147483647,0,0,1,1,2,2,3,3,5,5,7,7,8,8,9,9],"right_children":[2,4,6,8,-1,10,-1,12,14,16,-1,-1,-1,-1,-1,-1,-1],"split_conditions":[2.293374E-1,3.895235E-2,1.1615683E-1,2.6743298E-2,3.1818244E-1,1.4101812E-1,3.8856235E-1,3.618086E-2,2.0646475E-2,4.0924048E-1,3.985044E-1,5.4268938E-2,3.1415293E-1,-1.02463715E-1,-4.3237723E-2,3.205424E-1,-4.7901716E-2],"split_indices":[7630,8671,7647,8961,0,9931,0,7647,9923,7709,0,0,0,0,0,0,0],"split_type":[0,0,0,0,0,0,0,0,0,0,0,0,0,0,0,0,0],"sum_hessian":[2.3386584E3,1.4184274E2,2.1968157E3,1.3742162E2,4.421131E0,2.1950315E3,1.7840294E0,1.2159944E2,1.5822174E1,2.1934685E3,1.5630592E0,1.1921175E2,2.3876946E0,3.2769969E0,1.2545177E1,1.0231843E0,2.1924453E3],"tree_param":{"num_deleted":"0","num_feature":"10000","num_nodes":"17","size_leaf_vector":"1"}},{"base_weights":[1.38057E-1,-4.3270726E-2,1.2298229E0,2.696763E-1,-3.1647075E-2],"categories":[],"categories_nodes":[],"categories_segments":[],"categories_sizes":[],"default_left":[1,0,1,0,0],"id":34,"left_children":[1,-1,3,-1,-1],"loss_changes":[6.8801265E0,0E0,9.376879E0,0E0,0E0],"parents":[2147483647,0,0,2,2],"right_children":[2,-1,4,-1,-1],"split_conditions":[3.9696965E-2,-4.3270726E-2,7.719456E-2,2.696763E-1,-3.1647075E-2],"split_indices":[8170,0,7415,0,0],"split_type":[0,0,0,0,0],"sum_hessian":[9.187058E0,6.429463E0,2.7575958E0,1.0333029E0,1.7242929E0],"tree_param":{"num_deleted":"0","num_feature":"10000","num_nodes":"5","size_leaf_vector":"1"}},{"base_weights":[2.2477537E-2,5.168712E-1,-8.522671E-1,5.831198E-1,-8.268703E-1,-5.6773764E-1,-8.527604E-1,-2.6339397E-1,6.0063434E-1,-8.3763653E-1,6.0263254E-2,-5.977885E-2,3.970434E-2,-8.5278755E-1,-2.952324E-3,-1.5034998E-4,-7.876288E-2,6.0690533E-2,-5.7988953E-2,-8.437129E-2,8.186432E-3,-8.528466E-2,-5.7110976E-2],"categories":[],"categories_nodes":[],"categories_segments":[],"categories_sizes":[],"default_left":[1,1,0,1,1,1,1,1,1,1,0,0,0,1,0,0,0,0,0,0,0,0,0],"id":35,"left_children":[1,3,5,7,9,11,13,15,17,19,-1,-1,-1,21,-1,-1,-1,-1,-1,-1,-1,-1,-1],"loss_changes":[4.5354867E4,5.965283E3,4.8339844E0,9.469219E2,4.896289E1,2.224472E0,8.203125E-1,1.7780933E2,4.635039E2,1.7531982E1,0E0,0E0,0E0,1.4257812E-1,0E0,0E0,0E0,0E0,0E0,0E0,0E0,0E0,0E0],"parents":[2147483647,0,0,1,1,2,2,3,3,4,4,5,5,6,6,7,7,8,8,9,9,13,13],"right_children":[2,4,6,8,10,12,14,16,18,20,-1,-1,-1,22,-1,-1,-1,-1,-1,-1,-1,-1,-1],"split_conditions":[-1E-5,-1E-5,2.8993903E-2,-1E-5,-1E-5,-1E-5,5.0735578E-2,-1E-5,-1E-5,1.6492504E-1,6.0263254E-2,-5.977885E-2,3.970434E-2,1.5292504E-1,-2.952324E-3,-1.5034998E-4,-7.876288E-2,6.0690533E-2,-5.7988953E-2,-8.437129E-2,8.186432E-3,-8.528466E-2,-5.7110976E-2],"split_indices":[9760,9812,8170,8170,8178,9625,8192,7630,7407,8112,0,0,0,9132,0,0,0,0,0,0,0,0,0],"split_type":[0,0,0,0,0,0,0,0,0,0,0,0,0,0,0,0,0,0,0,0,0,0,0],"sum_hessian":[1.0487244E5,6.700342E4,3.7869008E4,6.38558E4,3.1476257E3,6.7539276E1,3.780147E4,1.2941252E3,6.2561676E4,3.1245078E3,2.3117912E1,6.586802E1,1.6712565E0,3.7800188E4,1.2835664E0,8.63668E2,4.304572E2,6.2231586E4,3.3008987E2,3.1040774E3,2.043038E1,3.7790242E4,9.944689E0],"tree_param":{"num_deleted":"0","num_feature":"10000","num_nodes":"23","size_leaf_vector":"1"}},{"base_weights":[-3.7910726E-3,-5.210763E-1,8.684945E-1,-5.881903E-1,8.3725744E-1,8.700776E-1,-5.5452414E-2,-5.9406394E-1,9.084982E-2,8.5822326E-1,-5.8508784E-2,8.701406E-1,-3.846557E-2,-6.007846E-2,1.0829358E-2,8.699881E-2,-4.9991366E-2,1.11943185E-1,8.6988874E-2],"categories":[],"categories_nodes":[],"categories_segments":[],"categories_sizes":[],"default_left":[1,1,1,1,1,1,0,1,0,1,0,0,0,0,0,0,0,0,0],"id":36,"left_children":[1,3,5,7,9,11,-1,13,-1,15,-1,17,-1,-1,-1,-1,-1,-1,-1],"loss_changes":[4.607386E4,5.843865E3,8.611719E1,5.374961E2,9.0510254E1,3.3378906E0,0E0,2.8725977E2,0E0,4.7968506E1,0E0,1.4121094E0,0E0,0E0,0E0,0E0,0E0,0E0,0E0],"parents":[2147483647,0,0,1,1,2,2,3,3,4,4,5,5,7,7,9,9,11,11],"right_children":[2,4,6,8,10,12,-1,14,-1,16,-1,18,-1,-1,-1,-1,-1,-1,-1],"split_conditions":[-1E-5,8.048483E-2,-1E-5,8.504401E-2,-1E-5,-1E-5,-5.5452414E-2,-1E-5,9.084982E-2,-1E-5,-5.8508784E-2,2.2087282E-1,-3.846557E-2,-6.007846E-2,1.0829358E-2,8.699881E-2,-4.9991366E-2,1.11943185E-1,8.6988874E-2],"split_indices":[9760,9059,6806,8997,7564,9625,0,8112,0,9625,0,9324,0,0,0,0,0,0,0],"split_type":[0,0,0,0,0,0,0,0,0,0,0,0,0,0,0,0,0,0,0],"sum_hessian":[1.0210743E5,6.4096906E4,3.8010523E4,6.1079586E4,3.0173198E3,3.796867E4,4.1851696E1,6.084142E4,2.381632E2,2.9738806E3,4.343926E1,3.796707E4,1.6002334E0,6.026491E4,5.765128E2,2.948697E3,2.5183613E1,3.38442E1,3.7933227E4],"tree_param":{"num_deleted":"0","num_feature":"10000","num_nodes":"19","size_leaf_vector":"1"}},{"base_weights":[-4.7997204E-3,-3.809918E-1,1.3352139E0,-4.5651007E-2,2.1130485E-2,-3.0266955E-2,2.7366096E-1],"categories":[],"categories_nodes":[],"categories_segments":[],"categories_sizes":[],"default_left":[1,1,0,0,0,0,0],"id":37,"left_children":[1,3,5,-1,-1,-1,-1],"loss_changes":[8.143296E0,6.60192E-1,8.957771E0,0E0,0E0,0E0,0E0],"parents":[2147483647,0,0,1,1,2,2],"right_children":[2,4,6,-1,-1,-1,-1],"split_conditions":[9.746232E-2,7.433393E-2,6.439749E-2,-4.5651007E-2,2.1130485E-2,-3.0266955E-2,2.7366096E-1],"split_indices":[0,8170,8491,0,0,0,0],"split_type":[0,0,0,0,0,0,0],"sum_hessian":[1.4144918E1,1.1603157E1,2.5417607E0,1.0494371E1,1.108786E0,1.5335011E0,1.0082594E0],"tree_param":{"num_deleted":"0","num_feature":"10000","num_nodes":"7","size_leaf_vector":"1"}},{"base_weights":[-2.3663506E-1,6.3622996E-2,-5.049101E-1,4.4570217E-1,-5.0231513E-2,1.0884191E-1,-5.0612277E-1,6.477232E-1,-2.756008E-1,-5.0306868E-2,-9.4027095E-2,6.348436E-2,4.4943658E-1,-4.4631347E-2,6.090289E-2],"categories":[],"categories_nodes":[],"categories_segments":[],"categories_sizes":[],"default_left":[1,1,0,1,0,0,1,1,1,0,0,0,0,0,0],"id":38,"left_children":[1,3,5,7,-1,-1,9,11,13,-1,-1,-1,-1,-1,-1],"loss_changes":[3.7783084E2,4.789715E2,5.337158E0,1.9285352E2,0E0,0E0,2.8098145E0,4.8336792E1,4.406765E1,0E0,0E0,0E0,0E0,0E0,0E0],"parents":[2147483647,0,0,1,1,2,2,3,3,6,6,7,7,8,8],"right_children":[2,4,6,8,-1,-1,10,12,14,-1,-1,-1,-1,-1,-1],"split_conditions":[-1E-5,-1E-5,4.1406703E-1,5.2153647E-2,-5.0231513E-2,1.0884191E-1,1.1944496E-1,-1E-5,-1E-5,-5.0306868E-2,-9.4027095E-2,6.348436E-2,4.4943658E-1,-4.4631347E-2,6.090289E-2],"split_indices":[9691,8178,1204,0,0,0,9132,9902,7407,0,0,0,0,0,0],"split_type":[0,0,0,0,0,0,0,0,0,0,0,0,0,0,0],"sum_hessian":[4.6891377E3,2.2130344E3,2.4761035E3,1.3212424E3,8.9179193E2,1.2012872E0,2.4749023E3,1.0322375E3,2.890049E2,2.4597576E3,1.514461E1,1.029954E3,2.283532E0,2.4267067E2,4.6334248E1],"tree_param":{"num_deleted":"0","num_feature":"10000","num_nodes":"15","size_leaf_vector":"1"}},{"base_weights":[1.8056273E-2,1.2256712E-1,-1.9614977E-1,1.7693608E-1,-4.319633E-2,7.640362E-2,-3.5300665E-2],"categories":[],"categories_nodes":[],"categories_segments":[],"categories_sizes":[],"default_left":[0,0,1,1,0,0,0],"id":39,"left_children":[1,-1,3,5,-1,-1,-1],"loss_changes":[3.4859571E0,0E0,1.0898077E0,1.8783302E0,0E0,0E0,0E0],"parents":[2147483647,0,0,2,2,3,3],"right_children":[2,-1,4,6,-1,-1,-1],"split_conditions":[2.2478116E-1,1.2256712E-1,-1E-5,-1E-5,-4.319633E-2,7.640362E-2,-3.5300665E-2],"split_indices":[2809,0,9691,8206,0,0,0],"split_type":[0,0,0,0,0,0,0],"sum_hessian":[1.1546631E1,1.0281836E0,1.0518447E1,4.1702614E0,6.348186E0,1.7688723E0,2.401389E0],"tree_param":{"num_deleted":"0","num_feature":"10000","num_nodes":"7","size_leaf_vector":"1"}},{"base_weights":[-4.0437216E-1,5.536257E-1,-4.6551302E-1,4.8566884E-1,4.503036E-1,-4.732938E-1,6.705054E-1,2.6524377E-1,1.5647757E0,-4.8733345E-1,4.9194697E-2,-5.2441772E-2,6.0090926E-2,3.1625348E-1,5.7424683E-2,-4.907949E-2,3.2102263E-1],"categories":[],"categories_nodes":[],"categories_segments":[],"categories_sizes":[],"default_left":[0,1,1,1,0,1,0,1,1,1,0,0,0,0,0,0,0],"id":40,"left_children":[1,3,5,7,-1,9,-1,11,13,15,-1,-1,-1,-1,-1,-1,-1],"loss_changes":[1.2785654E2,3.301198E1,1.17454315E2,3.0519207E1,0E0,2.7980377E1,0E0,2.925889E1,3.2772255E1,2.7406067E1,0E0,0E0,0E0,0E0,0E0,0E0,0E0],"parents":[2147483647,0,0,1,1,2,2,3,3,5,5,7,7,8,8,9,9],"right_children":[2,4,6,8,-1,10,-1,12,14,16,-1,-1,-1,-1,-1,-1,-1],"split_conditions":[2.293374E-1,3.3096347E-2,5.375443E-1,1.874571E-2,4.503036E-1,-1E-5,6.705054E-1,9.025393E-2,3.131079E-2,1.4810975E-1,4.9194697E-2,-5.2441772E-2,6.0090926E-2,3.1625348E-1,5.7424683E-2,-4.907949E-2,3.2102263E-1],"split_indices":[7630,6870,8898,9210,0,8384,0,7971,5656,7377,0,0,0,0,0,0,0],"split_type":[0,0,0,0,0,0,0,0,0,0,0,0,0,0,0,0,0],"sum_hessian":[2.1774658E3,1.3014876E2,2.047317E3,1.2905116E2,1.0975907E0,2.0460309E3,1.2861509E0,1.08196144E2,2.0855017E1,2.0171855E3,2.8845314E1,3.21053E1,7.609084E1,7.141976E0,1.371304E1,2.0161654E3,1.0201524E0],"tree_param":{"num_deleted":"0","num_feature":"10000","num_nodes":"17","size_leaf_vector":"1"}},{"base_weights":[5.4380476E-2,-4.2858455E-2,9.0298676E-1,2.1031673E-1,-3.219026E-2],"categories":[],"categories_nodes":[],"categories_segments":[],"categories_sizes":[],"default_left":[1,0,1,0,0],"id":41,"left_children":[1,-1,3,-1,-1],"loss_changes":[4.4530377E0,0E0,6.440035E0,0E0,0E0],"parents":[2147483647,0,0,2,2],"right_children":[2,-1,4,-1,-1],"split_conditions":[3.9696965E-2,-4.2858455E-2,6.523959E-2,2.1031673E-1,-3.219026E-2],"split_indices":[8170,0,7415,0,0],"split_type":[0,0,0,0,0],"sum_hessian":[8.920847E0,6.0006614E0,2.9201856E0,1.1128035E0,1.8073821E0],"tree_param":{"num_deleted":"0","num_feature":"10000","num_nodes":"5","size_leaf_vector":"1"}},{"base_weights":[2.2035027E-2,5.0404704E-1,-7.9730505E-1,5.6954E-1,-7.879826E-1,-5.683463E-1,-7.976914E-2,-2.1913408E-1,5.859446E-1,-7.937631E-1,6.944394E-1,-3.3793473E-3,-5.799837E-1,-3.3511277E-4,-7.4138306E-2,5.922227E-2,-5.7335466E-2,-7.9593346E-2,4.1522536E-2,5.431053E-2,1.02264725E-1,-1.3253144E-2,-5.8594193E-2],"categories":[],"categories_nodes":[],"categories_segments":[],"categories_sizes":[],"default_left":[1,1,0,1,1,0,0,1,1,1,1,0,0,0,0,0,0,0,0,0,0,0,0],"id":42,"left_children":[1,3,5,7,9,11,-1,13,15,17,19,-1,21,-1,-1,-1,-1,-1,-1,-1,-1,-1,-1],"loss_changes":[3.8918266E4,5.2505557E3,2.7773438E0,7.64125E2,2.6204712E1,3.845501E-1,0E0,1.3567659E2,4.2136914E2,8.156616E0,4.8645973E-2,0E0,9.169388E-2,0E0,0E0,0E0,0E0,0E0,0E0,0E0,0E0,0E0,0E0],"parents":[2147483647,0,0,1,1,2,2,3,3,4,4,5,5,7,7,8,8,9,9,10,10,12,12],"right_children":[2,4,6,8,10,12,-1,14,16,18,20,-1,22,-1,-1,-1,-1,-1,-1,-1,-1,-1,-1],"split_conditions":[-1E-5,-1E-5,2.8993903E-2,-1E-5,-1E-5,5.8709934E-2,-7.976914E-2,-1E-5,-1E-5,3.0814847E-2,-1E-5,-3.3793473E-3,8.385275E-2,-3.3511277E-4,-7.4138306E-2,5.922227E-2,-5.7335466E-2,-7.9593346E-2,4.1522536E-2,5.431053E-2,1.02264725E-1,-1.3253144E-2,-5.8594193E-2],"split_indices":[9760,9059,8170,8170,8178,900,0,7630,7407,8354,9921,0,1096,0,0,0,0,0,0,0,0,0,0],"split_type":[0,0,0,0,0,0,0,0,0,0,0,0,0,0,0,0,0,0,0,0,0,0,0],"sum_hessian":[9.8542266E4,6.204312E4,3.6499145E4,5.905041E4,2.9927083E3,6.3967617E1,3.6435176E4,1.202977E3,5.7847434E4,2.9815469E3,1.1161521E1,1.4461043E0,6.2521515E1,8.5196735E2,3.5100967E2,5.753634E4,3.110946E2,2.976545E3,5.0017977E0,9.456132E0,1.7053893E0,1.1270233E0,6.139449E1],"tree_param":{"num_deleted":"0","num_feature":"10000","num_nodes":"23","size_leaf_vector":"1"}},{"base_weights":[-4.3046162E-3,-5.0927687E-1,8.105551E-1,-5.748541E-1,8.1373316E-1,-5.5149395E-2,8.11928E-1,-5.814949E-1,8.4988385E-2,8.121782E-1,1.2702072E-1,8.1169285E-2,1.2853418E-1,-5.8746386E-2,3.8749527E-3,8.1252515E-2,7.980561E-3],"categories":[],"categories_nodes":[],"categories_segments":[],"categories_sizes":[],"default_left":[1,1,0,1,1,0,1,1,0,1,0,0,0,0,0,0,0],"id":43,"left_children":[1,3,5,7,9,-1,11,13,-1,15,-1,-1,-1,-1,-1,-1,-1],"loss_changes":[3.9621727E4,5.15825E3,6.933594E1,5.36416E2,9.616699E-1,0E0,3.0507812E0,2.087539E2,0E0,6.470947E-1,0E0,0E0,0E0,0E0,0E0,0E0,0E0],"parents":[2147483647,0,0,1,1,2,2,3,3,4,4,6,6,7,7,9,9],"right_children":[2,4,6,8,10,-1,12,14,-1,16,-1,-1,-1,-1,-1,-1,-1],"split_conditions":[-1E-5,5.8908828E-2,3.4023996E-2,8.504401E-2,-1E-5,-5.5149395E-2,1.5241502E-1,7.089977E-2,8.4988385E-2,-1E-5,1.2702072E-1,8.1169285E-2,1.2853418E-1,-5.8746386E-2,3.8749527E-3,8.1252515E-2,7.980561E-3],"split_indices":[9760,9369,8170,8997,7060,0,9132,8109,0,903,0,0,0,0,0,0,0],"split_type":[0,0,0,0,0,0,0,0,0,0,0,0,0,0,0,0,0],"sum_hessian":[9.628841E4,5.9448363E4,3.6840043E4,5.6641402E4,2.806959E3,3.6691887E1,3.680335E4,5.6379203E4,2.621981E2,2.8001995E3,6.7596636E0,3.6787793E4,1.5560628E1,5.5841863E4,5.373419E2,2.798764E3,1.4355061E0],"tree_param":{"num_deleted":"0","num_feature":"10000","num_nodes":"17","size_leaf_vector":"1"}},{"base_weights":[1.567867E-1,-3.7241498E-1,1.7923347E0,-4.530183E-2,2.0903287E-2,-3.1319793E-2,3.6835834E-1],"categories":[],"categories_nodes":[],"categories_segments":[],"categories_sizes":[],"default_left":[1,1,0,0,0,0,0],"id":44,"left_children":[1,3,5,-1,-1,-1,-1],"loss_changes":[1.3186586E1,6.4566195E-1,1.5919071E1,0E0,0E0,0E0,0E0],"parents":[2147483647,0,0,1,1,2,2],"right_children":[2,4,6,-1,-1,-1,-1],"split_conditions":[9.746232E-2,7.7078156E-2,4.9236014E-2,-4.530183E-2,2.0903287E-2,-3.1319793E-2,3.6835834E-1],"split_indices":[0,9841,9361,0,0,0,0],"split_type":[0,0,0,0,0,0,0],"sum_hessian":[1.3463998E1,1.0756046E1,2.7079513E0,9.640508E0,1.1155381E0,1.6762137E0,1.0317376E0],"tree_param":{"num_deleted":"0","num_feature":"10000","num_nodes":"7","size_leaf_vector":"1"}},{"base_weights":[-2.3709188E-1,4.8311716E-1,-3.8100502E-1,-4.9849E-2,6.76585E-1,5.802484E-1,-4.4621173E-1,6.1054057E-1,1.4167731E0,6.859359E-1,-8.583977E-2,7.983732E-1,-4.9029714E-1,-4.2299755E-2,6.2084563E-2,1.2145875E-1,1.9552957E-1,7.153996E-2,-5.8912076E-2,6.876468E-2,3.1398663E-1,-4.9511503E-2,1.5537846E-1],"categories":[],"categories_nodes":[],"categories_segments":[],"categories_sizes":[],"default_left":[0,0,0,0,1,1,0,0,1,1,0,1,1,0,0,0,0,0,0,0,0,0,0],"id":45,"left_children":[1,3,5,-1,7,9,11,13,15,17,-1,19,21,-1,-1,-1,-1,-1,-1,-1,-1,-1,-1],"loss_changes":[4.5270758E2,1.3850838E2,2.2837842E2,0E0,2.8867004E1,3.5807716E1,1.8742505E2,6.228409E0,2.9673767E0,8.548737E0,0E0,2.8173637E1,3.3197266E1,0E0,0E0,0E0,0E0,0E0,0E0,0E0,0E0,0E0,0E0],"parents":[2147483647,0,0,1,1,2,2,4,4,5,5,6,6,7,7,8,8,9,9,11,11,12,12],"right_children":[2,4,6,-1,8,10,12,14,16,18,-1,20,22,-1,-1,-1,-1,-1,-1,-1,-1,-1,-1],"split_conditions":[1.1335427E-1,3.2563593E-2,3.6763597E-1,-4.9849E-2,2.023073E-1,5.826683E-2,7.470134E-1,7.411422E-2,-1E-5,-1E-5,-8.583977E-2,1.3147585E-1,3.0811436E-2,-4.2299755E-2,6.2084563E-2,1.2145875E-1,1.9552957E-1,7.153996E-2,-5.8912076E-2,6.876468E-2,3.1398663E-1,-4.9511503E-2,1.5537846E-1],"split_indices":[7564,8170,9324,0,8643,0,9413,7564,2566,9323,0,7303,8353,0,0,0,0,0,0,0,0,0,0],"split_type":[0,0,0,0,0,0,0,0,0,0,0,0,0,0,0,0,0,0,0,0,0,0,0],"sum_hessian":[4.364984E3,7.265632E2,3.638421E3,1.19363945E2,6.071992E2,2.3063184E2,3.407789E3,5.5913446E2,4.806477E1,2.153358E2,1.52960415E1,1.15995125E2,3.291794E3,5.124539E0,5.5400995E2,3.7311687E1,1.0753084E1,2.1090128E2,4.434531E0,1.119928E2,4.0023284E0,3.2848093E3,6.9845123E0],"tree_param":{"num_deleted":"0","num_feature":"10000","num_nodes":"23","size_leaf_vector":"1"}},{"base_weights":[1.19659625E-1,2.0899184E-1,-2.7231497E-1,-7.71266E-3,-4.275575E-2,3.7552644E-2,-3.448619E-2],"categories":[],"categories_nodes":[],"categories_segments":[],"categories_sizes":[],"default_left":[0,0,1,1,0,0,0],"id":46,"left_children":[1,-1,3,5,-1,-1,-1],"loss_changes":[9.916308E0,0E0,4.477166E-1,7.8565276E-1,0E0,0E0,0E0],"parents":[2147483647,0,0,2,2,3,3],"right_children":[2,-1,4,6,-1,-1,-1],"split_conditions":[2.2478116E-1,2.0899184E-1,-1E-5,-1E-5,-4.275575E-2,3.7552644E-2,-3.448619E-2],"split_indices":[2809,0,9691,8206,0,0,0],"split_type":[0,0,0,0,0,0,0],"sum_hessian":[1.1103195E1,1.123609E0,9.979586E0,4.0782003E0,5.9013853E0,1.8553674E0,2.2228332E0],"tree_param":{"num_deleted":"0","num_feature":"10000","num_nodes":"7","size_leaf_vector":"1"}},{"base_weights":[-3.9850345E-1,6.273916E-1,-4.4390735E-1,2.3523133E-1,1.3104974E0,-4.5308402E-1,4.6140525E-1,-6.1080587E-1,6.00604E-2,2.4653633E0,6.070566E-2,-4.5771086E-1,4.1296235E-1,4.3977037E-2,-8.005697E-2,3.0479613E-1,1.6204162E-1,-4.6233427E-2,3.4034085E-1],"categories":[],"categories_nodes":[],"categories_segments":[],"categories_sizes":[],"default_left":[0,1,1,1,1,1,0,0,0,1,0,1,0,0,0,0,0,0,0],"id":47,"left_children":[1,3,5,7,9,11,-1,13,-1,15,-1,17,-1,-1,-1,-1,-1,-1,-1],"loss_changes":[9.444937E1,2.2756535E1,9.197919E1,1.7651731E1,2.3835335E1,4.289801E1,0E0,3.8131337E0,0E0,7.1079254E-1,0E0,3.6079865E1,0E0,0E0,0E0,0E0,0E0,0E0,0E0],"parents":[2147483647,0,0,1,1,2,2,3,3,4,4,5,5,7,7,9,9,11,11],"right_children":[2,4,6,8,10,12,-1,14,-1,16,-1,18,-1,-1,-1,-1,-1,-1,-1],"split_conditions":[1.6950998E-1,1.874571E-2,1.1866434E-1,2.02309E-1,3.226543E-2,8.050556E-2,4.6140525E-1,4.31836E-2,6.00604E-2,-1E-5,6.070566E-2,1.4725164E-1,4.1296235E-1,4.3977037E-2,-8.005697E-2,3.0479613E-1,1.6204162E-1,-4.6233427E-2,3.4034085E-1],"split_indices":[9922,9210,7162,9627,5656,6842,0,7376,0,9812,0,9931,0,0,0,0,0,0,0],"split_type":[0,0,0,0,0,0,0,0,0,0,0,0,0,0,0,0,0,0,0],"sum_hessian":[2.0207175E3,8.509901E1,1.9356185E3,5.4916607E1,3.01824E1,1.9330219E3,2.5966678E0,1.6360767E1,3.8555843E1,1.0477069E1,1.970533E1,1.9319713E3,1.0504514E0,2.3015258E0,1.4059241E1,4.6580343E0,5.819035E0,1.9305399E3,1.4314102E0],"tree_param":{"num_deleted":"0","num_feature":"10000","num_nodes":"19","size_leaf_vector":"1"}},{"base_weights":[7.321875E-2,-4.2386856E-2,8.6552525E-1,1.8425444E-1,-3.1342737E-2],"categories":[],"categories_nodes":[],"categories_segments":[],"categories_sizes":[],"default_left":[1,0,1,0,0],"id":48,"left_children":[1,-1,3,-1,-1],"loss_changes":[4.14574E0,0E0,5.216877E0,0E0,0E0],"parents":[2147483647,0,0,2,2],"right_children":[2,-1,4,-1,-1],"split_conditions":[3.9696965E-2,-4.2386856E-2,6.523959E-2,1.8425444E-1,-3.1342737E-2],"split_indices":[8170,0,7415,0,0],"split_type":[0,0,0,0,0],"sum_hessian":[8.594806E0,5.5670795E0,3.0277257E0,1.3478625E0,1.6798632E0],"tree_param":{"num_deleted":"0","num_feature":"10000","num_nodes":"5","size_leaf_vector":"1"}},{"base_weights":[2.2826547E-2,4.9273044E-1,-7.537381E-1,-7.4415004E-1,5.582378E-1,-5.7422575E-2,-7.5400203E-1,-7.507815E-1,7.269463E-1,5.6527203E-1,-6.9892836E-1,-7.5402476E-2,-2.0764261E-2,-7.5241685E-2,4.6313137E-2,5.490133E-2,1.0456287E-1,5.713555E-2,-5.5788357E-2,-7.359511E-2,5.5944216E-2],"categories":[],"categories_nodes":[],"categories_segments":[],"categories_sizes":[],"default_left":[1,0,0,1,1,0,1,1,1,1,1,0,0,0,0,0,0,0,0,0,0],"id":49,"left_children":[1,3,5,7,9,-1,11,13,15,17,19,-1,-1,-1,-1,-1,-1,-1,-1,-1,-1],"loss_changes":[3.369329E4,4.661325E3,1.2167969E0,2.8776245E1,4.8351367E2,0E0,2.734375E-1,6.0683594E0,1.911149E-1,3.7152344E2,1.4594482E1,0E0,0E0,0E0,0E0,0E0,0E0,0E0,0E0,0E0,0E0],"parents":[2147483647,0,0,1,1,2,2,3,3,4,4,6,6,7,7,8,8,9,9,10,10],"right_children":[2,4,6,8,10,-1,12,14,16,18,20,-1,-1,-1,-1,-1,-1,-1,-1,-1,-1],"split_conditions":[-1E-5,3.5566747E-1,1.8517677E-1,-1E-5,8.380167E-2,-5.7422575E-2,7.214533E-2,-1E-5,-1E-5,1.8399884E-1,-1E-5,-7.5402476E-2,-2.0764261E-2,-7.5241685E-2,4.6313137E-2,5.490133E-2,1.0456287E-1,5.713555E-2,-5.5788357E-2,-7.359511E-2,5.5944216E-2],"split_indices":[9681,9059,9321,5400,9413,0,7677,8019,9920,9341,9691,0,0,0,0,0,0,0,0,0,0],"split_type":[0,0,0,0,0,0,0,0,0,0,0,0,0,0,0,0,0,0,0,0,0],"sum_hessian":[9.233094E4,5.7523492E4,3.4807445E4,2.8927898E3,5.4630703E4,5.4301167E1,3.475314E4,2.8802954E3,1.2494258E1,5.4327277E4,3.0342743E2,3.475132E4,1.8226566E0,2.8768E3,3.4954457E0,9.764894E0,2.7293646E0,5.4035094E4,2.921814E2,2.9515866E2,8.268747E0],"tree_param":{"num_deleted":"0","num_feature":"10000","num_nodes":"21","size_leaf_vector":"1"}},{"base_weights":[-4.3125865E-3,-4.9917507E-1,7.644633E-1,-5.660153E-1,7.3732054E-1,-5.5201143E-2,7.6580215E-1,6.903213E-2,-5.7993835E-1,7.488743E-1,-5.9384286E-2,7.655994E-2,1.1353906E-1,-1.0826297E-2,7.996618E-2,-5.8021348E-2,2.7773765E-1,-4.4567775E-4,7.634618E-2],"categories":[],"categories_nodes":[],"categories_segments":[],"categories_sizes":[],"default_left":[1,1,0,1,1,0,1,1,1,1,0,0,0,0,0,0,0,0,0],"id":50,"left_children":[1,3,5,7,9,-1,11,13,15,17,-1,-1,-1,-1,-1,-1,-1,-1,-1],"loss_changes":[3.4274137E4,4.530328E3,6.2609375E1,4.5981055E2,4.3682617E1,0E0,1.7714844E0,1.4471426E2,4.861328E1,3.0636475E1,0E0,0E0,0E0,0E0,0E0,0E0,0E0,0E0,0E0],"parents":[2147483647,0,0,1,1,2,2,3,3,4,4,6,6,7,7,8,8,9,9],"right_children":[2,4,6,8,10,-1,12,14,16,18,-1,-1,-1,-1,-1,-1,-1,-1,-1],"split_conditions":[-1E-5,8.048483E-2,3.665112E-2,-1E-5,-1E-5,-5.5201143E-2,1.5241502E-1,-1E-5,-1E-5,-1E-5,-5.9384286E-2,7.655994E-2,1.1353906E-1,-1.0826297E-2,7.996618E-2,-5.8021348E-2,2.7773765E-1,-4.4567775E-4,7.634618E-2],"split_indices":[9760,9059,8170,8170,7008,0,9132,8997,8390,8170,0,0,0,0,0,0,0,0,0],"split_type":[0,0,0,0,0,0,0,0,0,0,0,0,0,0,0,0,0,0,0],"sum_hessian":[9.008917E4,5.4808918E4,3.5280254E4,5.1998617E4,2.8103037E3,3.5425392E1,3.524483E4,1.1154966E3,5.0883117E4,2.7865552E3,2.3748337E1,3.522857E4,1.6257715E1,8.9835333E2,2.1714322E2,5.0879777E4,3.3422503E0,5.2946987E1,2.7336084E3],"tree_param":{"num_deleted":"0","num_feature":"10000","num_nodes":"19","size_leaf_vector":"1"}},{"base_weights":[1.04004174E-1,-4.547044E-2,1.6061426E0,-3.352254E-2,3.7458742E-1],"categories":[],"categories_nodes":[],"categories_segments":[],"categories_sizes":[],"default_left":[1,0,0,0,0],"id":51,"left_children":[1,-1,3,-1,-1],"loss_changes":[1.2540604E1,0E0,1.802015E1,0E0,0E0],"parents":[2147483647,0,0,2,2],"right_children":[2,-1,4,-1,-1],"split_conditions":[9.746232E-2,-4.547044E-2,7.252883E-2,-3.352254E-2,3.7458742E-1],"split_indices":[0,0,6870,0,0],"split_type":[0,0,0,0,0],"sum_hessian":[1.3072299E1,1.0036571E1,3.0357277E0,2.033802E0,1.0019258E0],"tree_param":{"num_deleted":"0","num_feature":"10000","num_nodes":"5","size_leaf_vector":"1"}},{"base_weights":[-2.3506218E-1,6.540914E-1,-3.246508E-1,7.2861266E-1,-8.202463E-2,-4.2871842E-1,5.941355E-2,6.900015E-1,1.6642605E-1,7.062958E-1,-4.736014E-1,7.09845E-2,-5.877736E-2,9.016254E-2,-4.790738E-2,-4.9160898E-2,1.08444504E-1],"categories":[],"categories_nodes":[],"categories_segments":[],"categories_sizes":[],"default_left":[0,1,1,1,0,0,0,1,0,1,1,0,0,0,0,0,0],"id":52,"left_children":[1,3,5,7,-1,9,-1,11,-1,13,15,-1,-1,-1,-1,-1,-1],"loss_changes":[3.2224365E2,4.129059E1,3.5148016E2,1.1607376E1,0E0,1.6845325E2,0E0,9.058365E0,0E0,2.9591373E1,8.9618774E1,0E0,0E0,0E0,0E0,0E0,0E0],"parents":[2147483647,0,0,1,1,2,2,3,3,5,5,7,7,9,9,10,10],"right_children":[2,4,6,8,-1,10,-1,12,-1,14,16,-1,-1,-1,-1,-1,-1],"split_conditions":[3.6763597E-1,6.109132E-2,-1E-5,2.2298428E-1,-8.202463E-2,7.470134E-1,5.941355E-2,-1E-5,1.6642605E-1,4.290315E-2,-1E-5,7.09845E-2,-5.877736E-2,9.016254E-2,-4.790738E-2,-4.9160898E-2,1.08444504E-1],"split_indices":[9324,0,7408,7570,0,9413,0,5595,0,5720,8645,0,0,0,0,0,0],"split_type":[0,0,0,0,0,0,0,0,0,0,0,0,0,0,0,0,0],"sum_hessian":[4.0416707E3,3.6937537E2,3.6722954E3,3.5208484E2,1.729053E1,3.2991462E3,3.7314905E2,3.3979984E2,1.2284984E1,1.24938065E2,3.1742083E3,3.3504123E2,4.7586155E0,1.0746839E2,1.7469673E1,3.1386172E3,3.559104E1],"tree_param":{"num_deleted":"0","num_feature":"10000","num_nodes":"17","size_leaf_vector":"1"}},{"base_weights":[2.2253732E-1,2.1082266E-1,-1.715324E-1,1.7553687E-1,-4.227771E-2,6.591993E-2,-3.4186568E-2],"categories":[],"categories_nodes":[],"categories_segments":[],"categories_sizes":[],"default_left":[0,0,1,1,0,0,0],"id":53,"left_children":[1,-1,3,5,-1,-1,-1],"loss_changes":[9.103302E0,0E0,1.003339E0,1.5218827E0,0E0,0E0,0E0],"parents":[2147483647,0,0,2,2,3,3],"right_children":[2,-1,4,6,-1,-1,-1],"split_conditions":[2.2245765E-1,2.1082266E-1,-1E-5,4.1838687E-2,-4.227771E-2,6.591993E-2,-3.4186568E-2],"split_indices":[2809,0,9691,8170,0,0,0],"split_type":[0,0,0,0,0,0,0],"sum_hessian":[1.0763901E1,1.1087008E0,9.6552E0,4.1809573E0,5.474242E0,2.0192912E0,2.1616664E0],"tree_param":{"num_deleted":"0","num_feature":"10000","num_nodes":"7","size_leaf_vector":"1"}},{"base_weights":[-3.898558E-1,-4.6019128E-1,5.135912E-1,-4.6917012E-1,3.2358742E-1,4.4738448E-1,4.7219855E-1,-4.74313E-1,4.2110395E-1,6.1965805E-1,-5.463354E-1,4.9089327E-2,-4.8992556E-2,-7.709154E-2,7.158487E-2,-4.7482293E-2,-8.141818E-2],"categories":[],"categories_nodes":[],"categories_segments":[],"categories_sizes":[],"default_left":[1,1,1,1,0,1,0,0,0,0,1,0,0,0,0,0,0],"id":54,"left_children":[1,3,5,7,-1,9,-1,11,-1,13,15,-1,-1,-1,-1,-1,-1],"loss_changes":[1.19776794E2,5.945691E1,3.5878086E1,4.3938843E1,0E0,2.350826E1,0E0,2.6483643E1,0E0,1.6043365E1,6.6137314E-3,0E0,0E0,0E0,0E0,0E0,0E0],"parents":[2147483647,0,0,1,1,2,2,3,3,5,5,7,7,9,9,10,10],"right_children":[2,4,6,8,-1,10,-1,12,-1,14,16,-1,-1,-1,-1,-1,-1],"split_conditions":[-1E-5,1.1866434E-1,9.4295956E-2,1.17848195E-1,3.2358742E-1,-1E-5,4.7219855E-1,4.3202946E-1,4.2110395E-1,5.1800873E-2,-1E-5,4.9089327E-2,-4.8992556E-2,-7.709154E-2,7.158487E-2,-4.7482293E-2,-8.141818E-2],"split_indices":[7630,7162,6870,9980,0,7451,0,8796,0,8213,9920,0,0,0,0,0,0],"split_type":[0,0,0,0,0,0,0,0,0,0,0,0,0,0,0,0,0],"sum_hessian":[1.8802123E3,1.7448613E3,1.3535094E2,1.7415038E3,3.3575602E0,1.3434373E2,1.0071958E0,1.7404899E3,1.0138872E0,1.1481548E2,1.952825E1,2.7220373E1,1.7132695E3,6.974512E0,1.0784097E2,1.7601543E1,1.9267052E0],"tree_param":{"num_deleted":"0","num_feature":"10000","num_nodes":"17","size_leaf_vector":"1"}},{"base_weights":[9.1127664E-2,-4.1900065E-2,8.3118016E-1,1.635154E-1,-3.0436466E-2],"categories":[],"categories_nodes":[],"categories_segments":[],"categories_sizes":[],"default_left":[1,0,1,0,0],"id":55,"left_children":[1,-1,3,-1,-1],"loss_changes":[3.8607702E0,0E0,4.2696533E0,0E0,0E0],"parents":[2147483647,0,0,2,2],"right_children":[2,-1,4,-1,-1],"split_conditions":[3.9696965E-2,-4.1900065E-2,6.523959E-2,1.635154E-1,-3.0436466E-2],"split_indices":[8170,0,7415,0,0],"split_type":[0,0,0,0,0],"sum_hessian":[8.304113E0,5.1724772E0,3.1316361E0,1.5759087E0,1.5557276E0],"tree_param":{"num_deleted":"0","num_feature":"10000","num_nodes":"5","size_leaf_vector":"1"}},{"base_weights":[2.1716379E-2,4.834737E-1,-7.182396E-1,5.476001E-1,-7.103816E-1,-7.1830374E-1,3.81426E-2,-2.2023618E-1,5.6564826E-1,-7.165382E-1,7.0744954E-2,-5.6436915E-2,-7.185275E-1,-2.8617887E-3,-6.876498E-2,5.7162613E-2,-5.5426326E-2,-7.1801476E-2,4.494427E-2,-4.7638994E-3,-7.185582E-2],"categories":[],"categories_nodes":[],"categories_segments":[],"categories_sizes":[],"default_left":[1,1,1,1,1,0,0,1,1,1,0,0,0,0,0,0,0,0,0,0,0],"id":56,"left_children":[1,3,5,7,9,11,-1,13,15,17,-1,-1,19,-1,-1,-1,-1,-1,-1,-1,-1],"loss_changes":[2.9392576E4,4.05558E3,2.6054688E0,6.967617E2,2.4079956E1,7.34375E-1,0E0,1.0344413E2,3.291289E2,4.952759E0,0E0,0E0,6.4453125E-1,0E0,0E0,0E0,0E0,0E0,0E0,0E0,0E0],"parents":[2147483647,0,0,1,1,2,2,3,3,4,4,5,5,7,7,8,8,9,9,12,12],"right_children":[2,4,6,8,10,12,-1,14,16,18,-1,-1,20,-1,-1,-1,-1,-1,-1,-1,-1],"split_conditions":[-1E-5,-1E-5,-1E-5,-1E-5,-1E-5,1.7748022E-1,3.81426E-2,-1E-5,-1E-5,-1E-5,7.0744954E-2,-5.6436915E-2,2.8035918E-1,-2.8617887E-3,-6.876498E-2,5.7162613E-2,-5.5426326E-2,-7.1801476E-2,4.494427E-2,-4.7638994E-3,-7.185582E-2],"split_indices":[9760,9059,7432,8170,5400,9321,0,7630,9442,8026,0,0,5214,0,0,0,0,0,0,0,0],"split_type":[0,0,0,0,0,0,0,0,0,0,0,0,0,0,0,0,0,0,0,0,0],"sum_hessian":[8.6021664E4,5.2968125E4,3.3053535E4,5.0268555E4,2.6995684E3,3.3051957E4,1.5812583E0,1.1541816E3,4.9114375E4,2.6883894E3,1.1178941E1,5.1641644E1,3.3000312E4,8.193476E2,3.3483405E2,4.885409E4,2.6028357E2,2.685373E3,3.01656E0,1.5812322E0,3.2998734E4],"tree_param":{"num_deleted":"0","num_feature":"10000","num_nodes":"21","size_leaf_vector":"1"}},{"base_weights":[-3.679202E-3,-4.8943862E-1,7.272941E-1,-5.562147E-1,7.009497E-1,7.2843385E-1,-5.41025E-2,-5.622694E-1,7.576692E-2,7.194911E-1,-5.69817E-2,7.284822E-1,-3.3604544E-2,-5.7032984E-2,8.684083E-3,7.295798E-2,-4.8929032E-2,7.28312E-2,1.0195366E-1],"categories":[],"categories_nodes":[],"categories_segments":[],"categories_sizes":[],"default_left":[1,1,1,1,1,1,0,1,0,1,0,1,0,0,0,0,0,0,0],"id":57,"left_children":[1,3,5,7,9,11,-1,13,-1,15,-1,17,-1,-1,-1,-1,-1,-1,-1],"loss_changes":[2.9878463E4,4.0187725E3,4.895703E1,3.8122168E2,6.3687622E1,1.9746094E0,0E0,2.4935449E2,0E0,3.2642456E1,0E0,9.1796875E-1,0E0,0E0,0E0,0E0,0E0,0E0,0E0],"parents":[2147483647,0,0,1,1,2,2,3,3,4,4,5,5,7,7,9,9,11,11],"right_children":[2,4,6,8,10,12,-1,14,-1,16,-1,18,-1,-1,-1,-1,-1,-1,-1],"split_conditions":[-1E-5,8.048483E-2,-1E-5,8.504401E-2,-1E-5,-1E-5,-5.41025E-2,-1E-5,7.576692E-2,-1E-5,-5.69817E-2,1.5292504E-1,-3.3604544E-2,-5.7032984E-2,8.684083E-3,7.295798E-2,-4.8929032E-2,7.28312E-2,1.0195366E-1],"split_indices":[9760,9059,6806,8997,7564,9625,0,8112,0,9625,0,9132,0,0,0,0,0,0,0],"split_type":[0,0,0,0,0,0,0,0,0,0,0,0,0,0,0,0,0,0,0],"sum_hessian":[8.41444E4,5.0551406E4,3.3592992E4,4.78668E4,2.6846052E3,3.3563254E4,2.9735565E1,4.76478E4,2.190002E2,2.6464258E3,3.8179424E1,3.3562047E4,1.2090554E0,4.70635E4,5.8430164E2,2.6249143E3,2.1511496E1,3.3545926E4,1.6121458E1],"tree_param":{"num_deleted":"0","num_feature":"10000","num_nodes":"19","size_leaf_vector":"1"}},{"base_weights":[1.2532397E-1,1.14147E0,-4.4690892E-2,3.134E-1,-3.6978442E-2],"categories":[],"categories_nodes":[],"categories_segments":[],"categories_sizes":[],"default_left":[1,1,0,0,0],"id":58,"left_children":[1,3,-1,-1,-1],"loss_changes":[8.413759E0,1.6751616E1,0E0,0E0,0E0],"parents":[2147483647,0,0,1,1],"right_children":[2,4,-1,-1,-1],"split_conditions":[-1E-5,-1E-5,-4.4690892E-2,3.134E-1,-3.6978442E-2],"split_indices":[9691,8206,0,0,0],"split_type":[0,0,0,0,0],"sum_hessian":[1.2592441E1,4.1782045E0,8.414236E0,1.3390049E0,2.8391998E0],"tree_param":{"num_deleted":"0","num_feature":"10000","num_nodes":"5","size_leaf_vector":"1"}},{"base_weights":[-2.322312E-1,4.652344E-1,-3.758437E-1,-4.9722787E-2,6.436364E-1,5.499377E-1,-4.4283378E-1,5.8796763E-1,1.1326014E0,6.5868074E-1,-7.685401E-2,6.502151E-1,-4.881803E-1,6.0115453E-2,-4.295939E-2,9.6110635E-2,1.5835883E-1,6.832343E-2,-5.078317E-2,8.328345E-2,-4.7591455E-2,-4.9248572E-2,1.2815525E-1],"categories":[],"categories_nodes":[],"categories_segments":[],"categories_sizes":[],"default_left":[0,0,0,0,1,1,0,1,1,1,0,1,1,0,0,0,0,0,0,0,0,0,0],"id":59,"left_children":[1,3,5,-1,7,9,11,13,15,17,-1,19,21,-1,-1,-1,-1,-1,-1,-1,-1,-1,-1],"loss_changes":[3.750977E2,1.101371E2,1.927785E2,0E0,1.4032654E1,3.0605068E1,1.4383887E2,6.791382E0,2.66333E0,5.9171066E0,0E0,2.42048E1,2.1819214E1,0E0,0E0,0E0,0E0,0E0,0E0,0E0,0E0,0E0,0E0],"parents":[2147483647,0,0,1,1,2,2,4,4,5,5,6,6,7,7,8,8,9,9,11,11,12,12],"right_children":[2,4,6,-1,8,10,12,14,16,18,-1,20,22,-1,-1,-1,-1,-1,-1,-1,-1,-1,-1],"split_conditions":[1.1335427E-1,3.2563593E-2,3.6763597E-1,-4.9722787E-2,1.9535856E-1,5.826683E-2,7.470134E-1,-1E-5,-1E-5,-1E-5,-7.685401E-2,4.290315E-2,3.0811436E-2,6.0115453E-2,-4.295939E-2,9.6110635E-2,1.5835883E-1,6.832343E-2,-5.078317E-2,8.328345E-2,-4.7591455E-2,-4.9248572E-2,1.2815525E-1],"split_indices":[7564,8170,9324,0,8643,0,9413,7415,7678,9323,0,5720,9315,0,0,0,0,0,0,0,0,0,0],"split_type":[0,0,0,0,0,0,0,0,0,0,0,0,0,0,0,0,0,0,0,0,0,0,0],"sum_hessian":[3.7420608E3,6.385675E2,3.1034934E3,9.957616E1,5.3899133E2,2.0893051E2,2.8945627E3,4.858767E2,5.3114643E1,1.9347394E2,1.5456569E1,1.1476991E2,2.779793E3,4.8006464E2,5.812064E0,4.074994E1,1.2364705E1,1.8989127E2,3.5826724E0,9.8979324E1,1.57905855E1,2.7737666E3,6.026322E0],"tree_param":{"num_deleted":"0","num_feature":"10000","num_nodes":"23","size_leaf_vector":"1"}},{"base_weights":[-2.0509414E-2,1.2074585E-1,-2.6009664E-1,1.6989471E-1,-4.349788E-2,-3.169784E-2,7.4996546E-2],"categories":[],"categories_nodes":[],"categories_segments":[],"categories_sizes":[],"default_left":[0,0,1,0,0,0,0],"id":60,"left_children":[1,-1,3,5,-1,-1,-1],"loss_changes":[3.6886497E0,0E0,8.57491E-1,1.291685E0,0E0,0E0,0E0],"parents":[2147483647,0,0,2,2,3,3],"right_children":[2,-1,4,6,-1,-1,-1],"split_conditions":[2.2065589E-1,1.2074585E-1,-1E-5,3.296006E-2,-4.349788E-2,-3.169784E-2,7.4996546E-2],"split_indices":[2809,0,8170,7590,0,0,0],"split_type":[0,0,0,0,0,0,0],"sum_hessian":[1.0470198E1,1.04981E0,9.420387E0,2.7318854E0,6.688502E0,1.7318429E0,1.0000424E0],"tree_param":{"num_deleted":"0","num_feature":"10000","num_nodes":"7","size_leaf_vector":"1"}},{"base_weights":[-3.8623175E-1,-4.1541994E-1,1.1342703E0,-4.255084E-1,2.69491E-1,1.864403E-1,5.9690714E-2,-4.3130177E-1,4.1752607E-1,-4.5789327E-2,6.0136598E-2],"categories":[],"categories_nodes":[],"categories_segments":[],"categories_sizes":[],"default_left":[1,1,1,1,0,0,0,1,0,0,0],"id":61,"left_children":[1,3,5,7,-1,-1,-1,9,-1,-1,-1],"loss_changes":[7.775534E1,5.4782684E1,1.1860802E1,4.7236816E1,0E0,0E0,0E0,4.7051636E1,0E0,0E0,0E0],"parents":[2147483647,0,0,1,1,2,2,3,3,7,7],"right_children":[2,4,6,8,-1,-1,-1,10,-1,-1,-1],"split_conditions":[-1E-5,1.1866434E-1,3.226543E-2,1.2118701E-1,2.69491E-1,1.864403E-1,5.9690714E-2,1.3010669E-1,4.1752607E-1,-4.5789327E-2,6.0136598E-2],"split_indices":[9210,7162,5656,6899,0,0,0,8685,0,0,0],"split_type":[0,0,0,0,0,0,0,0,0,0,0],"sum_hessian":[1.7403911E3,1.7083242E3,3.206691E1,1.7036616E3,4.662694E0,1.2547997E1,1.9518911E1,1.7024241E3,1.2374686E0,1.6602294E3,4.2194767E1],"tree_param":{"num_deleted":"0","num_feature":"10000","num_nodes":"11","size_leaf_vector":"1"}},{"base_weights":[1.0852432E-1,-4.1370455E-2,7.958111E-1,1.5798143E-1,-3.0770386E-2],"categories":[],"categories_nodes":[],"categories_segments":[],"categories_sizes":[],"default_left":[1,0,1,0,0],"id":62,"left_children":[1,-1,3,-1,-1],"loss_changes":[3.5731997E0,0E0,4.1581964E0,0E0,0E0],"parents":[2147483647,0,0,2,2],"right_children":[2,-1,4,-1,-1],"split_conditions":[3.9696965E-2,-4.1370455E-2,9.4911344E-2,1.5798143E-1,-3.0770386E-2],"split_indices":[8170,0,7662,0,0],"split_type":[0,0,0,0,0],"sum_hessian":[8.038115E0,4.793714E0,3.2444007E0,1.6444588E0,1.599942E0],"tree_param":{"num_deleted":"0","num_feature":"10000","num_nodes":"5","size_leaf_vector":"1"}},{"base_weights":[2.1582466E-2,4.744372E-1,-6.891409E-1,5.398417E-1,-6.7453396E-1,-6.892042E-1,3.696024E-2,-2.3466265E-1,5.603002E-1,-6.8348116E-1,5.6276657E-2,8.186304E-3,-6.8923676E-1,-9.318463E-3,-7.4723296E-2,5.6612052E-2,-5.532598E-2,-6.8949156E-2,5.3618266E-3,-5.5562813E-2,-6.894293E-2],"categories":[],"categories_nodes":[],"categories_segments":[],"categories_sizes":[],"default_left":[1,1,1,1,1,0,0,1,1,1,0,0,0,0,0,0,0,0,0,0,0],"id":63,"left_children":[1,3,5,7,9,11,-1,13,15,17,-1,-1,19,-1,-1,-1,-1,-1,-1,-1,-1],"loss_changes":[2.5754977E4,3.6733838E3,2.3398438E0,7.328965E2,2.9531982E1,8.378906E-1,0E0,8.628644E1,2.9233203E2,1.1619629E1,0E0,0E0,4.1796875E-1,0E0,0E0,0E0,0E0,0E0,0E0,0E0,0E0],"parents":[2147483647,0,0,1,1,2,2,3,3,4,4,5,5,7,7,8,8,9,9,12,12],"right_children":[2,4,6,8,10,12,-1,14,16,18,-1,-1,20,-1,-1,-1,-1,-1,-1,-1,-1],"split_conditions":[-1E-5,-1E-5,-1E-5,-1E-5,-1E-5,4.2354128E-1,3.696024E-2,-1E-5,-1E-5,6.420321E-2,5.6276657E-2,8.186304E-3,1.8517677E-1,-9.318463E-3,-7.4723296E-2,5.6612052E-2,-5.532598E-2,-6.8949156E-2,5.3618266E-3,-5.5562813E-2,-6.894293E-2],"split_indices":[9760,9812,9625,8170,8206,5254,0,5720,7407,8109,0,0,9321,0,0,0,0,0,0,0,0],"split_type":[0,0,0,0,0,0,0,0,0,0,0,0,0,0,0,0,0,0,0,0,0],"sum_hessian":[8.0018555E4,4.8876215E4,3.1142338E4,4.6244312E4,2.6319001E3,3.1140826E4,1.5119517E0,1.189832E3,4.505448E4,2.6134492E3,1.845089E1,1.2076604E0,3.113962E4,9.333841E2,2.5644794E2,4.4820703E4,2.3377744E2,2.5923752E3,2.1073954E1,4.895943E1,3.109066E4],"tree_param":{"num_deleted":"0","num_feature":"10000","num_nodes":"21","size_leaf_vector":"1"}},{"base_weights":[-5.3992434E-3,-4.8211426E-1,6.9667834E-1,-5.473907E-1,6.96039E-1,6.978555E-1,-5.4070003E-2,5.7084635E-2,-5.629426E-1,9.742327E-5,6.989697E-1,6.978867E-1,-1.787016E-3,-1.1246498E-2,7.26812E-2,-5.633362E-2,2.6786143E-1,-2.7350951E-2,3.1199653E-2,3.0656238E-3,7.0048116E-2,6.97744E-2,9.326675E-2],"categories":[],"categories_nodes":[],"categories_segments":[],"categories_sizes":[],"default_left":[1,1,1,1,0,1,0,1,1,0,0,1,0,0,0,0,0,0,0,0,0,0,0],"id":64,"left_children":[1,3,5,7,9,11,-1,13,15,17,19,21,-1,-1,-1,-1,-1,-1,-1,-1,-1,-1,-1],"loss_changes":[2.6102004E4,3.572582E3,4.6316406E1,4.1377344E2,4.974365E0,7.1777344E-1,0E0,1.25537315E2,5.6242188E1,1.0434701E0,2.4317627E0,4.0625E-1,0E0,0E0,0E0,0E0,0E0,0E0,0E0,0E0,0E0,0E0,0E0],"parents":[2147483647,0,0,1,1,2,2,3,3,4,4,5,5,7,7,8,8,9,9,10,10,11,11],"right_children":[2,4,6,8,10,12,-1,14,16,18,20,22,-1,-1,-1,-1,-1,-1,-1,-1,-1,-1,-1],"split_conditions":[-1E-5,1.6672313E-1,-1E-5,-1E-5,8.107246E-2,-1E-5,-5.4070003E-2,-1E-5,-1E-5,2.538246E-1,2.652174E-1,1.5885589E-1,-1.787016E-3,-1.1246498E-2,7.26812E-2,-5.633362E-2,2.6786143E-1,-2.7350951E-2,3.1199653E-2,3.0656238E-3,7.0048116E-2,6.97744E-2,9.326675E-2],"split_indices":[9681,9197,9321,8170,9625,8112,0,8997,8390,8196,9197,9324,0,0,0,0,0,0,0,0,0,0,0],"split_type":[0,0,0,0,0,0,0,0,0,0,0,0,0,0,0,0,0,0,0,0,0,0,0],"sum_hessian":[7.798638E4,4.644813E4,3.1538252E4,4.4010242E4,2.4378843E3,3.1508713E4,2.953852E1,1.103829E3,4.2906414E4,1.0227576E1,2.4276565E3,3.1507363E4,1.3503133E0,8.8149896E2,2.223301E2,4.290203E4,4.382009E0,5.513797E0,4.713779E0,5.5260553E0,2.4221306E3,3.1492184E4,1.5179438E1],"tree_param":{"num_deleted":"0","num_feature":"10000","num_nodes":"23","size_leaf_vector":"1"}},{"base_weights":[2.9937652E-1,-3.4812897E-1,1.7307677E0,-4.4365995E-2,2.4896814E-2,-3.4267787E-2,4.064807E-1],"categories":[],"categories_nodes":[],"categories_segments":[],"categories_sizes":[],"default_left":[1,1,0,0,0,0,0],"id":65,"left_children":[1,3,5,-1,-1,-1,-1],"loss_changes":[1.2776335E1,6.738148E-1,2.2001999E1,0E0,0E0,0E0,0E0],"parents":[2147483647,0,0,1,1,2,2],"right_children":[2,4,6,-1,-1,-1,-1],"split_conditions":[9.746232E-2,7.7078156E-2,7.436414E-2,-4.4365995E-2,2.4896814E-2,-3.4267787E-2,4.064807E-1],"split_indices":[0,9841,1,0,0,0,0],"split_type":[0,0,0,0,0,0,0],"sum_hessian":[1.213483E1,8.87632E0,3.2585108E0,7.8735795E0,1.0027403E0,2.177399E0,1.0811118E0],"tree_param":{"num_deleted":"0","num_feature":"10000","num_nodes":"7","size_leaf_vector":"1"}},{"base_weights":[-2.287059E-1,4.57424E-1,-3.6971128E-1,-4.9653087E-2,6.3101023E-1,5.448143E-1,-4.3949154E-1,5.7966876E-1,1.085509E0,6.5532374E-1,-7.351006E-2,6.499317E-1,-4.8986885E-1,5.926874E-2,-4.241666E-2,9.022742E-2,1.431699E-1,-5.0786883E-2,6.851684E-2,8.173635E-2,-4.739551E-2,-4.9388897E-2,1.400592E-1],"categories":[],"categories_nodes":[],"categories_segments":[],"categories_sizes":[],"default_left":[0,0,0,0,1,1,0,1,1,0,0,1,1,0,0,0,0,0,0,0,0,0,0],"id":66,"left_children":[1,3,5,-1,7,9,11,13,15,17,-1,19,21,-1,-1,-1,-1,-1,-1,-1,-1,-1,-1],"loss_changes":[3.3472626E2,9.800545E1,1.8333182E2,0E0,1.1028E1,2.93139E1,1.4664703E2,6.145447E0,1.8519402E0,6.8803635E0,0E0,2.2643303E1,2.0063416E1,0E0,0E0,0E0,0E0,0E0,0E0,0E0,0E0,0E0,0E0],"parents":[2147483647,0,0,1,1,2,2,4,4,5,5,6,6,7,7,8,8,9,9,11,11,12,12],"right_children":[2,4,6,-1,8,10,12,14,16,18,-1,20,22,-1,-1,-1,-1,-1,-1,-1,-1,-1,-1],"split_conditions":[1.1335427E-1,3.2563593E-2,3.6763597E-1,-4.9653087E-2,1.9535856E-1,-1E-5,7.470134E-1,-1E-5,-1E-5,2.7481273E-1,-7.351006E-2,4.290315E-2,6.1175413E-2,5.926874E-2,-4.241666E-2,9.022742E-2,1.431699E-1,-5.0786883E-2,6.851684E-2,8.173635E-2,-4.739551E-2,-4.9388897E-2,1.400592E-1],"split_indices":[7564,8170,9324,0,8643,1,9413,7415,2566,7670,0,5720,9617,0,0,0,0,0,0,0,0,0,0],"split_type":[0,0,0,0,0,0,0,0,0,0,0,0,0,0,0,0,0,0,0,0,0,0,0],"sum_hessian":[3.4570261E3,5.8895184E2,2.8680742E3,9.0383385E1,4.9856845E2,2.0284343E2,2.6652307E3,4.5000952E2,4.8558937E1,1.8717085E2,1.5672574E1,1.1727279E2,2.547958E3,4.4465244E2,5.3570657E0,3.411076E1,1.4448176E1,4.281539E0,1.8288931E2,1.0230462E2,1.4968166E1,2.5432883E3,4.6695976E0],"tree_param":{"num_deleted":"0","num_feature":"10000","num_nodes":"23","size_leaf_vector":"1"}},{"base_weights":[2.7579063E-1,2.0738076E-1,-1.4357619E-1,1.9223529E-1,-4.1325256E-2,5.848685E-2,-3.233204E-2],"categories":[],"categories_nodes":[],"categories_segments":[],"categories_sizes":[],"default_left":[0,0,1,1,0,0,0],"id":67,"left_children":[1,-1,3,5,-1,-1,-1],"loss_changes":[8.559174E0,0E0,9.6869844E-1,1.2125534E0,0E0,0E0,0E0],"parents":[2147483647,0,0,2,2,3,3],"right_children":[2,-1,4,6,-1,-1,-1],"split_conditions":[2.2065589E-1,2.0738076E-1,-1E-5,-1E-5,-4.1325256E-2,5.848685E-2,-3.233204E-2],"split_indices":[2809,0,9691,9625,0,0,0],"split_type":[0,0,0,0,0,0,0],"sum_hessian":[9.956381E0,1.1368964E0,8.819485E0,4.055982E0,4.763503E0,2.2261577E0,1.8298241E0],"tree_param":{"num_deleted":"0","num_feature":"10000","num_nodes":"7","size_leaf_vector":"1"}},{"base_weights":[-3.8165912E-1,-4.4557297E-1,4.2286173E-1,-4.583103E-1,2.2266677E-1,6.042884E-1,-5.6062853E-1,-4.6566078E-1,4.1069946E-1,5.2379113E-1,2.7500248E-1,-4.6363022E-2,-8.118015E-2,-4.8439022E-2,4.915865E-2,-7.150803E-2,6.139594E-2],"categories":[],"categories_nodes":[],"categories_segments":[],"categories_sizes":[],"default_left":[1,1,1,1,0,0,1,1,0,0,0,0,0,0,0,0,0],"id":68,"left_children":[1,3,5,7,-1,9,11,13,-1,15,-1,-1,-1,-1,-1,-1,-1],"loss_changes":[8.299632E1,5.181723E1,2.1578297E1,5.178305E1,0E0,1.6000942E1,8.792782E-2,2.6855896E1,0E0,1.1449003E1,0E0,0E0,0E0,0E0,0E0,0E0,0E0],"parents":[2147483647,0,0,1,1,2,2,3,3,5,5,6,6,7,7,9,9],"right_children":[2,4,6,8,-1,10,12,14,-1,16,-1,-1,-1,-1,-1,-1,-1],"split_conditions":[-1E-5,1.1866434E-1,-1E-5,1.1777367E-1,2.2266677E-1,2.0504428E-1,-1E-5,-1E-5,4.1069946E-1,5.1800873E-2,2.7500248E-1,-4.6363022E-2,-8.118015E-2,-4.8439022E-2,4.915865E-2,-7.150803E-2,6.139594E-2],"split_indices":[7630,7162,7451,9980,0,7630,9920,8384,0,8213,0,0,0,0,0,0,0],"split_type":[0,0,0,0,0,0,0,0,0,0,0,0,0,0,0,0,0],"sum_hessian":[1.6094218E3,1.4913871E3,1.1803464E2,1.4851366E3,6.2504687E0,9.997719E1,1.8057451E1,1.4836459E3,1.4907804E0,9.756128E1,2.4159029E0,1.5079781E1,2.977671E0,1.4556586E3,2.7987307E1,6.1488147E0,9.141247E1],"tree_param":{"num_deleted":"0","num_feature":"10000","num_nodes":"17","size_leaf_vector":"1"}},{"base_weights":[1.2264205E-2,-4.080208E-2,5.3479624E-1,1.154009E-1,-3.097463E-2],"categories":[],"categories_nodes":[],"categories_segments":[],"categories_sizes":[],"default_left":[1,0,1,0,0],"id":69,"left_children":[1,-1,3,-1,-1],"loss_changes":[2.1473637E0,0E0,2.6315703E0,0E0,0E0],"parents":[2147483647,0,0,2,2],"right_children":[2,-1,4,-1,-1],"split_conditions":[3.9696965E-2,-4.080208E-2,-1E-5,1.154009E-1,-3.097463E-2],"split_indices":[8170,0,8206,0,0],"split_type":[0,0,0,0,0],"sum_hessian":[7.7843676E0,4.4357414E0,3.348626E0,1.7206365E0,1.6279895E0],"tree_param":{"num_deleted":"0","num_feature":"10000","num_nodes":"5","size_leaf_vector":"1"}},{"base_weights":[2.1238996E-2,4.665799E-1,-6.649531E-1,-6.55129E-1,5.312392E-1,-6.649779E-1,-1.78636E-2,-6.639993E-1,5.5354696E-2,-2.1319187E-1,5.5245495E-1,-5.4742604E-2,-6.6514134E-2,-6.649259E-2,4.3760493E-2,-4.1359537E-3,-6.4094804E-2,5.5843152E-2,-5.5355933E-2],"categories":[],"categories_nodes":[],"categories_segments":[],"categories_sizes":[],"default_left":[1,0,1,1,1,0,0,1,0,1,1,0,0,0,0,0,0,0,0],"id":70,"left_children":[1,3,5,7,9,11,-1,13,-1,15,17,-1,-1,-1,-1,-1,-1,-1,-1],"loss_changes":[2.2621764E4,3.256296E3,2.3242188E-1,2.6603882E1,6.704863E2,1.953125E-1,0E0,2.7711182E0,0E0,8.6476036E1,2.7311035E2,0E0,0E0,0E0,0E0,0E0,0E0,0E0,0E0],"parents":[2147483647,0,0,1,1,2,2,3,3,4,4,5,5,7,7,9,9,10,10],"right_children":[2,4,6,8,10,12,-1,14,-1,16,18,-1,-1,-1,-1,-1,-1,-1,-1],"split_conditions":[-1E-5,2.3615663E-1,-1E-5,-1E-5,-1E-5,1.8517677E-1,-1.78636E-2,2.4994153E-1,5.5354696E-2,-1E-5,-1E-5,-5.4742604E-2,-6.6514134E-2,-6.649259E-2,4.3760493E-2,-4.1359537E-3,-6.4094804E-2,5.5843152E-2,-5.5355933E-2],"split_indices":[9681,9812,8109,8206,8170,9325,0,8643,0,7630,7407,0,0,0,0,0,0,0,0],"split_type":[0,0,0,0,0,0,0,0,0,0,0,0,0,0,0,0,0,0,0],"sum_hessian":[7.402463E4,4.4890727E4,2.9133908E4,2.4461313E3,4.2444594E4,2.9132055E4,1.854851E0,2.4287576E3,1.7373617E1,1.1758679E3,4.1268727E4,4.508511E1,2.9086969E4,2.4271125E3,1.6451068E0,8.3966565E2,3.3620224E2,4.1047414E4,2.2131369E2],"tree_param":{"num_deleted":"0","num_feature":"10000","num_nodes":"19","size_leaf_vector":"1"}},{"base_weights":[-4.3400647E-3,-4.7490278E-1,6.711041E-1,-5.4028374E-1,6.4510703E-1,-5.4345883E-2,6.7232996E-1,7.096309E-2,-5.5667526E-1,1.3214633E-1,6.7217326E-1,6.7221063E-1,8.608288E-2,-6.9649774E-3,6.938086E-2,-5.571241E-2,1.3049348E-1,-3.2668498E-3,1.2430042E-1,6.7259364E-2,6.6457824E-3,6.722249E-2,2.5195653E-2],"categories":[],"categories_nodes":[],"categories_segments":[],"categories_sizes":[],"default_left":[1,1,0,1,1,0,1,1,1,1,1,1,0,0,0,0,0,0,0,0,0,0,0],"id":71,"left_children":[1,3,5,7,9,-1,11,13,15,17,19,21,-1,-1,-1,-1,-1,-1,-1,-1,-1,-1,-1],"loss_changes":[2.3020557E4,3.1263145E3,4.4645508E1,4.0416113E2,3.26073E1,0E0,8.886719E-2,9.238148E1,3.3546875E1,2.1878391E1,5.248413E-1,7.8125E-3,0E0,0E0,0E0,0E0,0E0,0E0,0E0,0E0,0E0,0E0,0E0],"parents":[2147483647,0,0,1,1,2,2,3,3,4,4,6,6,7,7,8,8,9,9,10,10,11,11],"right_children":[2,4,6,8,10,-1,12,14,16,18,20,22,-1,-1,-1,-1,-1,-1,-1,-1,-1,-1,-1],"split_conditions":[-1E-5,8.048483E-2,3.665112E-2,-1E-5,-1E-5,-5.4345883E-2,1.5292504E-1,-1E-5,3.5330495E-1,-1E-5,1.986802E-1,5.0735578E-2,8.608288E-2,-6.9649774E-3,6.938086E-2,-5.571241E-2,1.3049348E-1,-3.2668498E-3,1.2430042E-1,6.7259364E-2,6.6457824E-3,6.722249E-2,2.5195653E-2],"split_indices":[9760,9059,8170,8170,8180,0,9132,9414,8175,5595,9370,8192,0,0,0,0,0,0,0,0,0,0,0],"split_type":[0,0,0,0,0,0,0,0,0,0,0,0,0,0,0,0,0,0,0,0,0,0,0],"sum_hessian":[7.242639E4,4.268751E4,2.9738879E4,4.0333547E4,2.3539678E3,2.9540157E1,2.9709338E4,1.0532712E3,3.9280273E4,1.182762E2,2.2356917E3,2.969511E4,1.4230299E1,8.6000555E2,1.9326567E2,3.9271508E4,8.767097E0,1.038403E2,1.4435899E1,2.2340308E3,1.6608462E0,2.9693504E4,1.6036422E0],"tree_param":{"num_deleted":"0","num_feature":"10000","num_nodes":"23","size_leaf_vector":"1"}},{"base_weights":[2.3911025E-1,-3.3772746E-1,1.3439828E0,-4.390804E-2,2.3650378E-2,3.225781E-1,-3.498153E-2],"categories":[],"categories_nodes":[],"categories_segments":[],"categories_sizes":[],"default_left":[1,1,1,0,0,0,0],"id":72,"left_children":[1,3,5,-1,-1,-1,-1],"loss_changes":[8.645338E0,6.418053E-1,1.5820313E1,0E0,0E0,0E0,0E0],"parents":[2147483647,0,0,1,1,2,2],"right_children":[2,4,6,-1,-1,-1,-1],"split_conditions":[9.746232E-2,6.075404E-2,-1E-5,-4.390804E-2,2.3650378E-2,3.225781E-1,-3.498153E-2],"split_indices":[0,6870,1,0,0,0,0],"split_type":[0,0,0,0,0,0,0],"sum_hessian":[1.1852698E1,8.243315E0,3.6093838E0,7.206681E0,1.0366336E0,1.2813485E0,2.3280354E0],"tree_param":{"num_deleted":"0","num_feature":"10000","num_nodes":"7","size_leaf_vector":"1"}},{"base_weights":[-2.2161631E-1,4.5232025E-1,-3.659468E-1,-4.959052E-2,6.176507E-1,5.150627E-1,-4.352139E-1,5.685647E-1,9.751923E-1,6.2227446E-1,-7.000443E-2,6.1707884E-1,-4.8632184E-1,5.8135133E-2,-4.1966677E-2,8.402679E-2,1.2708767E-1,6.559408E-2,-5.7629228E-2,7.684548E-2,-4.703921E-2,-4.9189635E-2,1.2674765E-1],"categories":[],"categories_nodes":[],"categories_segments":[],"categories_sizes":[],"default_left":[0,0,0,0,1,1,0,1,1,1,0,1,1,0,0,0,0,0,0,0,0,0,0],"id":73,"left_children":[1,3,5,-1,7,9,11,13,15,17,-1,19,21,-1,-1,-1,-1,-1,-1,-1,-1,-1,-1],"loss_changes":[3.1174728E2,8.895371E1,1.6125812E2,0E0,7.9039E0,2.5553146E1,1.3190176E2,5.62912E0,1.1973763E0,7.548538E0,0E0,1.909208E1,2.3444214E1,0E0,0E0,0E0,0E0,0E0,0E0,0E0,0E0,0E0,0E0],"parents":[2147483647,0,0,1,1,2,2,4,4,5,5,6,6,7,7,8,8,9,9,11,11,12,12],"right_children":[2,4,6,-1,8,10,12,14,16,18,-1,20,22,-1,-1,-1,-1,-1,-1,-1,-1,-1,-1],"split_conditions":[1.1335427E-1,3.2563593E-2,3.6763597E-1,-4.959052E-2,1.9535856E-1,-1E-5,7.470134E-1,-1E-5,-1E-5,-1E-5,-7.000443E-2,4.290315E-2,6.1175413E-2,5.8135133E-2,-4.1966677E-2,8.402679E-2,1.2708767E-1,6.559408E-2,-5.7629228E-2,7.684548E-2,-4.703921E-2,-4.9189635E-2,1.2674765E-1],"split_indices":[7564,8170,9324,0,8643,1,9413,7415,2808,9323,0,5720,9617,0,0,0,0,0,0,0,0,0,0],"split_type":[0,0,0,0,0,0,0,0,0,0,0,0,0,0,0,0,0,0,0,0,0,0,0],"sum_hessian":[3.2022805E3,5.6445966E2,2.637821E3,8.350887E1,4.8095078E2,1.9180568E2,2.4460154E3,4.251704E2,5.5780365E1,1.7670267E2,1.5103011E1,1.1278295E2,2.3332324E3,4.201459E2,5.024504E0,4.0940495E1,1.48398695E1,1.7231528E2,4.387397E0,9.92594E1,1.3523554E1,2.326557E3,6.6754956E0],"tree_param":{"num_deleted":"0","num_feature":"10000","num_nodes":"23","size_leaf_vector":"1"}},{"base_weights":[-8.1632674E-2,1.23478524E-1,-3.4597903E-1,-4.3189295E-2,-5.8578365E-2,2.4706943E-2,-2.908182E-2],"categories":[],"categories_nodes":[],"categories_segments":[],"categories_sizes":[],"default_left":[0,0,1,0,1,0,0],"id":74,"left_children":[1,-1,3,-1,5,-1,-1],"loss_changes":[4.1701E0,0E0,2.1515357E-1,0E0,3.130579E-1,0E0,0E0],"parents":[2147483647,0,0,2,2,4,4],"right_children":[2,-1,4,-1,6,-1,-1],"split_conditions":[2.1903095E-1,1.23478524E-1,4.013134E-2,-4.3189295E-2,-1E-5,2.4706943E-2,-2.908182E-2],"split_indices":[2809,0,8170,0,7415,0,0],"split_type":[0,0,0,0,0,0,0],"sum_hessian":[9.755731E0,1.0175161E0,8.7382145E0,6.3401666E0,2.3980482E0,1.0078177E0,1.3902303E0],"tree_param":{"num_deleted":"0","num_feature":"10000","num_nodes":"7","size_leaf_vector":"1"}},{"base_weights":[-3.753995E-1,4.960184E-1,-4.431452E-1,4.2977196E-1,2.7567407E-1,-4.5105487E-1,4.6579227E-1,2.1333346E-1,1.0824854E0,-4.632688E-1,1.8393718E-1,-5.4972418E-2,5.79183E-2,1.4163631E-1,5.1703017E-2,-4.829789E-2,4.907353E-2],"categories":[],"categories_nodes":[],"categories_segments":[],"categories_sizes":[],"default_left":[0,1,1,1,0,1,0,1,1,1,0,0,0,0,0,0,0],"id":75,"left_children":[1,3,5,7,-1,9,-1,11,13,15,-1,-1,-1,-1,-1,-1,-1],"loss_changes":[8.787625E1,1.4926693E1,5.771039E1,1.470162E1,0E0,3.937442E1,0E0,2.2825762E1,4.1907253E0,2.600763E1,0E0,0E0,0E0,0E0,0E0,0E0,0E0],"parents":[2147483647,0,0,1,1,2,2,3,3,5,5,7,7,8,8,9,9],"right_children":[2,4,6,8,-1,10,-1,12,14,16,-1,-1,-1,-1,-1,-1,-1],"split_conditions":[2.2484486E-1,4.8980657E-2,2.5233725E-1,1.874571E-2,2.7567407E-1,1.1360639E-1,4.6579227E-1,9.025393E-2,3.131079E-2,-1E-5,1.8393718E-1,-5.4972418E-2,5.79183E-2,1.4163631E-1,5.1703017E-2,-4.829789E-2,4.907353E-2],"split_indices":[7630,6842,9931,9210,0,7162,0,7971,5656,8384,0,0,0,0,0,0,0],"split_type":[0,0,0,0,0,0,0,0,0,0,0,0,0,0,0,0,0],"sum_hessian":[1.4838262E3,1.06578415E2,1.3772478E3,1.04700455E2,1.8779565E0,1.3760256E3,1.2220829E0,7.962411E1,2.5076353E1,1.3695204E3,6.5053425E0,2.564123E1,5.3982876E1,1.4820594E1,1.0255759E1,1.342282E3,2.723837E1],"tree_param":{"num_deleted":"0","num_feature":"10000","num_nodes":"17","size_leaf_vector":"1"}},{"base_weights":[2.6807722E-1,-1.5816797E-1,1.5937269E-1,-4.1653413E-2,5.7594158E-2],"categories":[],"categories_nodes":[],"categories_segments":[],"categories_sizes":[],"default_left":[1,1,0,0,0],"id":76,"left_children":[1,3,-1,-1,-1],"loss_changes":[5.0338726E0,1.6270071E0,0E0,0E0,0E0],"parents":[2147483647,0,0,1,1],"right_children":[2,4,-1,-1,-1],"split_conditions":[3.0389924E-2,5.551327E-2,1.5937269E-1,-4.1653413E-2,5.7594158E-2],"split_indices":[8319,7988,0,0,0],"split_type":[0,0,0,0,0],"sum_hessian":[7.46258E0,6.313306E0,1.149274E0,4.989778E0,1.3235278E0],"tree_param":{"num_deleted":"0","num_feature":"10000","num_nodes":"5","size_leaf_vector":"1"}},{"base_weights":[2.1452004E-2,4.3873692E-1,-6.431916E-1,5.30491E-1,-6.3849735E-1,-6.4510053E-1,5.6044813E-2,5.36099E-1,-5.490242E-1,-6.414034E-1,5.05328E-2,-6.4488554E-1,-1.20973386E-1,-6.652286E-2,5.3948045E-2,-5.3821385E-2,-1.18801616E-1,-3.3203461E-3,-6.4556144E-2,-6.44958E-2,4.3973446E-2],"categories":[],"categories_nodes":[],"categories_segments":[],"categories_sizes":[],"default_left":[1,1,1,1,1,1,0,0,1,0,0,1,0,0,0,0,0,0,0,0,0],"id":77,"left_children":[1,3,5,7,9,11,-1,13,15,17,-1,19,-1,-1,-1,-1,-1,-1,-1,-1,-1],"loss_changes":[1.8995963E4,4.1591123E3,6.1058594E1,2.3502637E2,1.1303223E1,2.421875E0,0E0,1.5705469E2,7.4822235E-1,8.311401E0,0E0,2.3574219E0,0E0,0E0,0E0,0E0,0E0,0E0,0E0,0E0,0E0],"parents":[2147483647,0,0,1,1,2,2,3,3,4,4,5,5,7,7,8,8,9,9,11,11],"right_children":[2,4,6,8,10,12,-1,14,16,18,-1,20,-1,-1,-1,-1,-1,-1,-1,-1,-1],"split_conditions":[-1E-5,6.8637714E-2,-1E-5,-1E-5,-1E-5,1.6404258E-1,5.6044813E-2,3.6763597E-1,-1E-5,2.0320752E-1,5.05328E-2,1.7523828E-1,-1.20973386E-1,-6.652286E-2,5.3948045E-2,-5.3821385E-2,-1.18801616E-1,-3.3203461E-3,-6.4556144E-2,-6.44958E-2,4.3973446E-2],"split_indices":[5720,9812,9605,7407,8178,7668,0,9324,8319,8192,0,8340,0,0,0,0,0,0,0,0,0],"split_type":[0,0,0,0,0,0,0,0,0,0,0,0,0,0,0,0,0,0,0,0,0],"sum_hessian":[6.848998E4,4.2074547E4,2.6415432E4,3.877258E4,3.3019697E3,2.6374066E4,4.136444E1,3.85727E4,1.9988E2,3.29404E3,7.9296455E0,2.636617E4,7.8973093E0,1.077189E2,3.8464977E4,1.9836635E2,1.5136495E0,2.2427944E1,3.271612E3,2.6364812E4,1.3566569E0],"tree_param":{"num_deleted":"0","num_feature":"10000","num_nodes":"21","size_leaf_vector":"1"}},{"base_weights":[-5.160869E-3,-4.6829492E-1,6.496232E-1,-5.324675E-1,6.5366066E-1,-5.4098256E-2,6.5084034E-1,3.0227086E-2,-5.4924697E-1,1.2274702E-1,6.5108135E-2,6.50856E-2,2.2924367E-2,-1.1454966E-2,6.754844E-2,-5.500051E-2,1.1345384E-1],"categories":[],"categories_nodes":[],"categories_segments":[],"categories_sizes":[],"default_left":[1,1,0,1,0,0,1,1,1,0,0,0,0,0,0,0,0],"id":78,"left_children":[1,3,5,7,9,-1,11,13,15,-1,-1,-1,-1,-1,-1,-1,-1],"loss_changes":[2.0289598E4,2.8218574E3,4.0518555E1,3.500088E2,2.3394775E0,0E0,3.3203125E-2,1.0043897E2,4.657129E1,0E0,0E0,0E0,0E0,0E0,0E0,0E0,0E0],"parents":[2147483647,0,0,1,1,2,2,3,3,4,4,6,6,7,7,8,8],"right_children":[2,4,6,8,10,-1,12,14,16,-1,-1,-1,-1,-1,-1,-1,-1],"split_conditions":[-1E-5,5.8908828E-2,3.665112E-2,-1E-5,7.332846E-2,-5.4098256E-2,5.0735578E-2,-1E-5,-1E-5,1.2274702E-1,6.5108135E-2,6.50856E-2,2.2924367E-2,-1.1454966E-2,6.754844E-2,-5.500051E-2,1.1345384E-1],"split_indices":[9760,9369,8170,8170,7662,0,8192,8997,5595,0,0,0,0,0,0,0,0],"split_type":[0,0,0,0,0,0,0,0,0,0,0,0,0,0,0,0,0],"sum_hessian":[6.690454E4,3.9187316E4,2.7717219E4,3.706768E4,2.1196367E3,2.7853361E1,2.7689367E4,1.0733252E3,3.5994355E4,7.3603644E0,2.1122764E3,2.7687799E4,1.5678881E0,8.77306E2,1.9601918E2,3.597883E4,1.5525661E1],"tree_param":{"num_deleted":"0","num_feature":"10000","num_nodes":"17","size_leaf_vector":"1"}},{"base_weights":[2.0410381E-2,6.561346E-1,-4.364654E-2,-3.847744E-2,2.3443341E-1],"categories":[],"categories_nodes":[],"categories_segments":[],"categories_sizes":[],"default_left":[1,0,0,0,0],"id":79,"left_children":[1,3,-1,-1,-1],"loss_changes":[3.9137974E0,1.078109E1,0E0,0E0,0E0],"parents":[2147483647,0,0,1,1],"right_children":[2,4,-1,-1,-1],"split_conditions":[-1E-5,7.433393E-2,-4.364654E-2,-3.847744E-2,2.3443341E-1],"split_indices":[9691,8170,0,0,0],"split_type":[0,0,0,0,0],"sum_hessian":[1.1489085E1,4.621843E0,6.867242E0,3.3366272E0,1.2852157E0],"tree_param":{"num_deleted":"0","num_feature":"10000","num_nodes":"5","size_leaf_vector":"1"}},{"base_weights":[-2.1805942E-1,4.465373E-1,-3.6167055E-1,-4.9508903E-2,6.047966E-1,5.008076E-1,-4.3199733E-1,6.17751E-1,-4.2396326E-2,5.9825265E-1,-6.641557E-2,5.966892E-1,-4.84455E-1,5.7413578E-2,9.098423E-2,6.2551424E-2,-9.583728E-2,7.426436E-2,-4.6827562E-2,-4.876535E-2,2.1626143E-1],"categories":[],"categories_nodes":[],"categories_segments":[],"categories_sizes":[],"default_left":[0,0,0,0,1,1,0,1,0,1,0,1,1,0,0,0,0,0,0,0,0],"id":80,"left_children":[1,3,5,-1,7,9,11,13,-1,15,-1,17,19,-1,-1,-1,-1,-1,-1,-1,-1],"loss_changes":[2.8210947E2,7.85893E1,1.4759189E2,0E0,6.2619476E0,2.1244892E1,1.21546875E2,5.14711E0,0E0,7.8134727E0,0E0,1.736451E1,1.9161346E1,0E0,0E0,0E0,0E0,0E0,0E0,0E0,0E0],"parents":[2147483647,0,0,1,1,2,2,4,4,5,5,6,6,7,7,9,9,11,11,12,12],"right_children":[2,4,6,-1,8,10,12,14,-1,16,-1,18,20,-1,-1,-1,-1,-1,-1,-1,-1],"split_conditions":[1.1335427E-1,3.2563593E-2,3.6763597E-1,-4.9508903E-2,-1E-5,5.826683E-2,7.470134E-1,1.9544673E-1,-4.2396326E-2,-1E-5,-6.641557E-2,4.290315E-2,1.4306533E-1,5.7413578E-2,9.098423E-2,6.2551424E-2,-9.583728E-2,7.426436E-2,-4.6827562E-2,-4.876535E-2,2.1626143E-1],"split_indices":[7564,8170,9324,0,7865,0,9413,8643,0,7856,0,5720,7303,0,0,0,0,0,0,0,0],"split_type":[0,0,0,0,0,0,0,0,0,0,0,0,0,0,0,0,0,0,0,0,0],"sum_hessian":[2.953083E3,5.2436096E2,2.4287222E3,7.514252E1,4.4921844E2,1.826467E2,2.2460754E3,4.4402667E2,5.191775E0,1.6899715E2,1.3649555E1,1.0847734E2,2.1375981E3,3.8891867E2,5.510799E1,1.6667627E2,2.3208811E0,9.566854E1,1.2808798E1,2.135833E3,1.7649816E0],"tree_param":{"num_deleted":"0","num_feature":"10000","num_nodes":"21","size_leaf_vector":"1"}},{"base_weights":[3.3219093E-1,3.7425718E-1,-4.457257E-2],"categories":[],"categories_nodes":[],"categories_segments":[],"categories_sizes":[],"default_left":[0,0,0],"id":81,"left_children":[1,-1,-1],"loss_changes":[2.8765356E1,0E0,0E0],"parents":[2147483647,0,0],"right_children":[2,-1,-1],"split_conditions":[2.3107176E-1,3.7425718E-1,-4.457257E-2],"split_indices":[8439,0,0],"split_type":[0,0,0],"sum_hessian":[9.213824E0,1.0034943E0,8.21033E0],"tree_param":{"num_deleted":"0","num_feature":"10000","num_nodes":"3","size_leaf_vector":"1"}},{"base_weights":[-3.7148225E-1,-4.4250292E-1,4.2819592E-1,-4.563016E-1,1.6324684E-1,5.8527666E-1,-5.3780925E-2,-4.6261322E-1,3.1584817E-1,6.805981E-1,-6.871781E-2,-4.8298962E-2,4.8928365E-2,6.1293315E-2,2.2488563E-1],"categories":[],"categories_nodes":[],"categories_segments":[],"categories_sizes":[],"default_left":[1,1,1,1,0,1,0,1,0,1,0,0,0,0,0],"id":82,"left_children":[1,3,5,7,-1,9,-1,11,-1,13,-1,-1,-1,-1,-1],"loss_changes":[7.789537E1,3.6738144E1,1.732641E1,2.997055E1,0E0,1.2221939E1,0E0,2.444812E1,0E0,8.241783E0,0E0,0E0,0E0,0E0,0E0],"parents":[2147483647,0,0,1,1,2,2,3,3,5,5,7,7,9,9],"right_children":[2,4,6,8,-1,10,-1,12,-1,14,-1,-1,-1,-1,-1],"split_conditions":[-1E-5,1.1866434E-1,-1E-5,2.5426292E-1,1.6324684E-1,-1E-5,-5.3780925E-2,-1E-5,3.1584817E-1,-1E-5,-6.871781E-2,-4.8298962E-2,4.8928365E-2,6.1293315E-2,2.2488563E-1],"split_indices":[7630,7162,7451,7378,0,9209,0,8384,0,6842,0,0,0,0,0],"split_type":[0,0,0,0,0,0,0,0,0,0,0,0,0,0,0],"sum_hessian":[1.3672139E3,1.256104E3,1.1110988E2,1.2485809E3,7.5230384E0,9.590847E1,1.520141E1,1.2472751E3,1.305794E0,8.965724E1,6.2512255E0,1.2216177E3,2.565746E1,8.728216E1,2.3750854E0],"tree_param":{"num_deleted":"0","num_feature":"10000","num_nodes":"15","size_leaf_vector":"1"}},{"base_weights":[1.6614205E-1,7.313912E-1,-3.9561868E-2,1.5504758E-1,-3.2041755E-2],"categories":[],"categories_nodes":[],"categories_segments":[],"categories_sizes":[],"default_left":[1,1,0,0,0],"id":83,"left_children":[1,3,-1,-1,-1],"loss_changes":[2.9110389E0,4.344733E0,0E0,0E0,0E0],"parents":[2147483647,0,0,1,1],"right_children":[2,4,-1,-1,-1],"split_conditions":[-1E-5,-1E-5,-3.9561868E-2,1.5504758E-1,-3.2041755E-2],"split_indices":[9691,8178,0,0,0],"split_type":[0,0,0,0,0],"sum_hessian":[7.2563777E0,3.4664447E0,3.7899327E0,1.6822817E0,1.7841631E0],"tree_param":{"num_deleted":"0","num_feature":"10000","num_nodes":"5","size_leaf_vector":"1"}},{"base_weights":[2.2166524E-2,4.5275748E-1,-6.269344E-1,5.171312E-1,-6.1491364E-1,-6.2699366E-1,3.2226797E-2,-2.1882972E-1,5.406749E-1,-6.2334424E-1,5.3705376E-2,-6.270322E-1,1.4808846E-2,-2.9577637E-2,5.7703942E-2,5.4637898E-2,-5.4267764E-2,-6.2883094E-2,-9.039177E-3,7.5507797E-3,-6.270647E-2],"categories":[],"categories_nodes":[],"categories_segments":[],"categories_sizes":[],"default_left":[1,1,1,1,1,1,0,1,1,1,0,0,0,0,0,0,0,0,0,0,0],"id":84,"left_children":[1,3,5,7,9,11,-1,13,15,17,-1,19,-1,-1,-1,-1,-1,-1,-1,-1,-1],"loss_changes":[1.7639928E4,2.6081406E3,1.6162109E0,6.2018945E2,2.1293518E1,8.4472656E-1,0E0,6.814834E1,2.1458398E2,6.2091675E0,0E0,6.2109375E-1,0E0,0E0,0E0,0E0,0E0,0E0,0E0,0E0,0E0],"parents":[2147483647,0,0,1,1,2,2,3,3,4,4,5,5,7,7,8,8,9,9,11,11],"right_children":[2,4,6,8,10,12,-1,14,16,18,-1,20,-1,-1,-1,-1,-1,-1,-1,-1,-1],"split_conditions":[-1E-5,-1E-5,-1E-5,-1E-5,-1E-5,5.0735578E-2,3.2226797E-2,-1E-5,-1E-5,7.397693E-2,5.3705376E-2,4.2354128E-1,1.4808846E-2,-2.9577637E-2,5.7703942E-2,5.4637898E-2,-5.4267764E-2,-6.2883094E-2,-9.039177E-3,7.5507797E-3,-6.270647E-2],"split_indices":[9760,9812,8034,8170,8206,8192,0,7237,7407,8192,0,5254,0,0,0,0,0,0,0,0,0],"split_type":[0,0,0,0,0,0,0,0,0,0,0,0,0,0,0,0,0,0,0,0,0],"sum_hessian":[6.311111E4,3.7942008E4,2.5169102E4,3.5784918E4,2.1570864E3,2.5167871E4,1.2312055E0,1.1090304E3,3.467589E4,2.14187E3,1.5216257E1,2.5166809E4,1.0620806E0,1.0118322E3,9.719816E1,3.449476E4,1.8112628E2,2.1198665E3,2.2003576E1,1.0551655E0,2.5165754E4],