{"learner":{"attributes":{"scikit_learn":"{\"_estimator_type\": \"classifier\"}"},"feature_names":[],"feature_types":[],"gradient_booster":{"model":{"cats":{"enc":[],"feature_segments":[],"sorted_idx":[]},"gbtree_model_param":{"num_parallel_tree":"1","num_trees":"700"},"iteration_indptr":[0,7,14,21,28,35,42,49,56,63,70,77,84,91,98,105,112,119,126,133,140,147,154,161,168,175,182,189,196,203,210,217,224,231,238,245,252,259,266,273,280,287,294,301,308,315,322,329,336,343,350,357,364,371,378,385,392,399,406,413,420,427,434,441,448,455,462,469,476,483,490,497,504,511,518,525,532,539,546,553,560,567,574,581,588,595,602,609,616,623,630,637,644,651,658,665,672,679,686,693,700],"tree_info":[0,1,2,3,4,5,6,0,1,2,3,4,5,6,0,1,2,3,4,5,6,0,1,2,3,4,5,6,0,1,2,3,4,5,6,0,1,2,3,4,5,6,0,1,2,3,4,5,6,0,1,2,3,4,5,6,0,1,2,3,4,5,6,0,1,2,3,4,5,6,0,1,2,3,4,5,6,0,1,2,3,4,5,6,0,1,2,3,4,5,6,0,1,2,3,4,5,6,0,1,2,3,4,5,6,0,1,2,3,4,5,6,0,1,2,3,4,5,6,0,1,2,3,4,5,6,0,1,2,3,4,5,6,0,1,2,3,4,5,6,0,1,2,3,4,5,6,0,1,2,3,4,5,6,0,1,2,3,4,5,6,0,1,2,3,4,5,6,0,1,2,3,4,5,6,0,1,2,3,4,5,6,0,1,2,3,4,5,6,0,1,2,3,4,5,6,0,1,2,3,4,5,6,0,1,2,3,4,5,6,0,1,2,3,4,5,6,0,1,2,3,4,5,6,0,1,2,3,4,5,6,0,1,2,3,4,5,6,0,1,2,3,4,5,6,0,1,2,3,4,5,6,0,1,2,3,4,5,6,0,1,2,3,4,5,6,0,1,2,3,4,5,6,0,1,2,3,4,5,6,0,1,2,3,4,5,6,0,1,2,3,4,5,6,0,1,2,3,4,5,6,0,1,2,3,4,5,6,0,1,2,3,4,5,6,0,1,2,3,4,5,6,0,1,2,3,4,5,6,0,1,2,3,4,5,6,0,1,2,3,4,5,6,0,1,2,3,4,5,6,0,1,2,3,4,5,6,0,1,2,3,4,5,6,0,1,2,3,4,5,6,0,1,2,3,4,5,6,0,1,2,3,4,5,6,0,1,2,3,4,5,6,0,1,2,3,4,5,6,0,1,2,3,4,5,6,0,1,2,3,4,5,6,0,1,2,3,4,5,6,0,1,2,3,4,5,6,0,1,2,3,4,5,6,0,1,2,3,4,5,6,0,1,2,3,4,5,6,0,1,2,3,4,5,6,0,1,2,3,4,5,6,0,1,2,3,4,5,6,0,1,2,3,4,5,6,0,1,2,3,4,5,6,0,1,2,3,4,5,6,0,1,2,3,4,5,6,0,1,2,3,4,5,6,0,1,2,3,4,5,6,0,1,2,3,4,5,6,0,1,2,3,4,5,6,0,1,2,3,4,5,6,0,1,2,3,4,5,6,0,1,2,3,4,5,6,0,1,2,3,4,5,6,0,1,2,3,4,5,6,0,1,2,3,4,5,6,0,1,2,3,4,5,6,0,1,2,3,4,5,6,0,1,2,3,4,5,6,0,1,2,3,4,5,6,0,1,2,3,4,5,6,0,1,2,3,4,5,6,0,1,2,3,4,5,6,0,1,2,3,4,5,6,0,1,2,3,4,5,6,0,1,2,3,4,5,6,0,1,2,3,4,5,6,0,1,2,3,4,5,6,0,1,2,3,4,5,6,0,1,2,3,4,5,6,0,1,2,3,4,5,6,0,1,2,3,4,5,6,0,1,2,3,4,5,6,0,1,2,3,4,5,6,0,1,2,3,4,5,6],"trees":[{"base_weights":[1.1718875E-3,5.9146917E-1,-1.7021911E0,6.609138E-1,-1.6620321E0,-1.7023149E0,4.4172637E-2,-8.6463314E-1,6.903649E-1,-1.6880621E0,6.8528004E-2,-5.2980925E-3,-1.7023768E0,-1.2711528E-1,-1.0816564E-2,7.063449E-2,-1.6995735E-1,-1.7007414E-1,-1.0589247E-2,-1.7024077E-1,-4.9848996E-2],"categories":[],"categories_nodes":[],"categories_segments":[],"categories_sizes":[],"default_left":[1,1,1,1,1,0,0,1,1,1,0,0,1,0,0,0,0,0,0,0,0],"id":0,"left_children":[1,3,5,7,9,11,-1,13,15,17,-1,-1,19,-1,-1,-1,-1,-1,-1,-1,-1],"loss_changes":[1.2624191E5,1.4592621E4,9.328125E0,4.0645898E3,1.714873E2,3.2109375E0,0E0,5.268273E2,3.3903242E3,5.513623E1,0E0,0E0,3.4375E-1,0E0,0E0,0E0,0E0,0E0,0E0,0E0,0E0],"parents":[2147483647,0,0,1,1,2,2,3,3,4,4,5,5,7,7,8,8,9,9,12,12],"right_children":[2,4,6,8,10,12,-1,14,16,18,-1,-1,20,-1,-1,-1,-1,-1,-1,-1,-1],"split_conditions":[-1E-5,-1E-5,-1E-5,-1E-5,-1E-5,4.0360764E-1,4.4172637E-2,-1E-5,-1E-5,6.2759265E-2,6.8528004E-2,-5.2980925E-3,5.4865647E-2,-1.2711528E-1,-1.0816564E-2,7.063449E-2,-1.6995735E-1,-1.7007414E-1,-1.0589247E-2,-1.7024077E-1,-4.9848996E-2],"split_indices":[9800,9848,7749,8299,8332,5663,0,8245,7589,8245,0,0,8319,0,0,0,0,0,0,0,0],"split_type":[0,0,0,0,0,0,0,0,0,0,0,0,0,0,0,0,0,0,0,0,0],"sum_hessian":[1.2555056E5,9.323931E4,3.2311256E4,9.045259E4,2.786712E3,3.2309596E4,1.659498E0,1.7126019E3,8.873999E4,2.756426E3,3.0285837E1,1.2446234E0,3.2308352E4,1.1135232E3,5.990788E2,8.815129E4,5.887069E2,2.7344377E3,2.1988348E1,3.2307107E4,1.2446234E0],"tree_param":{"num_deleted":"0","num_feature":"10000","num_nodes":"21","size_leaf_vector":"1"}},{"base_weights":[5.9378176E-4,-6.169719E-1,1.776714E0,-6.818029E-1,1.7838345E-1,-6.876288E-2,1.7844633E0,-6.877521E-1,1.7762122E-1,5.2462995E-2,1.7844951E-1,-6.930053E-2,1.0233975E-2],"categories":[],"categories_nodes":[],"categories_segments":[],"categories_sizes":[],"default_left":[1,1,0,1,0,0,0,1,0,0,0,0,0],"id":1,"left_children":[1,3,5,7,-1,-1,9,11,-1,-1,-1,-1,-1],"loss_changes":[1.3385745E5,1.409516E4,6.025E2,1.2905508E3,0E0,0E0,3.203125E-1,3.6514453E2,0E0,0E0,0E0,0E0,0E0],"parents":[2147483647,0,0,1,1,2,2,3,3,6,6,7,7],"right_children":[2,4,6,8,-1,-1,10,12,-1,-1,-1,-1,-1],"split_conditions":[-1E-5,5.9641227E-2,3.7054364E-2,8.591087E-2,1.7838345E-1,-6.876288E-2,1.4884537E-1,7.978536E-2,1.7762122E-1,5.2462995E-2,1.7844951E-1,-6.930053E-2,1.0233975E-2],"split_indices":[9800,9423,8299,9077,0,0,8143,8248,0,0,0,0,0],"split_type":[0,0,0,0,0,0,0,0,0,0,0,0,0],"sum_hessian":[1.2203375E5,9.05498E4,3.1483953E4,8.816959E4,2.3802039E3,9.841887E1,3.1385535E4,8.795743E4,2.1216527E2,1.210068E0,3.1384324E4,8.737659E4,5.8083264E2],"tree_param":{"num_deleted":"0","num_feature":"10000","num_nodes":"13","size_leaf_vector":"1"}},{"base_weights":[-7.3535904E-2,-4.061445E-1,1.9941266E-1,2.4400814E-2,-4.665987E-2],"categories":[],"categories_nodes":[],"categories_segments":[],"categories_sizes":[],"default_left":[1,0,0,0,0],"id":2,"left_children":[1,3,-1,-1,-1],"loss_changes":[1.2904147E1,7.4193215E-1,0E0,0E0,0E0],"parents":[2147483647,0,0,1,1],"right_children":[2,4,-1,-1,-1],"split_conditions":[8.2598895E-2,1.7576858E-1,1.9941266E-1,2.4400814E-2,-4.665987E-2],"split_indices":[0,8300,0,0,0],"split_type":[0,0,0,0,0],"sum_hessian":[1.6585941E1,1.4979828E1,1.6061139E0,1.0160882E0,1.396374E1],"tree_param":{"num_deleted":"0","num_feature":"10000","num_nodes":"5","size_leaf_vector":"1"}},{"base_weights":[-3.0368422E-3,-2.7069566E-1,5.485765E0,-4.3705195E-1,4.3038204E1,-4.618267E-1,3.947275E0,4.7124023E1,4.543992E-3,-4.8489213E-2,3.8360722E0,1.3772019E0,5.080707E0],"categories":[],"categories_nodes":[],"categories_segments":[],"categories_sizes":[],"default_left":[1,1,0,1,0,1,0,0,0,0,0,0,0],"id":3,"left_children":[1,3,-1,5,7,9,-1,11,-1,-1,-1,-1,-1],"loss_changes":[7.7054555E4,3.764215E4,0E0,5.1627866E3,3.509664E3,4.675715E3,0E0,1.5427969E3,0E0,0E0,0E0,0E0,0E0],"parents":[2147483647,0,0,1,1,3,3,4,4,5,5,7,7],"right_children":[2,4,-1,6,8,10,-1,12,-1,-1,-1,-1,-1],"split_conditions":[-1E-5,1.5896116E-1,5.485765E0,-1E-5,3.0939764E-1,5.2846E-2,3.947275E0,1.3166623E-1,4.543992E-3,-4.8489213E-2,3.8360722E0,1.3772019E0,5.080707E0],"split_indices":[7747,9381,0,8341,9381,5991,0,3133,0,0,0,0,0],"split_type":[0,0,0,0,0,0,0,0,0,0,0,0,0],"sum_hessian":[5.2455264E3,5.2210483E3,2.4477816E1,5.2020566E3,1.8992006E1,5.199817E3,2.2394598E0,1.7255991E1,1.7360153E0,5.1977163E3,2.1005785E0,2.1873791E0,1.5068612E1],"tree_param":{"num_deleted":"0","num_feature":"10000","num_nodes":"13","size_leaf_vector":"1"}},{"base_weights":[-2.5728804E-1,1.0234407E-1,-4.479766E-2,1.00122765E-1,-3.8837973E-2],"categories":[],"categories_nodes":[],"categories_segments":[],"categories_sizes":[],"default_left":[1,1,0,0,0],"id":4,"left_children":[1,3,-1,-1,-1],"loss_changes":[1.0347233E0,2.951908E0,0E0,0E0,0E0],"parents":[2147483647,0,0,1,1],"right_children":[2,4,-1,-1,-1],"split_conditions":[-1E-5,-1E-5,-4.479766E-2,1.00122765E-1,-3.8837973E-2],"split_indices":[9734,8332,0,0,0],"split_type":[0,0,0,0,0],"sum_hessian":[1.3419775E1,4.8105445E0,8.60923E0,1.3314157E0,3.4791286E0],"tree_param":{"num_deleted":"0","num_feature":"10000","num_nodes":"5","size_leaf_vector":"1"}},{"base_weights":[-7.8020007E-3,-2.9418805E-1,9.414916E0,7.5565276E0,-3.8656786E-1,-4.6703625E-1,6.099668E0,-4.8371263E-2,2.1797652E0],"categories":[],"categories_nodes":[],"categories_segments":[],"categories_sizes":[],"default_left":[1,0,0,0,1,1,0,0,0],"id":5,"left_children":[1,3,-1,-1,5,7,-1,-1,-1],"loss_changes":[7.633449E4,1.9807117E4,0E0,0E0,1.3956631E4,1.0565149E3,0E0,0E0,0E0],"parents":[2147483647,0,0,1,1,4,4,5,5],"right_children":[2,4,-1,-1,6,8,-1,-1,-1],"split_conditions":[-1E-5,2.3746875E-1,9.414916E0,7.5565276E0,3.2948487E-2,1.6986115E-2,6.099668E0,-4.8371263E-2,2.1797652E0],"split_indices":[8701,7222,0,0,6029,7363,0,0,0],"split_type":[0,0,0,0,0,0,0,0,0],"sum_hessian":[2.8288208E3,2.8212366E3,7.5841455E0,2.437761E0,2.8187988E3,2.8160996E3,2.6992834E0,2.8149695E3,1.1301497E0],"tree_param":{"num_deleted":"0","num_feature":"10000","num_nodes":"9","size_leaf_vector":"1"}},{"base_weights":[-8.923165E-3,6.8037593E-1,-4.3369602E-2,2.2314243E-1,-3.6286604E-2],"categories":[],"categories_nodes":[],"categories_segments":[],"categories_sizes":[],"default_left":[1,1,0,0,0],"id":6,"left_children":[1,3,-1,-1,-1],"loss_changes":[3.5742993E0,8.349343E0,0E0,0E0,0E0],"parents":[2147483647,0,0,1,1],"right_children":[2,4,-1,-1,-1],"split_conditions":[-1E-5,-1E-5,-4.3369602E-2,2.2314243E-1,-3.6286604E-2],"split_indices":[9734,8306,0,0,0],"split_type":[0,0,0,0,0],"sum_hessian":[1.0199701E1,3.6595063E0,6.5401955E0,1.0135983E0,2.6459079E0],"tree_param":{"num_deleted":"0","num_feature":"10000","num_nodes":"5","size_leaf_vector":"1"}},{"base_weights":[1.9837216E-2,5.6316906E-1,-1.3498999E0,6.6162896E-1,-1.3157393E0,-1.3554269E0,6.94981E-1,6.687219E-1,-6.2335765E-1,-6.2288934E-1,-1.3528743E0,-8.580508E-1,-1.3564221E0,6.7370914E-2,1.22504905E-1,-9.925383E-3,6.7839235E-2,-6.2697336E-2,3.9599564E-2,-5.103015E-3,-7.152047E-2,-1.3572332E-1,6.130756E-2,-9.1994815E-2,-5.864171E-2,-1.3564959E-1,3.9600093E-2],"categories":[],"categories_nodes":[],"categories_segments":[],"categories_sizes":[],"default_left":[1,1,1,1,1,0,1,1,1,1,1,1,1,0,0,0,0,0,0,0,0,0,0,0,0,0,0],"id":7,"left_children":[1,3,5,7,9,11,13,15,17,19,21,23,25,-1,-1,-1,-1,-1,-1,-1,-1,-1,-1,-1,-1,-1,-1],"loss_changes":[9.242102E4,1.6449887E4,3.995703E2,7.7046875E2,1.13078125E2,1.6238281E1,2.541275E-1,6.2408594E2,1.9595795E0,1.1952171E1,3.6836426E1,6.871948E-1,5.0859375E0,0E0,0E0,0E0,0E0,0E0,0E0,0E0,0E0,0E0,0E0,0E0,0E0,0E0,0E0],"parents":[2147483647,0,0,1,1,2,2,3,3,4,4,5,5,6,6,7,7,8,8,9,9,10,10,11,11,12,12],"right_children":[2,4,6,8,10,12,14,16,18,20,22,24,26,-1,-1,-1,-1,-1,-1,-1,-1,-1,-1,-1,-1,-1,-1],"split_conditions":[-1E-5,6.988529E-2,-1E-5,-1E-5,1.0080181E-1,5.5596594E-2,-1E-5,-1E-5,1.2462042E-1,-1E-5,-1E-5,3.2948487E-2,-1E-5,6.7370914E-2,1.22504905E-1,-9.925383E-3,6.7839235E-2,-6.2697336E-2,3.9599564E-2,-5.103015E-3,-7.152047E-2,-1.3572332E-1,6.130756E-2,-9.1994815E-2,-5.864171E-2,-1.3564959E-1,3.9600093E-2],"split_indices":[6089,9848,8306,9826,9135,7995,9942,8299,8319,9381,8306,6029,8245,0,0,0,0,0,0,0,0,0,0,0,0,0,0],"split_type":[0,0,0,0,0,0,0,0,0,0,0,0,0,0,0,0,0,0,0,0,0,0,0,0,0,0,0],"sum_hessian":[1.2418277E5,8.891397E4,3.52688E4,8.448726E4,4.426715E3,3.5174066E4,9.4734116E1,8.402394E4,4.63321E2,2.2609505E2,4.2006196E3,7.195762E1,3.510211E4,9.3262436E1,1.4716803E0,1.0447657E3,8.297917E4,4.62067E2,1.2540332E0,3.1641384E1,1.9445367E2,4.1916357E3,8.983957E0,5.6659794E1,1.5297823E1,3.5100855E4,1.2540474E0],"tree_param":{"num_deleted":"0","num_feature":"10000","num_nodes":"27","size_leaf_vector":"1"}},{"base_weights":[5.624735E-4,-5.906752E-1,1.4061363E0,-6.558196E-1,1.4080669E0,1.4090104E0,-5.68747E-2,-6.6188484E-1,1.4424895E-1,1.4084409E-1,5.581351E-2,2.1319685E0,1.4084483E0,-6.661835E-2,1.3972144E-2,1.321194E-1,3.1678525E-1,1.4085607E-1,-4.4292387E-2],"categories":[],"categories_nodes":[],"categories_segments":[],"categories_sizes":[],"default_left":[1,1,1,1,1,0,0,1,0,0,0,0,1,0,0,0,0,0,0],"id":8,"left_children":[1,3,5,7,9,11,-1,13,-1,-1,-1,15,17,-1,-1,-1,-1,-1,-1],"loss_changes":[9.990385E4,1.1019285E4,2.0283594E2,1.0439336E3,6.25E-2,1.14296875E1,0E0,2.8167578E2,0E0,0E0,0E0,1.7368767E1,8.0078125E0,0E0,0E0,0E0,0E0,0E0,0E0],"parents":[2147483647,0,0,1,1,2,2,3,3,4,4,5,5,7,7,11,11,12,12],"right_children":[2,4,6,8,10,12,-1,14,-1,-1,-1,16,18,-1,-1,-1,-1,-1,-1],"split_conditions":[-1E-5,5.9641227E-2,-1E-5,8.591087E-2,1.988546E-1,2.30911E-1,-5.68747E-2,1.2462042E-1,1.4424895E-1,1.4084409E-1,5.581351E-2,1.5896116E-1,1.7530715E-1,-6.661835E-2,1.3972144E-2,1.321194E-1,3.1678525E-1,1.4085607E-1,-4.4292387E-2],"split_indices":[9800,9423,7752,9077,9009,9381,0,8319,0,0,0,9381,9314,0,0,0,0,0,0],"split_type":[0,0,0,0,0,0,0,0,0,0,0,0,0,0,0,0,0,0,0],"sum_hessian":[1.2021517E5,8.462096E4,3.5594207E4,8.195064E4,2.670321E3,3.554277E4,5.1440277E1,8.1715125E4,2.3551677E2,2.6684895E3,1.8315692E0,2.4663698E1,3.5518105E4,8.127942E4,4.3569916E2,1.5111516E1,9.552183E0,3.5516188E4,1.9157813E0],"tree_param":{"num_deleted":"0","num_feature":"10000","num_nodes":"19","size_leaf_vector":"1"}},{"base_weights":[-3.535973E-3,-4.0689087E-1,3.226385E-1,-4.668599E-2,2.4031317E-2],"categories":[],"categories_nodes":[],"categories_segments":[],"categories_sizes":[],"default_left":[1,1,0,0,0],"id":9,"left_children":[1,3,-1,-1,-1],"loss_changes":[2.3617634E1,7.373779E-1,0E0,0E0,0E0],"parents":[2147483647,0,0,1,1],"right_children":[2,4,-1,-1,-1],"split_conditions":[1.00999646E-1,8.044333E-2,3.226385E-1,-4.668599E-2,2.4031317E-2],"split_indices":[0,9877,0,0,0],"split_type":[0,0,0,0,0],"sum_hessian":[1.612064E1,1.510797E1,1.0126699E0,1.40818205E1,1.0261499E0],"tree_param":{"num_deleted":"0","num_feature":"10000","num_nodes":"5","size_leaf_vector":"1"}},{"base_weights":[-2.4374901E-1,-2.571615E-1,3.1605933E0,-3.5903555E-1,7.045905E-2,8.253088E-1,-4.584586E-1,7.2155654E-1,7.309755E-2,1.3727051E-1,-4.9625605E-2],"categories":[],"categories_nodes":[],"categories_segments":[],"categories_sizes":[],"default_left":[1,1,0,0,0,0,0,0,0,0,0],"id":10,"left_children":[1,3,-1,5,-1,7,9,-1,-1,-1,-1],"loss_changes":[2.5758174E3,5.8901965E2,0E0,6.402736E2,0E0,2.4864514E2,3.4772217E2,0E0,0E0,0E0,0E0],"parents":[2147483647,0,0,1,1,3,3,5,5,6,6],"right_children":[2,4,-1,6,-1,8,10,-1,-1,-1,-1],"split_conditions":[-1E-5,1.2165683E-1,3.1605933E0,3.6959562E-1,7.045905E-2,1.2704597E-1,7.470134E-1,7.2155654E-1,7.309755E-2,1.3727051E-1,-4.9625605E-2],"split_indices":[8311,9252,0,9381,0,3133,9466,0,0,0,0],"split_type":[0,0,0,0,0,0,0,0,0,0,0],"sum_hessian":[6.0097383E3,6.0082E3,1.5382398E0,5.433302E3,5.748984E2,4.2022372E2,5.013078E3,5.014945E0,4.152088E2,1.0066912E2,4.9124087E3],"tree_param":{"num_deleted":"0","num_feature":"10000","num_nodes":"11","size_leaf_vector":"1"}},{"base_weights":[-1.0251994E-1,4.8298922E-1,-4.459069E-2,1.8374886E-1,-3.82144E-2],"categories":[],"categories_nodes":[],"categories_segments":[],"categories_sizes":[],"default_left":[1,1,0,0,0],"id":11,"left_children":[1,3,-1,-1,-1],"loss_changes":[2.9973478E0,7.2586803E0,0E0,0E0,0E0],"parents":[2147483647,0,0,1,1],"right_children":[2,4,-1,-1,-1],"split_conditions":[-1E-5,-1E-5,-4.459069E-2,1.8374886E-1,-3.82144E-2],"split_indices":[9734,8332,0,0,0],"split_type":[0,0,0,0,0],"sum_hessian":[1.2836826E1,4.5951276E0,8.241698E0,1.3529458E0,3.242182E0],"tree_param":{"num_deleted":"0","num_feature":"10000","num_nodes":"5","size_leaf_vector":"1"}},{"base_weights":[-4.103867E-1,6.387995E-1,-4.7375575E-1,5.677342E-1,5.3523487E-1,-4.8078433E-1,6.1208886E-1,5.115455E-1,4.6429902E-1,-4.841228E-1,3.9506754E-1,4.4749897E-2,3.8064992E-1,-4.9356535E-2,4.886585E-2],"categories":[],"categories_nodes":[],"categories_segments":[],"categories_sizes":[],"default_left":[0,1,1,1,0,1,0,1,0,1,0,0,0,0,0],"id":12,"left_children":[1,3,5,7,-1,9,-1,11,-1,13,-1,-1,-1,-1,-1],"loss_changes":[1.9002249E2,5.1547226E1,1.27700195E2,3.464143E1,0E0,4.17041E1,0E0,3.218411E1,0E0,2.4936584E1,0E0,0E0,0E0,0E0,0E0],"parents":[2147483647,0,0,1,1,2,2,3,3,5,5,7,7,9,9],"right_children":[2,4,6,8,-1,10,-1,12,-1,14,-1,-1,-1,-1,-1],"split_conditions":[2.2699288E-1,3.9606884E-2,1.1866438E-1,3.1175347E-2,5.3523487E-1,1.0915545E-1,6.1208886E-1,3.6236107E-2,4.6429902E-1,-1E-5,3.9506754E-1,4.4749897E-2,3.8064992E-1,-4.9356535E-2,4.886585E-2],"split_indices":[7802,2931,7363,7495,0,9989,0,7819,0,8701,0,0,0,0,0],"split_type":[0,0,0,0,0,0,0,0,0,0,0,0,0,0,0],"sum_hessian":[2.8525352E3,1.6195773E2,2.6905774E3,1.60656E2,1.3017342E0,2.688639E3,1.9384625E0,1.5958125E2,1.0747453E0,2.687505E3,1.1339046E0,1.5765266E2,1.9286013E0,2.6621567E3,2.5348246E1],"tree_param":{"num_deleted":"0","num_feature":"10000","num_nodes":"15","size_leaf_vector":"1"}},{"base_weights":[3.368068E-3,-4.3815397E-2,9.313155E-1,2.0316784E-1,-3.1274848E-2],"categories":[],"categories_nodes":[],"categories_segments":[],"categories_sizes":[],"default_left":[1,0,1,0,0],"id":13,"left_children":[1,-1,3,-1,-1],"loss_changes":[4.884639E0,0E0,5.8956285E0,0E0,0E0],"parents":[2147483647,0,0,2,2],"right_children":[2,-1,4,-1,-1],"split_conditions":[3.9744124E-2,-4.3815397E-2,-1E-5,2.0316784E-1,-3.1274848E-2],"split_indices":[8299,0,8306,0,0],"split_type":[0,0,0,0,0],"sum_hessian":[9.926234E0,7.083632E0,2.8426027E0,1.1724678E0,1.670135E0],"tree_param":{"num_deleted":"0","num_feature":"10000","num_nodes":"5","size_leaf_vector":"1"}},{"base_weights":[2.1410435E-2,5.6533957E-1,-1.1526147E0,-1.1246384E0,6.3351357E-1,-1.1536909E0,-7.292302E-1,6.396639E-1,-1.1345489E0,-2.9089656E-1,6.483479E-1,-1.15372375E-1,-2.7157245E-2,-6.712171E-2,-1.2548119E-1,7.0865445E-2,-5.6135296E-3,-7.759754E-2,-1.1567252E-1,2.6856551E-3,-1.0089344E-1,6.5514825E-2,-6.1362892E-2],"categories":[],"categories_nodes":[],"categories_segments":[],"categories_sizes":[],"default_left":[1,0,1,0,1,1,1,0,1,1,1,0,0,0,0,0,0,0,0,0,0,0,0],"id":14,"left_children":[1,3,5,7,9,11,13,15,17,19,21,-1,-1,-1,-1,-1,-1,-1,-1,-1,-1,-1,-1],"loss_changes":[7.7111836E4,9.50823E3,1.6582031E1,5.668164E1,1.0879336E3,7.8515625E-1,2.196354E0,9.2858267E-1,2.4410156E1,2.8602365E2,6.703867E2,0E0,0E0,0E0,0E0,0E0,0E0,0E0,0E0,0E0,0E0,0E0,0E0],"parents":[2147483647,0,0,1,1,2,2,3,3,4,4,5,5,6,6,7,7,8,8,9,9,10,10],"right_children":[2,4,6,8,10,12,14,16,18,20,22,-1,-1,-1,-1,-1,-1,-1,-1,-1,-1,-1,-1],"split_conditions":[-1E-5,3.5775524E-1,1.5896116E-1,3.3685897E-2,-1E-5,-1E-5,-1E-5,1.11183956E-1,3.659046E-2,-1E-5,-1E-5,-1.15372375E-1,-2.7157245E-2,-6.712171E-2,-1.2548119E-1,7.0865445E-2,-5.6135296E-3,-7.759754E-2,-1.1567252E-1,2.6856551E-3,-1.0089344E-1,6.5514825E-2,-6.1362892E-2],"split_indices":[9725,9135,9381,8299,8299,8665,3133,9135,8299,7802,7588,0,0,0,0,0,0,0,0,0,0,0,0],"split_type":[0,0,0,0,0,0,0,0,0,0,0,0,0,0,0,0,0,0,0,0,0,0,0],"sum_hessian":[1.2075192E5,8.252048E4,3.8231445E4,3.1992097E3,7.9321266E4,3.813279E4,9.865693E1,1.751535E1,3.1816943E3,1.2524979E3,7.8068766E4,3.8131066E4,1.7246561E0,9.090051E1,7.7564125E0,1.5918509E1,1.5968418E0,1.8740973E2,2.9942844E3,8.689321E2,3.8356573E2,7.765081E4,4.1795142E2],"tree_param":{"num_deleted":"0","num_feature":"10000","num_nodes":"23","size_leaf_vector":"1"}},{"base_weights":[1.4308588E-4,-5.682099E-1,1.1883519E0,-6.3510066E-1,1.1898795E0,1.1907912E0,-5.6850977E-2,-6.413918E-1,1.2162228E-1,3.7923253E-1,1.1930616E0,1.1904039E0,2.4625014E-1,-6.466224E-2,6.960177E-3,-4.3209802E-2,5.553701E-2,1.4980939E-1,1.19080655E-1,1.1904281E-1,3.2870214E-2],"categories":[],"categories_nodes":[],"categories_segments":[],"categories_sizes":[],"default_left":[1,1,1,1,1,1,0,1,0,0,0,1,0,0,0,0,0,0,0,0,0],"id":15,"left_children":[1,3,5,7,9,11,-1,13,-1,15,17,19,-1,-1,-1,-1,-1,-1,-1,-1,-1],"loss_changes":[7.922681E4,9.333256E3,1.6336328E2,8.9118945E2,7.0512695E0,1.57421875E1,0E0,2.8339258E2,0E0,2.074925E0,2.0898438E-1,3.90625E-1,0E0,0E0,0E0,0E0,0E0,0E0,0E0,0E0,0E0],"parents":[2147483647,0,0,1,1,2,2,3,3,4,4,5,5,7,7,9,9,10,10,11,11],"right_children":[2,4,6,8,10,12,-1,14,-1,16,18,20,-1,-1,-1,-1,-1,-1,-1,-1,-1],"split_conditions":[-1E-5,2.652174E-1,-1E-5,8.591087E-2,8.144064E-2,1.5896116E-1,-5.6850977E-2,-1E-5,1.2162228E-1,1.4605916E-1,1.8384364E-1,1.988546E-1,2.4625014E-1,-6.466224E-2,6.960177E-3,-4.3209802E-2,5.553701E-2,1.4980939E-1,1.19080655E-1,1.1904281E-1,3.2870214E-2],"split_indices":[9725,9264,7690,9077,7830,9381,0,8248,0,7737,7246,9009,0,0,0,0,0,0,0,0,0],"split_type":[0,0,0,0,0,0,0,0,0,0,0,0,0,0,0,0,0,0,0,0,0],"sum_hessian":[1.173151E5,7.935699E4,3.7958113E4,7.6448945E4,2.908048E3,3.79058E4,5.2309875E1,7.619069E4,2.582573E2,1.1840281E1,2.8962078E3,3.7896195E4,9.605157E0,7.563436E4,5.5633057E2,1.8527765E0,9.987503E0,1.6386545E1,2.8798213E3,3.7894758E4,1.4392793E0],"tree_param":{"num_deleted":"0","num_feature":"10000","num_nodes":"21","size_leaf_vector":"1"}},{"base_weights":[9.095203E-3,-4.0186408E-1,2.608429E-1,-4.649496E-2,2.4161166E-2],"categories":[],"categories_nodes":[],"categories_segments":[],"categories_sizes":[],"default_left":[1,1,0,0,0],"id":16,"left_children":[1,3,-1,-1,-1],"loss_changes":[1.8883099E1,7.327392E-1,0E0,0E0,0E0],"parents":[2147483647,0,0,1,1],"right_children":[2,4,-1,-1,-1],"split_conditions":[1.00999646E-1,3.1425532E-2,2.608429E-1,-4.649496E-2,2.4161166E-2],"split_indices":[0,9725,0,0,0],"split_type":[0,0,0,0,0],"sum_hessian":[1.5695868E1,1.4283084E1,1.4127839E0,1.3260483E1,1.0226007E0],"tree_param":{"num_deleted":"0","num_feature":"10000","num_nodes":"5","size_leaf_vector":"1"}},{"base_weights":[-2.4444291E-1,-3.4288713E-1,6.795289E-2,-4.2581743E-1,8.7220913E-1,1.2062914E0,-4.67172E-1,4.4174833E0,7.614128E-1,1.428024E-1,-4.7086585E-2,-4.9275536E-2,1.4019845E-1,1.05479054E-1,5.4160285E-1,7.7340685E-2,-8.01291E-2],"categories":[],"categories_nodes":[],"categories_segments":[],"categories_sizes":[],"default_left":[1,1,0,0,0,1,1,0,1,0,0,0,0,0,0,0,0],"id":17,"left_children":[1,3,-1,5,7,9,11,13,15,-1,-1,-1,-1,-1,-1,-1,-1],"loss_changes":[5.194715E2,5.202821E2,0E0,3.265993E2,1.2624742E2,4.516803E1,2.2600818E2,2.7164185E1,6.639511E0,0E0,0E0,0E0,0E0,0E0,0E0,0E0,0E0],"parents":[2147483647,0,0,1,1,3,3,4,4,5,5,6,6,7,7,8,8],"right_children":[2,4,-1,6,8,10,12,14,16,-1,-1,-1,-1,-1,-1,-1,-1],"split_conditions":[1.2165683E-1,-1E-5,6.795289E-2,7.470134E-1,1.2531175E-1,4.4076163E-2,1.7939188E-1,2.5996163E-1,-1E-5,1.428024E-1,-4.7086585E-2,-4.9275536E-2,1.4019845E-1,1.05479054E-1,5.4160285E-1,7.7340685E-2,-8.01291E-2],"split_indices":[9252,8307,0,9466,3133,6089,8752,7837,8007,0,0,0,0,0,0,0,0],"split_type":[0,0,0,0,0,0,0,0,0,0,0,0,0,0,0,0,0],"sum_hessian":[5.7074453E3,5.1584673E3,5.48978E2,4.8295034E3,3.2896393E2,1.1865041E2,4.710853E3,8.791219E0,3.2017273E2,1.04926865E2,1.3723553E1,4.647972E3,6.288088E1,2.4836445E0,6.307574E0,3.182353E2,1.9374342E0],"tree_param":{"num_deleted":"0","num_feature":"10000","num_nodes":"17","size_leaf_vector":"1"}},{"base_weights":[-1.633023E-2,5.808945E-1,-4.406629E-2,1.9853793E-1,-3.863246E-2],"categories":[],"categories_nodes":[],"categories_segments":[],"categories_sizes":[],"default_left":[1,1,0,0,0],"id":18,"left_children":[1,3,-1,-1,-1],"loss_changes":[3.6616278E0,8.935987E0,0E0,0E0,0E0],"parents":[2147483647,0,0,1,1],"right_children":[2,4,-1,-1,-1],"split_conditions":[-1E-5,-1E-5,-4.406629E-2,1.9853793E-1,-3.863246E-2],"split_indices":[8806,8332,0,0,0],"split_type":[0,0,0,0,0],"sum_hessian":[1.2438649E1,5.0134864E0,7.4251633E0,1.6152856E0,3.3982008E0],"tree_param":{"num_deleted":"0","num_feature":"10000","num_nodes":"5","size_leaf_vector":"1"}},{"base_weights":[-4.0997404E-1,7.120163E-1,-4.5100576E-1,3.3966641E0,5.7310516E-1,-4.5786467E-1,4.006568E-1,-3.021334E-2,5.236075E-1,4.5659187E-1,3.5068986E0,-4.8028895E-1,4.642494E-1,-6.3063264E-2,5.8588322E-2,1.1437201E-1,4.151021E-1,-4.834519E-2,3.47103E-1,6.184261E-2,-1.3003485E-1],"categories":[],"categories_nodes":[],"categories_segments":[],"categories_sizes":[],"default_left":[0,0,1,0,1,1,0,0,0,1,1,1,1,0,0,0,0,0,0,0,0],"id":19,"left_children":[1,3,5,7,9,11,-1,-1,-1,13,15,17,19,-1,-1,-1,-1,-1,-1,-1,-1],"loss_changes":[1.23697266E2,3.345765E1,8.08988E1,3.1977913E1,2.966511E1,5.3631775E1,0E0,0E0,0E0,1.2897577E1,3.4280014E-1,3.3198303E1,1.7625443E1,0E0,0E0,0E0,0E0,0E0,0E0,0E0,0E0],"parents":[2147483647,0,0,1,1,2,2,3,3,4,4,5,5,9,9,10,10,11,11,12,12],"right_children":[2,4,6,8,10,12,-1,-1,-1,14,16,18,20,-1,-1,-1,-1,-1,-1,-1,-1],"split_conditions":[1.7963918E-1,3.2292616E-2,1.1866438E-1,1.9085754E-2,3.912966E-2,8.898003E-2,4.006568E-1,-3.021334E-2,5.236075E-1,3.8204532E-2,-1E-5,1.13696605E-1,2.509692E-1,-6.3063264E-2,5.8588322E-2,1.1437201E-1,4.151021E-1,-4.834519E-2,3.47103E-1,6.184261E-2,-1.3003485E-1],"split_indices":[9944,6029,7363,8340,8779,8113,0,0,0,9674,9423,9989,6029,0,0,0,0,0,0,0,0],"split_type":[0,0,0,0,0,0,0,0,0,0,0,0,0,0,0,0,0,0,0,0,0],"sum_hessian":[2.6789226E3,9.393618E1,2.5849866E3,3.4676178E0,9.046857E1,2.581911E3,3.0755348E0,1.42928E0,2.0383377E0,8.8124405E1,2.3441598E0,2.5210815E3,6.0829323E1,8.953752E0,7.9170654E1,1.0965875E0,1.2475723E0,2.5199421E3,1.1394919E0,5.6538933E1,4.2903895E0],"tree_param":{"num_deleted":"0","num_feature":"10000","num_nodes":"21","size_leaf_vector":"1"}},{"base_weights":[1.4586454E-2,-3.408912E-1,1.4902987E-1,-4.4034958E-2,2.3316054E-2],"categories":[],"categories_nodes":[],"categories_segments":[],"categories_sizes":[],"default_left":[1,1,0,0,0],"id":20,"left_children":[1,3,-1,-1,-1],"loss_changes":[6.1147904E0,6.4090395E-1,0E0,0E0,0E0],"parents":[2147483647,0,0,1,1],"right_children":[2,4,-1,-1,-1],"split_conditions":[3.1325914E-2,5.616968E-2,1.4902987E-1,-4.4034958E-2,2.3316054E-2],"split_indices":[8443,1740,0,0,0],"split_type":[0,0,0,0,0],"sum_hessian":[9.688039E0,8.427077E0,1.2609618E0,7.3811517E0,1.0459253E0],"tree_param":{"num_deleted":"0","num_feature":"10000","num_nodes":"5","size_leaf_vector":"1"}},{"base_weights":[2.3036094E-2,5.464081E-1,-1.0187011E0,-9.9828416E-1,6.137514E-1,-1.0195754E0,-6.833037E-1,-1.006413E0,7.8564805E-1,6.210298E-1,-9.117981E-1,-3.4018185E-2,-1.01959124E-1,-6.459745E-2,-1.06335334E-1,-7.137416E-2,-1.0225661E-1,6.0132574E-2,1.2397154E-1,6.277029E-2,-5.879159E-2,-9.840249E-2,1.2928079E-2],"categories":[],"categories_nodes":[],"categories_segments":[],"categories_sizes":[],"default_left":[1,0,1,1,1,0,1,1,1,1,1,0,0,0,0,0,0,0,0,0,0,0,0],"id":21,"left_children":[1,3,5,7,9,11,13,15,17,19,21,-1,-1,-1,-1,-1,-1,-1,-1,-1,-1,-1,-1],"loss_changes":[6.3366066E4,8.0476816E3,1.0699219E1,4.7658936E1,8.236328E2,6.25E-2,7.896271E-1,1.4482666E1,5.285301E-1,5.955449E2,2.6624176E1,0E0,0E0,0E0,0E0,0E0,0E0,0E0,0E0,0E0,0E0,0E0,0E0],"parents":[2147483647,0,0,1,1,2,2,3,3,4,4,5,5,6,6,7,7,8,8,9,9,10,10],"right_children":[2,4,6,8,10,12,14,16,18,20,22,-1,-1,-1,-1,-1,-1,-1,-1,-1,-1,-1,-1],"split_conditions":[-1E-5,2.744116E-1,1.5896116E-1,-1E-5,8.543385E-2,2.0201242E-1,-1E-5,8.875249E-2,-1E-5,1.4537238E-1,-1E-5,-3.4018185E-2,-1.01959124E-1,-6.459745E-2,-1.06335334E-1,-7.137416E-2,-1.0225661E-1,6.0132574E-2,1.2397154E-1,6.277029E-2,-5.879159E-2,-9.840249E-2,1.2928079E-2],"split_indices":[9725,9135,9381,8306,9466,7844,3133,7830,9928,9398,8245,0,0,0,0,0,0,0,0,0,0,0,0],"split_type":[0,0,0,0,0,0,0,0,0,0,0,0,0,0,0,0,0,0,0,0,0,0,0],"sum_hessian":[1.1621991E5,7.735632E4,3.886358E4,3.2310073E3,7.412531E4,3.8760504E4,1.0307614E2,3.2167852E3,1.4222022E1,7.377393E4,3.5138235E2,1.4039748E0,3.87591E4,9.631556E1,6.7605815E0,1.706181E2,3.0461672E3,1.1768907E1,2.4531152E0,7.336943E4,4.0450348E2,3.2863733E2,2.2745039E1],"tree_param":{"num_deleted":"0","num_feature":"10000","num_nodes":"23","size_leaf_vector":"1"}},{"base_weights":[-1.208497E-3,-5.510373E-1,1.0452828E0,-6.1671805E-1,1.0471253E0,1.0472679E0,-5.6026664E-2,-6.227207E-1,1.0780298E-1,2.450198E-2,1.0474496E-1,1.0473406E0,-3.987986E-2,-6.28486E-2,8.210247E-3,1.4487278E-1,1.0469752E-1],"categories":[],"categories_nodes":[],"categories_segments":[],"categories_sizes":[],"default_left":[1,1,1,1,0,1,0,1,0,0,0,0,0,0,0,0,0],"id":22,"left_children":[1,3,5,7,9,11,-1,13,-1,-1,-1,15,-1,-1,-1,-1,-1],"loss_changes":[6.5151836E4,7.7924473E3,1.2488672E2,7.2600977E2,5.0561523E-1,4.5078125E0,0E0,2.8875977E2,0E0,0E0,0E0,4.1992188E0,0E0,0E0,0E0,0E0,0E0],"parents":[2147483647,0,0,1,1,2,2,3,3,4,4,5,5,7,7,11,11],"right_children":[2,4,6,8,10,12,-1,14,-1,-1,-1,16,-1,-1,-1,-1,-1],"split_conditions":[-1E-5,5.9641227E-2,1.5479358E-1,8.591087E-2,2.3110266E-1,-1E-5,-5.6026664E-2,-1E-5,1.0780298E-1,2.450198E-2,1.0474496E-1,2.30911E-1,-3.987986E-2,-6.28486E-2,8.210247E-3,1.4487278E-1,1.0469752E-1],"split_indices":[9800,9423,8327,9077,2973,7737,0,8248,0,0,0,9381,0,0,0,0,0],"split_type":[0,0,0,0,0,0,0,0,0,0,0,0,0,0,0,0,0],"sum_hessian":[1.13228516E5,7.422894E4,3.8999574E4,7.129932E4,2.9296194E3,3.895176E4,4.7812313E1,7.1048305E4,2.5101527E2,1.489533E0,2.92813E3,3.8950082E4,1.6811849E0,7.047197E4,5.763333E2,3.1828289E1,3.891825E4],"tree_param":{"num_deleted":"0","num_feature":"10000","num_nodes":"17","size_leaf_vector":"1"}},{"base_weights":[-9.9145204E-2,-3.9590412E-1,1.4596748E-1,2.4372399E-2,-4.626737E-2],"categories":[],"categories_nodes":[],"categories_segments":[],"categories_sizes":[],"default_left":[1,0,0,0,0],"id":23,"left_children":[1,3,-1,-1,-1],"loss_changes":[8.078761E0,7.281079E-1,0E0,0E0,0E0],"parents":[2147483647,0,0,1,1],"right_children":[2,4,-1,-1,-1],"split_conditions":[1.00999646E-1,1.6713645E-1,1.4596748E-1,2.4372399E-2,-4.626737E-2],"split_indices":[0,5669,0,0,0],"split_type":[0,0,0,0,0],"sum_hessian":[1.5214809E1,1.340825E1,1.8065597E0,1.0168614E0,1.2391388E1],"tree_param":{"num_deleted":"0","num_feature":"10000","num_nodes":"5","size_leaf_vector":"1"}},{"base_weights":[-2.4294628E-1,-3.3954054E-1,6.5459895E-1,7.3360795E-1,-4.40967E-1,1.4934137E-2,6.553334E-2,8.263717E-1,-1.09157324E-1,7.804407E-1,-4.7709006E-1,2.64301E-1,7.484242E-2,1.0292516E-1,-4.802041E-2,-4.929631E-2,1.9792545E-1],"categories":[],"categories_nodes":[],"categories_segments":[],"categories_sizes":[],"default_left":[1,0,1,1,0,0,0,0,0,1,1,0,0,0,0,0,0],"id":24,"left_children":[1,3,5,7,9,-1,-1,11,-1,13,15,-1,-1,-1,-1,-1,-1],"loss_changes":[4.6683554E2,5.292903E2,9.629822E-2,7.201695E1,1.9630304E2,0E0,0E0,5.4702515E1,0E0,4.0624832E1,1.691695E2,0E0,0E0,0E0,0E0,0E0,0E0],"parents":[2147483647,0,0,1,1,2,2,3,3,4,4,7,7,9,9,10,10],"right_children":[2,4,6,8,10,-1,-1,12,-1,14,16,-1,-1,-1,-1,-1,-1],"split_conditions":[1.4537238E-1,3.6959562E-1,-1E-5,-1E-5,2.2699288E-1,1.4934137E-2,6.553334E-2,1.2865157E-1,-1.09157324E-1,4.110173E-2,-1E-5,2.64301E-1,7.484242E-2,1.0292516E-1,-4.802041E-2,-4.929631E-2,1.9792545E-1],"split_indices":[9398,9381,7747,1,7802,0,0,3133,0,8113,8754,0,0,0,0,0,0],"split_type":[0,0,0,0,0,0,0,0,0,0,0,0,0,0,0,0,0],"sum_hessian":[5.3810713E3,4.8587876E3,5.2228345E2,4.19026E2,4.4397617E3,1.054674E0,5.2122876E2,3.9928006E2,1.9745945E1,1.26942024E2,4.31282E3,1.5073385E1,3.8420667E2,1.06170845E2,2.0771177E1,4.2859233E3,2.6896498E1],"tree_param":{"num_deleted":"0","num_feature":"10000","num_nodes":"17","size_leaf_vector":"1"}},{"base_weights":[7.20854E-2,8.0943567E-1,-4.4035744E-2,2.054625E-1,-3.6814224E-2],"categories":[],"categories_nodes":[],"categories_segments":[],"categories_sizes":[],"default_left":[1,1,0,0,0],"id":25,"left_children":[1,3,-1,-1,-1],"loss_changes":[5.309942E0,9.154837E0,0E0,0E0,0E0],"parents":[2147483647,0,0,1,1],"right_children":[2,4,-1,-1,-1],"split_conditions":[-1E-5,-1E-5,-4.4035744E-2,2.054625E-1,-3.6814224E-2],"split_indices":[9734,8306,0,0,0],"split_type":[0,0,0,0,0],"sum_hessian":[1.2109704E1,4.7276134E0,7.382091E0,1.9358383E0,2.7917752E0],"tree_param":{"num_deleted":"0","num_feature":"10000","num_nodes":"5","size_leaf_vector":"1"}},{"base_weights":[-4.0549904E-1,6.743587E-1,-4.4826087E-1,2.803806E-1,1.5625417E0,-4.5550138E-1,2.9498303E-1,-6.607469E-1,6.60159E-2,4.0786383E-1,6.440082E-2,-4.5961857E-1,4.5036623E-1,4.6397604E-2,-8.303399E-2,5.5263143E-2,-4.7444593E-2],"categories":[],"categories_nodes":[],"categories_segments":[],"categories_sizes":[],"default_left":[0,1,1,1,1,1,0,0,0,0,0,0,0,0,0,0,0],"id":26,"left_children":[1,3,5,7,9,11,-1,13,-1,-1,-1,15,-1,-1,-1,-1,-1],"loss_changes":[1.1649509E2,3.3240955E1,6.0909912E1,2.4701778E1,6.5217735E1,5.1414764E1,0E0,4.2038517E0,0E0,0E0,0E0,3.6518494E1,0E0,0E0,0E0,0E0,0E0],"parents":[2147483647,0,0,1,1,2,2,3,3,4,4,5,5,7,7,11,11],"right_children":[2,4,6,8,10,12,-1,14,-1,-1,-1,16,-1,-1,-1,-1,-1],"split_conditions":[1.7963918E-1,1.8897124E-2,1.1866438E-1,2.0929839E-1,3.2292616E-2,1.1623499E-1,2.9498303E-1,3.4655932E-2,6.60159E-2,4.0786383E-1,6.440082E-2,7.015584E-1,4.5036623E-1,4.6397604E-2,-8.303399E-2,5.5263143E-2,-4.7444593E-2],"split_indices":[9944,9276,7363,9942,6029,9989,0,8000,0,0,0,7222,0,0,0,0,0],"split_type":[0,0,0,0,0,0,0,0,0,0,0,0,0,0,0,0,0],"sum_hessian":[2.515264E3,9.524663E1,2.4200173E3,6.689097E1,2.835566E1,2.415736E3,4.2813754E0,1.9019352E1,4.7871613E1,6.663169E0,2.169249E1,2.4146387E3,1.0973723E0,2.2646446E0,1.6754707E1,3.433517E1,2.3803035E3],"tree_param":{"num_deleted":"0","num_feature":"10000","num_nodes":"17","size_leaf_vector":"1"}},{"base_weights":[1.24706835E-1,-4.34421E-2,1.2190377E0,2.4879454E-1,-3.0812278E-2],"categories":[],"categories_nodes":[],"categories_segments":[],"categories_sizes":[],"default_left":[1,0,1,0,0],"id":27,"left_children":[1,-1,3,-1,-1],"loss_changes":[6.895944E0,0E0,8.0938425E0,0E0,0E0],"parents":[2147483647,0,0,2,2],"right_children":[2,-1,4,-1,-1],"split_conditions":[3.9744124E-2,-4.34421E-2,-1E-5,2.4879454E-1,-3.0812278E-2],"split_indices":[8299,0,9674,0,0],"split_type":[0,0,0,0,0],"sum_hessian":[9.404758E0,6.623587E0,2.7811718E0,1.1754044E0,1.6057673E0],"tree_param":{"num_deleted":"0","num_feature":"10000","num_nodes":"5","size_leaf_vector":"1"}},{"base_weights":[2.2577193E-2,5.2964175E-1,-9.235199E-1,-9.08159E-1,5.9680104E-1,-9.2411757E-1,-6.6513985E-1,6.26624E-1,-9.1657335E-1,-2.8434658E-1,6.126818E-1,-9.2415154E-2,2.1282833E-3,-6.2885426E-2,-9.7518444E-2,6.89123E-2,-5.116261E-3,-7.06095E-2,-9.2827685E-2,-8.815332E-2,-4.5135724E-3,6.1907995E-2,-5.9155256E-2],"categories":[],"categories_nodes":[],"categories_segments":[],"categories_sizes":[],"default_left":[1,0,1,0,1,1,1,0,1,0,1,0,0,0,0,0,0,0,0,0,0,0,0],"id":28,"left_children":[1,3,5,7,9,11,13,15,17,19,21,-1,-1,-1,-1,-1,-1,-1,-1,-1,-1,-1,-1],"loss_changes":[5.3187535E4,6.970615E3,5.3554688E0,4.217871E1,9.6518164E2,1.2578125E0,4.3130493E-1,8.0452156E-1,7.237793E0,1.744656E2,5.2230273E2,0E0,0E0,0E0,0E0,0E0,0E0,0E0,0E0,0E0,0E0,0E0,0E0],"parents":[2147483647,0,0,1,1,2,2,3,3,4,4,5,5,6,6,7,7,8,8,9,9,10,10],"right_children":[2,4,6,8,10,12,14,16,18,20,22,-1,-1,-1,-1,-1,-1,-1,-1,-1,-1,-1,-1],"split_conditions":[-1E-5,3.5775524E-1,1.5896116E-1,3.3685897E-2,-1E-5,6.921883E-2,-1E-5,1.11183956E-1,3.6249623E-2,3.9308268E-1,-1E-5,-9.2415154E-2,2.1282833E-3,-6.2885426E-2,-9.7518444E-2,6.89123E-2,-5.116261E-3,-7.06095E-2,-9.2827685E-2,-8.815332E-2,-4.5135724E-3,6.1907995E-2,-5.9155256E-2],"split_indices":[9725,9135,9381,8299,8299,7844,3133,9135,8299,9466,7588,0,0,0,0,0,0,0,0,0,0,0,0],"split_type":[0,0,0,0,0,0,0,0,0,0,0,0,0,0,0,0,0,0,0,0,0,0,0],"sum_hessian":[1.10867164E5,7.2181586E4,3.8685574E4,3.2205671E3,6.896102E4,3.8593727E4,9.184776E1,1.7159729E1,3.2034072E3,1.2205688E3,6.774045E4,3.859236E4,1.3639956E0,8.4935715E1,6.912048E0,1.5695696E1,1.4640324E0,1.719704E2,3.031437E3,3.483165E2,8.722524E2,6.738293E4,3.575208E2],"tree_param":{"num_deleted":"0","num_feature":"10000","num_nodes":"23","size_leaf_vector":"1"}},{"base_weights":[-2.4020642E-3,-5.3494585E-1,9.440282E-1,-6.0055065E-1,9.457006E-1,-5.5506844E-2,9.457293E-1,-6.0691625E-1,9.717242E-2,9.460204E-2,1.9089667E-2,3.846798E-2,9.457478E-2,-6.1321873E-2,1.0971136E-2],"categories":[],"categories_nodes":[],"categories_segments":[],"categories_sizes":[],"default_left":[1,1,0,1,1,0,0,1,0,0,0,0,0,0,0],"id":29,"left_children":[1,3,5,7,9,-1,11,13,-1,-1,-1,-1,-1,-1,-1],"loss_changes":[5.4410043E4,6.710994E3,9.965234E1,6.6266016E2,5.2685547E-1,0E0,3.515625E-2,2.9763867E2,0E0,0E0,0E0,0E0,0E0,0E0,0E0],"parents":[2147483647,0,0,1,1,2,2,3,3,4,4,6,6,7,7],"right_children":[2,4,6,8,10,-1,12,14,-1,-1,-1,-1,-1,-1,-1],"split_conditions":[-1E-5,5.9641227E-2,3.7054364E-2,1.2724851E-1,-1E-5,-5.5506844E-2,1.4884537E-1,7.978536E-2,9.717242E-2,9.460204E-2,1.9089667E-2,3.846798E-2,9.457478E-2,-6.1321873E-2,1.0971136E-2],"split_indices":[9800,9423,8299,9467,1238,0,8143,8248,0,0,0,0,0,0,0],"split_type":[0,0,0,0,0,0,0,0,0,0,0,0,0,0,0],"sum_hessian":[1.0795109E5,6.908073E4,3.887037E4,6.615031E4,2.9304082E3,4.3689816E1,3.8826684E4,6.588419E4,2.6612793E2,2.9289138E3,1.49434E0,1.9646099E0,3.882472E4,6.5309953E4,5.7423236E2],"tree_param":{"num_deleted":"0","num_feature":"10000","num_nodes":"15","size_leaf_vector":"1"}},{"base_weights":[4.445957E-2,-4.630981E-2,2.2724898E0,3.7478095E-1,-2.5786383E-2],"categories":[],"categories_nodes":[],"categories_segments":[],"categories_sizes":[],"default_left":[1,0,1,0,0],"id":30,"left_children":[1,-1,3,-1,-1],"loss_changes":[1.8706617E1,0E0,1.2411338E1,0E0,0E0],"parents":[2147483647,0,0,2,2],"right_children":[2,-1,4,-1,-1],"split_conditions":[1.00999646E-1,-4.630981E-2,4.239105E-2,3.7478095E-1,-2.5786383E-2],"split_indices":[0,0,9491,0,0],"split_type":[0,0,0,0,0],"sum_hessian":[1.461142E1,1.25456085E1,2.0658104E0,1.001024E0,1.0647863E0],"tree_param":{"num_deleted":"0","num_feature":"10000","num_nodes":"5","size_leaf_vector":"1"}},{"base_weights":[-2.3925762E-1,-3.339718E-1,6.368317E-2,6.9862425E-1,-4.3563202E-1,7.8190917E-1,-9.937611E-2,-4.7638673E-1,9.398792E-1,1.8151699E-1,7.307592E-2,-4.951016E-2,1.6232549E-1,6.2033254E-1,8.4262915E-2],"categories":[],"categories_nodes":[],"categories_segments":[],"categories_sizes":[],"default_left":[1,0,0,1,1,0,0,1,0,0,0,0,0,0,0],"id":31,"left_children":[1,3,-1,5,7,9,-1,11,13,-1,-1,-1,-1,-1,-1],"loss_changes":[4.188058E2,4.7826233E2,0E0,5.8350494E1,2.3284662E2,1.9278595E1,0E0,1.5904297E2,5.6009033E1,0E0,0E0,0E0,0E0,0E0,0E0],"parents":[2147483647,0,0,1,1,3,3,4,4,5,5,7,7,8,8],"right_children":[2,4,-1,6,8,10,-1,12,14,-1,-1,-1,-1,-1,-1],"split_conditions":[-1E-5,3.6959562E-1,6.368317E-2,-1E-5,-1E-5,1.2575509E-1,-9.937611E-2,-1E-5,1.0659404E-1,1.8151699E-1,7.307592E-2,-4.951016E-2,1.6232549E-1,6.2033254E-1,8.4262915E-2],"split_indices":[7747,9381,0,7689,9466,2847,0,8754,7596,0,0,0,0,0,0],"split_type":[0,0,0,0,0,0,0,0,0,0,0,0,0,0,0],"sum_hessian":[5.043622E3,4.552111E3,4.9151093E2,4.0746667E2,4.1446445E3,3.8886786E2,1.8598812E1,4.0260122E3,1.1863213E2,1.6715603E1,3.7215225E2,3.9912014E3,3.4810764E1,1.0130967E0,1.1761903E2],"tree_param":{"num_deleted":"0","num_feature":"10000","num_nodes":"15","size_leaf_vector":"1"}},{"base_weights":[8.603777E-2,7.6944816E-1,-4.3663297E-2,1.768546E0,-3.611928E-2,3.2428372E-1,-2.8283237E-2],"categories":[],"categories_nodes":[],"categories_segments":[],"categories_sizes":[],"default_left":[1,1,0,1,0,0,0],"id":32,"left_children":[1,3,-1,5,-1,-1,-1],"loss_changes":[4.9072456E0,7.3126135E0,0E0,1.0915794E1,0E0,0E0,0E0],"parents":[2147483647,0,0,1,1,3,3],"right_children":[2,4,-1,6,-1,-1,-1],"split_conditions":[-1E-5,-1E-5,-4.3663297E-2,5.430207E-2,-3.611928E-2,3.2428372E-1,-2.8283237E-2],"split_indices":[9734,8332,0,0,0,0,0],"split_type":[0,0,0,0,0,0,0],"sum_hessian":[1.1797585E1,4.908024E0,6.8895607E0,2.306061E0,2.6019628E0,1.0038221E0,1.302239E0],"tree_param":{"num_deleted":"0","num_feature":"10000","num_nodes":"7","size_leaf_vector":"1"}},{"base_weights":[-3.9983416E-1,5.7758594E-1,-4.6489373E-1,5.2209073E-1,4.3164736E-1,-4.698594E-1,3.490231E-1,3.1085443E-1,1.4446018E0,-4.756045E-1,2.5821444E-1,-5.157427E-2,5.9448816E-2,2.825698E-1,6.1578866E-2,-4.8756216E-2,8.826148E-2],"categories":[],"categories_nodes":[],"categories_segments":[],"categories_sizes":[],"default_left":[0,1,1,1,0,1,0,1,1,1,0,0,0,0,0,0,0],"id":33,"left_children":[1,3,5,7,-1,9,-1,11,13,15,-1,-1,-1,-1,-1,-1,-1],"loss_changes":[1.4949908E2,2.822725E1,4.486389E1,2.7980515E1,0E0,3.978476E1,0E0,2.8436886E1,2.9060627E1,3.6090485E1,0E0,0E0,0E0,0E0,0E0,0E0,0E0],"parents":[2147483647,0,0,1,1,2,2,3,3,5,5,7,7,8,8,9,9],"right_children":[2,4,6,8,-1,10,-1,12,14,16,-1,-1,-1,-1,-1,-1,-1],"split_conditions":[2.2888282E-1,3.371064E-2,1.1623499E-1,1.869516E-2,4.3164736E-1,5.6435436E-1,3.490231E-1,8.999591E-2,3.133563E-2,7.346987E-2,2.5821444E-1,-5.157427E-2,5.9448816E-2,2.825698E-1,6.1578866E-2,-4.8756216E-2,8.826148E-2],"split_indices":[7802,7495,9989,8405,0,7819,0,8113,6029,8245,0,0,0,0,0,0,0],"split_type":[0,0,0,0,0,0,0,0,0,0,0,0,0,0,0,0,0],"sum_hessian":[2.3457412E3,1.4590253E2,2.1998386E3,1.4489159E2,1.0109441E0,2.1979604E3,1.8783362E0,1.18983696E2,2.5907888E1,2.1946733E3,3.2870922E0,3.0188028E1,8.879567E1,8.812992E0,1.7094896E1,2.1761555E3,1.8517654E1],"tree_param":{"num_deleted":"0","num_feature":"10000","num_nodes":"17","size_leaf_vector":"1"}},{"base_weights":[1.3850974E-1,-4.3065228E-2,1.1370795E0,2.590678E-1,-3.256294E-2],"categories":[],"categories_nodes":[],"categories_segments":[],"categories_sizes":[],"default_left":[1,0,1,0,0],"id":34,"left_children":[1,-1,3,-1,-1],"loss_changes":[6.2753754E0,0E0,9.285578E0,0E0,0E0],"parents":[2147483647,0,0,2,2],"right_children":[2,-1,4,-1,-1],"split_conditions":[3.9744124E-2,-4.3065228E-2,7.232306E-2,2.590678E-1,-3.256294E-2],"split_indices":[8299,0,7596,0,0],"split_type":[0,0,0,0,0],"sum_hessian":[9.179838E0,6.2093697E0,2.970468E0,1.103094E0,1.8673742E0],"tree_param":{"num_deleted":"0","num_feature":"10000","num_nodes":"5","size_leaf_vector":"1"}},{"base_weights":[2.2471244E-2,5.166531E-1,-8.5227484E-1,5.829797E-1,-8.2826567E-1,-6.182516E-1,-8.527571E-1,-2.8378597E-1,6.007038E-1,-8.398156E-1,6.1223913E-2,4.394457E-2,-6.5167594E-1,-8.527843E-2,-4.712544E-3,-8.258205E-2,-6.7337053E-3,6.0696065E-2,-5.7709236E-2,-8.4537186E-2,1.0155435E-2,-6.1089855E-2,-9.0359405E-2],"categories":[],"categories_nodes":[],"categories_segments":[],"categories_sizes":[],"default_left":[1,1,0,1,1,1,1,0,1,1,0,0,1,0,0,0,0,0,0,0,0,0,0],"id":35,"left_children":[1,3,5,7,9,11,13,15,17,19,-1,-1,21,-1,-1,-1,-1,-1,-1,-1,-1,-1,-1],"loss_changes":[4.5353383E4,5.9808164E3,3.7480469E0,9.817051E2,5.2943848E1,3.1685238E0,7.910156E-1,1.5023239E2,4.6174805E2,1.6439697E1,0E0,0E0,2.6395035E-1,0E0,0E0,0E0,0E0,0E0,0E0,0E0,0E0,0E0,0E0],"parents":[2147483647,0,0,1,1,2,2,3,3,4,4,5,5,6,6,7,7,8,8,9,9,12,12],"right_children":[2,4,6,8,10,12,14,16,18,20,-1,-1,22,-1,-1,-1,-1,-1,-1,-1,-1,-1,-1],"split_conditions":[-1E-5,-1E-5,3.7054364E-2,-1E-5,-1E-5,-1E-5,5.4865647E-2,2.68276E-1,-1E-5,9.120193E-2,6.1223913E-2,4.394457E-2,-1E-5,-8.527843E-2,-4.712544E-3,-8.258205E-2,-6.7337053E-3,6.0696065E-2,-5.7709236E-2,-8.4537186E-2,1.0155435E-2,-6.1089855E-2,-9.0359405E-2],"split_indices":[9800,9848,8299,8299,8332,7753,8319,9466,7747,8319,0,0,3133,0,0,0,0,0,0,0,0,0,0],"split_type":[0,0,0,0,0,0,0,0,0,0,0,0,0,0,0,0,0,0,0,0,0,0,0],"sum_hessian":[1.04913766E5,6.704024E4,3.7873523E4,6.3889984E4,3.1502559E3,8.052513E1,3.7793E4,1.2799788E3,6.2610004E4,3.1256118E3,2.4644108E1,2.0946143E0,7.843052E1,3.7791664E4,1.3342316E0,3.64465E2,9.155138E2,6.227964E4,3.303645E2,3.1073733E3,1.8238535E1,7.045165E1,7.9788685E0],"tree_param":{"num_deleted":"0","num_feature":"10000","num_nodes":"23","size_leaf_vector":"1"}},{"base_weights":[-3.8584047E-3,-5.2106655E-1,8.6849105E-1,-5.87378E-1,8.2122356E-1,8.70095E-1,-5.5279702E-2,-5.936228E-1,8.9523755E-2,8.530903E-1,-5.8435183E-2,8.701575E-1,-3.8250294E-2,-6.002119E-2,1.3789194E-2,8.691657E-2,-3.9432958E-2,-5.2966434E-3,8.7019004E-2],"categories":[],"categories_nodes":[],"categories_segments":[],"categories_sizes":[],"default_left":[1,1,1,1,1,1,0,1,0,1,0,0,0,0,0,0,0,0,0],"id":36,"left_children":[1,3,5,7,9,11,-1,13,-1,15,-1,17,-1,-1,-1,-1,-1,-1,-1],"loss_changes":[4.6077934E4,5.7071934E3,8.713672E1,5.6619727E2,1.3570667E2,3.3027344E0,0E0,2.9333594E2,0E0,5.9541016E1,0E0,1.1914062E0,0E0,0E0,0E0,0E0,0E0,0E0,0E0],"parents":[2147483647,0,0,1,1,2,2,3,3,4,4,5,5,7,7,9,9,11,11],"right_children":[2,4,6,8,10,12,-1,14,-1,16,-1,18,-1,-1,-1,-1,-1,-1,-1],"split_conditions":[-1E-5,9.216392E-2,-1E-5,8.591087E-2,-1E-5,9.225645E-2,-5.5279702E-2,1.0381732E-1,8.9523755E-2,1.0872569E-1,-5.8435183E-2,2.7155447E-1,-3.8250294E-2,-6.002119E-2,1.3789194E-2,8.691657E-2,-3.9432958E-2,-5.2966434E-3,8.7019004E-2],"split_indices":[9800,9848,7752,9077,8752,8015,0,8248,0,7844,0,5624,0,0,0,0,0,0,0],"split_type":[0,0,0,0,0,0,0,0,0,0,0,0,0,0,0,0,0,0,0],"sum_hessian":[1.0212418E5,6.4112723E4,3.8011453E4,6.1095082E4,3.0176404E3,3.7968992E4,4.2460697E1,6.0839426E4,2.5565683E2,2.9511265E3,6.651392E1,3.7967406E4,1.5877403E0,6.0296484E4,5.429426E2,2.9138787E3,3.7247704E1,1.2828901E0,3.796612E4],"tree_param":{"num_deleted":"0","num_feature":"10000","num_nodes":"19","size_leaf_vector":"1"}},{"base_weights":[-2.9684817E-3,-3.8140815E-1,1.38855E0,2.2888424E-2,-4.56867E-2,2.7192256E-1,-2.9363686E-2],"categories":[],"categories_nodes":[],"categories_segments":[],"categories_sizes":[],"default_left":[1,0,1,0,0,0,0],"id":37,"left_children":[1,3,5,-1,-1,-1,-1],"loss_changes":[8.475633E0,6.870067E-1,8.502611E0,0E0,0E0,0E0,0E0],"parents":[2147483647,0,0,1,1,2,2],"right_children":[2,4,6,-1,-1,-1,-1],"split_conditions":[1.00999646E-1,1.6910939E-1,-1E-5,2.2888424E-2,-4.56867E-2,2.7192256E-1,-2.9363686E-2],"split_indices":[0,5669,9734,0,0,0,0],"split_type":[0,0,0,0,0,0,0],"sum_hessian":[1.4089137E1,1.1647397E1,2.4417403E0,1.057925E0,1.0589472E1,1.0191057E0,1.4226346E0],"tree_param":{"num_deleted":"0","num_feature":"10000","num_nodes":"7","size_leaf_vector":"1"}},{"base_weights":[-2.3480158E-1,6.705473E-2,-5.0504315E-1,4.5033696E-1,-5.0232064E-2,1.20151855E-1,-5.062541E-1,6.5393203E-1,-2.6302975E-1,-5.034691E-2,-8.707436E-1,6.382405E-2,5.6210625E-1,-4.7681537E-2,6.57441E-2,-3.5033893E-2,-9.2608474E-2],"categories":[],"categories_nodes":[],"categories_segments":[],"categories_sizes":[],"default_left":[1,1,0,1,0,0,1,1,1,0,1,0,0,0,0,0,0],"id":38,"left_children":[1,3,5,7,-1,-1,9,11,13,-1,15,-1,-1,-1,-1,-1,-1],"loss_changes":[3.8349545E2,4.8500244E2,5.734009E0,1.930747E2,0E0,0E0,2.0783691E0,7.697064E1,5.848516E1,0E0,1.775217E-1,0E0,0E0,0E0,0E0,0E0,0E0],"parents":[2147483647,0,0,1,1,2,2,3,3,6,6,7,7,8,8,10,10],"right_children":[2,4,6,8,-1,-1,10,12,14,-1,16,-1,-1,-1,-1,-1,-1],"split_conditions":[-1E-5,-1E-5,2.90182E-1,5.131666E-2,-5.0232064E-2,1.20151855E-1,8.860874E-2,1.1713308E-1,7.509308E-2,-5.034691E-2,4.574737E-2,6.382405E-2,5.6210625E-1,-4.7681537E-2,6.57441E-2,-3.5033893E-2,-9.2608474E-2],"split_indices":[9734,8306,1623,0,0,0,9864,7490,7737,0,69,0,0,0,0,0,0],"split_type":[0,0,0,0,0,0,0,0,0,0,0,0,0,0,0,0,0],"sum_hessian":[4.699775E3,2.2203853E3,2.4793894E3,1.3271838E3,8.932015E2,1.055213E0,2.4783342E3,1.032571E3,2.9461273E2,2.4619048E3,1.6429436E1,1.0304443E3,2.126747E0,2.3947502E2,5.513772E1,2.283827E0,1.4145609E1],"tree_param":{"num_deleted":"0","num_feature":"10000","num_nodes":"17","size_leaf_vector":"1"}},{"base_weights":[2.205422E-2,5.796397E-1,-4.3271348E-2,1.3238298E0,-3.5535716E-2,2.1367092E-1,-2.6176402E-2],"categories":[],"categories_nodes":[],"categories_segments":[],"categories_sizes":[],"default_left":[1,1,0,1,0,0,0],"id":39,"left_children":[1,3,-1,5,-1,-1,-1],"loss_changes":[3.4079278E0,4.659555E0,0E0,5.152817E0,0E0,0E0,0E0],"parents":[2147483647,0,0,1,1,3,3],"right_children":[2,4,-1,6,-1,-1,-1],"split_conditions":[-1E-5,-1E-5,-4.3271348E-2,-1E-5,-3.5535716E-2,2.1367092E-1,-2.6176402E-2],"split_indices":[9734,9674,0,8332,0,0,0],"split_type":[0,0,0,0,0,0,0],"sum_hessian":[1.1450554E1,5.0204515E0,6.430102E0,2.5639036E0,2.456548E0,1.4651797E0,1.0987239E0],"tree_param":{"num_deleted":"0","num_feature":"10000","num_nodes":"7","size_leaf_vector":"1"}},{"base_weights":[-4.0259203E-1,5.5188453E-1,-4.653715E-1,4.9326265E-1,4.0885693E-1,-4.7375482E-1,2.0493186E0,-6.4019763E-1,6.256461E-1,-4.8708937E-1,4.9063295E-2,6.278197E-2,2.2184597E-1,-4.4574615E-2,-9.9954784E-2,7.1701065E-2,-7.5567864E-2,-4.9366023E-2,1.3839582E-1],"categories":[],"categories_nodes":[],"categories_segments":[],"categories_sizes":[],"default_left":[0,1,1,0,0,1,0,1,1,1,0,0,0,0,0,0,0,0,0],"id":40,"left_children":[1,3,5,7,-1,9,11,13,15,17,-1,-1,-1,-1,-1,-1,-1,-1,-1],"loss_changes":[1.3121909E2,2.604261E1,4.4213776E1,2.054778E1,0E0,2.6539917E1,2.910385E-1,5.701933E-1,1.577877E1,2.549118E1,0E0,0E0,0E0,0E0,0E0,0E0,0E0,0E0,0E0],"parents":[2147483647,0,0,1,1,2,2,3,3,5,5,6,6,7,7,8,8,9,9],"right_children":[2,4,6,8,-1,10,12,14,16,18,-1,-1,-1,-1,-1,-1,-1,-1,-1],"split_conditions":[2.2888282E-1,-1E-5,1.1866438E-1,7.626765E-2,4.0885693E-1,-1E-5,1.8684825E-1,-1E-5,-1E-5,5.184942E-2,4.9063295E-2,6.278197E-2,2.2184597E-1,-4.4574615E-2,-9.9954784E-2,7.1701065E-2,-7.5567864E-2,-4.9366023E-2,1.3839582E-1],"split_indices":[7802,9884,7363,9877,0,8701,7363,9944,8341,8483,0,0,0,0,0,0,0,0,0],"split_type":[0,0,0,0,0,0,0,0,0,0,0,0,0,0,0,0,0,0,0],"sum_hessian":[2.1845635E3,1.3433842E2,2.050225E3,1.332689E2,1.0695132E0,2.0442218E3,6.0033107E0,1.3536259E1,1.1973265E2,2.0168301E3,2.7391726E1,1.1393954E0,4.8639154E0,1.0237156E1,3.299103E0,1.1275562E2,6.9770293E0,2.0105056E3,6.32445E0],"tree_param":{"num_deleted":"0","num_feature":"10000","num_nodes":"19","size_leaf_vector":"1"}},{"base_weights":[5.4415572E-2,-2.1953982E-1,1.2442964E-1,-4.3438166E-2,5.8947343E-2],"categories":[],"categories_nodes":[],"categories_segments":[],"categories_sizes":[],"default_left":[1,1,0,0,0],"id":41,"left_children":[1,3,-1,-1,-1],"loss_changes":[3.5069096E0,1.8053434E0,0E0,0E0,0E0],"parents":[2147483647,0,0,1,1],"right_children":[2,4,-1,-1,-1],"split_conditions":[3.20407E-2,5.5528693E-2,1.2442964E-1,-4.3438166E-2,5.8947343E-2],"split_indices":[8443,8129,0,0,0],"split_type":[0,0,0,0,0],"sum_hessian":[8.920221E0,7.9136868E0,1.0065345E0,6.619012E0,1.2946746E0],"tree_param":{"num_deleted":"0","num_feature":"10000","num_nodes":"5","size_leaf_vector":"1"}},{"base_weights":[2.2019144E-2,5.0379443E-1,-7.973245E-1,5.7007855E-1,-7.7773726E-1,-5.719519E-1,-7.9760766E-1,-2.6689053E-1,5.8818257E-1,5.5400616E-1,-7.860494E-1,-5.957981E-2,1.8718526E-2,-5.7314325E-2,-7.977127E-2,-3.1213087E-3,-7.485288E-2,5.9449643E-2,-5.7449725E-2,-4.9704197E-3,5.994011E-2,-4.9008494E-3,-7.910955E-2],"categories":[],"categories_nodes":[],"categories_segments":[],"categories_sizes":[],"default_left":[1,1,0,1,0,0,0,1,1,0,0,0,0,0,0,0,0,0,0,0,0,0,0],"id":42,"left_children":[1,3,5,7,9,11,13,15,17,19,21,-1,-1,-1,-1,-1,-1,-1,-1,-1,-1,-1,-1],"loss_changes":[3.8916098E4,5.274037E3,1.8730469E0,8.946035E2,3.4237305E1,1.0046978E0,4.0429688E-1,1.4192154E2,4.245039E2,5.6494665E-1,1.1249023E1,0E0,0E0,0E0,0E0,0E0,0E0,0E0,0E0,0E0,0E0,0E0,0E0],"parents":[2147483647,0,0,1,1,2,2,3,3,4,4,5,5,6,6,7,7,8,8,9,9,10,10],"right_children":[2,4,6,8,10,12,14,16,18,20,22,-1,-1,-1,-1,-1,-1,-1,-1,-1,-1,-1,-1],"split_conditions":[-1E-5,-1E-5,2.816786E-2,-1E-5,5.463163E-2,1.8382734E-1,1.0449456E-1,-1E-5,-1E-5,4.5085832E-2,4.5358425E-1,-5.957981E-2,1.8718526E-2,-5.7314325E-2,-7.977127E-2,-3.1213087E-3,-7.485288E-2,5.9449643E-2,-5.7449725E-2,-4.9704197E-3,5.994011E-2,-4.9008494E-3,-7.910955E-2],"split_indices":[9800,9848,8299,8299,9734,7064,8156,7802,7588,0,8248,0,0,0,0,0,0,0,0,0,0,0,0],"split_type":[0,0,0,0,0,0,0,0,0,0,0,0,0,0,0,0,0,0,0,0,0,0,0],"sum_hessian":[9.8584766E4,6.2081273E4,3.6503496E4,5.902871E4,3.0525635E3,4.83398E1,3.6455156E4,1.249492E3,5.777922E4,1.852729E1,3.0340361E3,4.7076202E1,1.2636018E0,1.9613216E1,3.6435543E4,8.396804E2,4.0981152E2,5.7467633E4,3.1158545E2,1.2890624E0,1.7238228E1,2.0703886E1,3.0133323E3],"tree_param":{"num_deleted":"0","num_feature":"10000","num_nodes":"23","size_leaf_vector":"1"}},{"base_weights":[-4.395469E-3,-5.0928175E-1,8.1053483E-1,-5.76379E-1,7.858237E-1,-5.480019E-2,8.1191933E-1,9.537527E-2,-5.89962E-1,8.06013E-1,-5.8548104E-2,1.0583938E0,8.116664E-1,-1.0506975E-2,8.3239965E-2,-5.902868E-2,2.6870343E-1,7.99267E-2,2.3693846E-1,7.584613E-2,1.3193315E-1,3.3672184E-2,8.116879E-2],"categories":[],"categories_nodes":[],"categories_segments":[],"categories_sizes":[],"default_left":[1,1,0,1,1,0,0,1,1,1,0,1,0,0,0,0,0,0,0,0,0,0,0],"id":43,"left_children":[1,3,5,7,9,-1,11,13,15,17,-1,19,21,-1,-1,-1,-1,-1,-1,-1,-1,-1,-1],"loss_changes":[3.962573E4,5.1679414E3,6.974219E1,5.1593164E2,8.157739E1,0E0,1.4355469E0,1.6575613E2,6.0570312E1,2.8558594E1,0E0,1.6945686E0,1.015625E-1,0E0,0E0,0E0,0E0,0E0,0E0,0E0,0E0,0E0,0E0],"parents":[2147483647,0,0,1,1,2,2,3,3,4,4,6,6,7,7,8,8,9,9,11,11,12,12],"right_children":[2,4,6,8,10,-1,12,14,16,18,-1,20,22,-1,-1,-1,-1,-1,-1,-1,-1,-1,-1],"split_conditions":[-1E-5,8.439664E-2,3.3973582E-2,-1E-5,-1E-5,-5.480019E-2,2.30911E-1,-1E-5,-1E-5,-1E-5,-5.8548104E-2,3.7310526E-2,5.5528693E-2,-1.0506975E-2,8.3239965E-2,-5.902868E-2,2.6870343E-1,7.99267E-2,2.3693846E-1,7.584613E-2,1.3193315E-1,3.3672184E-2,8.116879E-2],"split_indices":[9800,9135,8299,8299,7737,0,9381,9077,8510,5974,0,7700,8129,0,0,0,0,0,0,0,0,0,0],"split_type":[0,0,0,0,0,0,0,0,0,0,0,0,0,0,0,0,0,0,0,0,0,0,0],"sum_hessian":[9.630619E4,5.946518E4,3.6841004E4,5.6536668E4,2.9285134E3,3.7105007E1,3.68039E4,1.1204069E3,5.541626E4,2.8864297E3,4.2083782E1,3.343782E1,3.677046E4,8.8152124E2,2.388857E2,5.541159E4,4.6720867E0,2.8755327E3,1.0896779E1,1.7374052E1,1.6063768E1,2.3762434E0,3.6768086E4],"tree_param":{"num_deleted":"0","num_feature":"10000","num_nodes":"23","size_leaf_vector":"1"}},{"base_weights":[1.5941997E-1,-3.7286633E-1,1.855527E0,2.3598338E-2,-4.5353916E-2,3.3595893E-1,-2.9223341E-2],"categories":[],"categories_nodes":[],"categories_segments":[],"categories_sizes":[],"default_left":[1,0,1,0,0,0,0],"id":44,"left_children":[1,3,5,-1,-1,-1,-1],"loss_changes":[1.3698044E1,6.8650615E-1,1.2638507E1,0E0,0E0,0E0,0E0],"parents":[2147483647,0,0,1,1,2,2],"right_children":[2,4,6,-1,-1,-1,-1],"split_conditions":[1.00999646E-1,1.6910939E-1,-1E-5,2.3598338E-2,-4.5353916E-2,3.3595893E-1,-2.9223341E-2],"split_indices":[0,5669,8299,0,0,0,0],"split_type":[0,0,0,0,0,0,0],"sum_hessian":[1.3406258E1,1.0797774E1,2.608483E0,1.0380752E0,9.7597E0,1.2022948E0,1.4061882E0],"tree_param":{"num_deleted":"0","num_feature":"10000","num_nodes":"7","size_leaf_vector":"1"}},{"base_weights":[-2.3504242E-1,6.2228773E-2,-5.0456196E-1,4.2835683E-1,-5.0201893E-2,6.847085E-2,-5.054346E-1,6.203991E-1,-2.799978E-1,-5.023691E-1,-8.871939E-2,6.0223844E-2,6.99037E-1,-4.8206042E-2,6.496001E-2,-5.028079E-2,2.328659E-2],"categories":[],"categories_nodes":[],"categories_segments":[],"categories_sizes":[],"default_left":[1,1,0,1,0,0,1,1,1,1,0,0,0,0,0,0,0],"id":45,"left_children":[1,3,5,7,-1,-1,9,11,13,15,-1,-1,-1,-1,-1,-1,-1],"loss_changes":[3.505799E2,4.3020776E2,2.7276611E0,1.719657E2,0E0,0E0,2.2386475E0,1.1075833E2,5.1036606E1,8.5198975E-1,0E0,0E0,0E0,0E0,0E0,0E0,0E0],"parents":[2147483647,0,0,1,1,2,2,3,3,6,6,7,7,8,8,9,9],"right_children":[2,4,6,8,-1,-1,10,12,14,16,-1,-1,-1,-1,-1,-1,-1],"split_conditions":[-1E-5,-1E-5,2.3049696E-1,5.2594934E-2,-5.0201893E-2,6.847085E-2,1.5896116E-1,-1E-5,7.908648E-2,1.9946134E-1,-8.871939E-2,6.0223844E-2,6.99037E-1,-4.8206042E-2,6.496001E-2,-5.028079E-2,2.328659E-2],"split_indices":[9734,8306,1623,0,0,0,9381,9927,7737,8248,0,0,0,0,0,0,0],"split_type":[0,0,0,0,0,0,0,0,0,0,0,0,0,0,0,0,0],"sum_hessian":[4.374272E3,2.0804133E3,2.2938586E3,1.2618604E3,8.185529E2,1.1073226E0,2.2927515E3,9.928206E2,2.6903976E2,2.276785E3,1.5966449E1,9.910896E2,1.7310385E0,2.213971E2,4.764269E1,2.2757427E3,1.0421515E0],"tree_param":{"num_deleted":"0","num_feature":"10000","num_nodes":"17","size_leaf_vector":"1"}},{"base_weights":[1.2247977E-1,7.354378E-1,-4.2834997E-2,-3.5023186E-2,1.509395E0,3.1559846E-1,-3.1350985E-2],"categories":[],"categories_nodes":[],"categories_segments":[],"categories_sizes":[],"default_left":[1,0,0,0,1,0,0],"id":46,"left_children":[1,3,-1,-1,5,-1,-1],"loss_changes":[4.382979E0,5.6295714E0,0E0,0E0,1.2192639E1,0E0,0E0],"parents":[2147483647,0,0,1,1,4,4],"right_children":[2,4,-1,-1,6,-1,-1],"split_conditions":[-1E-5,4.1174415E-2,-4.2834997E-2,-3.5023186E-2,4.7535375E-2,3.1559846E-1,-3.1350985E-2],"split_indices":[9734,8299,0,0,8299,0,0],"split_type":[0,0,0,0,0,0,0],"sum_hessian":[1.1048358E1,5.0706463E0,5.9777117E0,2.3382046E0,2.7324417E0,1.0514216E0,1.68102E0],"tree_param":{"num_deleted":"0","num_feature":"10000","num_nodes":"7","size_leaf_vector":"1"}},{"base_weights":[-3.957913E-1,5.488293E-1,-4.6247992E-1,4.8215184E-1,4.576547E-1,-4.6720704E-1,4.214222E-1,2.8408694E-1,1.2236682E0,-4.7612774E-1,1.6828694E0,4.5614373E-2,-6.353635E-2,1.6893506E-1,5.6611743E-2,-4.8932314E-2,4.8845135E-2,4.741283E-2,1.8754023E-1],"categories":[],"categories_nodes":[],"categories_segments":[],"categories_sizes":[],"default_left":[0,0,1,1,0,1,0,1,1,1,1,0,0,0,0,0,0,0,0],"id":47,"left_children":[1,3,5,7,-1,9,-1,11,13,15,17,-1,-1,-1,-1,-1,-1,-1,-1],"loss_changes":[1.2800507E2,3.383009E1,4.3856934E1,1.9203236E1,0E0,3.7123627E1,0E0,1.711559E1,7.5437546E0,2.425293E1,9.831257E-1,0E0,0E0,0E0,0E0,0E0,0E0,0E0,0E0],"parents":[2147483647,0,0,1,1,2,2,3,3,5,5,7,7,8,8,9,9,10,10],"right_children":[2,4,6,8,-1,10,-1,12,14,16,18,-1,-1,-1,-1,-1,-1,-1,-1],"split_conditions":[2.2888282E-1,1.9377173E-1,1.1931431E-1,1.869516E-2,4.576547E-1,1.1866438E-1,4.214222E-1,2.2631451E-2,-1E-5,-1E-5,-1E-5,4.5614373E-2,-6.353635E-2,1.6893506E-1,5.6611743E-2,-4.8932314E-2,4.8845135E-2,4.741283E-2,1.8754023E-1],"split_indices":[7802,7802,9989,8405,0,7363,0,9043,8043,8504,8992,0,0,0,0,0,0,0,0],"split_type":[0,0,0,0,0,0,0,0,0,0,0,0,0,0,0,0,0,0,0],"sum_hessian":[2.0269442E3,1.3318576E2,1.8937584E3,1.3211829E2,1.0674648E0,1.8927454E3,1.01305E0,1.05359146E2,2.6759148E1,1.8857001E3,7.045238E0,8.9175606E1,1.6183538E1,1.4746448E1,1.20127E1,1.860738E3,2.4962095E1,1.4437584E0,5.6014795E0],"tree_param":{"num_deleted":"0","num_feature":"10000","num_nodes":"19","size_leaf_vector":"1"}},{"base_weights":[7.47448E-2,7.678839E-1,-4.197676E-2,1.9586177E-1,-3.387608E-2],"categories":[],"categories_nodes":[],"categories_segments":[],"categories_sizes":[],"default_left":[1,1,0,0,0],"id":48,"left_children":[1,3,-1,-1,-1],"loss_changes":[3.6023765E0,6.3796506E0,0E0,0E0,0E0],"parents":[2147483647,0,0,1,1],"right_children":[2,4,-1,-1,-1],"split_conditions":[-1E-5,-1E-5,-4.197676E-2,1.9586177E-1,-3.387608E-2],"split_indices":[9734,8306,0,0,0],"split_type":[0,0,0,0,0],"sum_hessian":[8.569342E0,3.3379104E0,5.2314315E0,1.2370222E0,2.1008883E0],"tree_param":{"num_deleted":"0","num_feature":"10000","num_nodes":"5","size_leaf_vector":"1"}},{"base_weights":[2.2793464E-2,4.926746E-1,-7.537785E-1,5.590425E-1,-7.365345E-1,-5.8380406E-2,-7.539685E-1,-2.3767516E-1,5.776941E-1,-7.463478E-1,5.8049064E-2,-7.539915E-2,-2.036589E-2,-1.7662067E-3,-7.188407E-2,5.838406E-2,-5.675282E-2,-7.50645E-2,-1.133971E-2],"categories":[],"categories_nodes":[],"categories_segments":[],"categories_sizes":[],"default_left":[1,1,0,1,1,0,1,1,1,1,0,0,0,0,0,0,0,0,0],"id":49,"left_children":[1,3,5,7,9,-1,11,13,15,17,-1,-1,-1,-1,-1,-1,-1,-1,-1],"loss_changes":[3.369888E4,4.694325E3,6.816406E-1,8.1135547E2,3.8532837E1,0E0,2.890625E-1,1.3225974E2,3.7581445E2,7.874756E0,0E0,0E0,0E0,0E0,0E0,0E0,0E0,0E0,0E0],"parents":[2147483647,0,0,1,1,2,2,3,3,4,4,6,6,7,7,8,8,9,9],"right_children":[2,4,6,8,10,-1,12,14,16,18,-1,-1,-1,-1,-1,-1,-1,-1,-1],"split_conditions":[-1E-5,-1E-5,1.8559574E-1,-1E-5,-1E-5,-5.8380406E-2,9.538657E-2,-1E-5,-1E-5,1.962043E-1,5.8049064E-2,-7.539915E-2,-2.036589E-2,-1.7662067E-3,-7.188407E-2,5.838406E-2,-5.675282E-2,-7.50645E-2,-1.133971E-2],"split_indices":[9725,9848,7690,8299,8332,0,8319,7802,7588,8248,0,0,0,0,0,0,0,0,0],"split_type":[0,0,0,0,0,0,0,0,0,0,0,0,0,0,0,0,0,0,0],"sum_hessian":[9.234985E4,5.753653E4,3.4813316E4,5.4589652E4,2.9468792E3,4.2290646E1,3.4771027E4,1.2484712E3,5.3341184E4,2.925514E3,2.136504E1,3.47692E4,1.8290486E0,8.574422E2,3.9102896E2,5.305691E4,2.8427225E2,2.9056016E3,1.991242E1],"tree_param":{"num_deleted":"0","num_feature":"10000","num_nodes":"19","size_leaf_vector":"1"}},{"base_weights":[-4.3146415E-3,-4.983585E-1,7.6452684E-1,-5.649772E-1,7.676889E-1,7.65842E-1,-5.4784562E-2,7.433393E-2,-5.793343E-1,7.6832044E-1,-3.7355267E-2,7.6562844E-2,1.1340877E-1,-1.0965853E-2,7.880875E-2,-5.800234E-2,2.0462583E-1,7.688731E-2,9.831327E-3],"categories":[],"categories_nodes":[],"categories_segments":[],"categories_sizes":[],"default_left":[1,1,1,1,1,1,0,1,1,1,0,0,0,0,0,0,0,0,0],"id":50,"left_children":[1,3,5,7,9,11,-1,13,15,17,-1,-1,-1,-1,-1,-1,-1,-1,-1],"loss_changes":[3.4225094E4,4.6270312E3,6.1257812E1,4.7837305E2,2.2636719E0,1.9003906E0,0E0,1.5051912E2,9.340039E1,9.394531E-1,0E0,0E0,0E0,0E0,0E0,0E0,0E0,0E0,0E0],"parents":[2147483647,0,0,1,1,2,2,3,3,4,4,5,5,7,7,8,8,9,9],"right_children":[2,4,6,8,10,12,-1,14,16,18,-1,-1,-1,-1,-1,-1,-1,-1,-1],"split_conditions":[-1E-5,-1E-5,1.5479358E-1,-1E-5,-1E-5,1.5896116E-1,-5.4784562E-2,-1E-5,-1E-5,-1E-5,-3.7355267E-2,7.6562844E-2,1.1340877E-1,-1.0965853E-2,7.880875E-2,-5.800234E-2,2.0462583E-1,7.688731E-2,9.831327E-3],"split_indices":[9725,9268,8327,8299,8099,9381,0,9077,5974,5989,0,0,0,0,0,0,0,0,0],"split_type":[0,0,0,0,0,0,0,0,0,0,0,0,0,0,0,0,0,0,0],"sum_hessian":[9.010164E4,5.485387E4,3.524777E4,5.21123E4,2.7415684E3,3.52129E4,3.4872055E1,1.1444971E3,5.0967805E4,2.7403787E3,1.1898017E0,3.5195562E4,1.7334341E1,9.1060596E2,2.3389102E2,5.095521E4,1.259399E1,2.7379727E3,2.4059072E0],"tree_param":{"num_deleted":"0","num_feature":"10000","num_nodes":"19","size_leaf_vector":"1"}},{"base_weights":[1.05176285E-1,-4.5484766E-2,1.6391315E0,3.3603057E-1,-3.19633E-2],"categories":[],"categories_nodes":[],"categories_segments":[],"categories_sizes":[],"default_left":[1,0,1,0,0],"id":51,"left_children":[1,-1,3,-1,-1],"loss_changes":[1.2811013E1,0E0,1.4470236E1,0E0,0E0],"parents":[2147483647,0,0,2,2],"right_children":[2,-1,4,-1,-1],"split_conditions":[1.00999646E-1,-4.5484766E-2,-1E-5,3.3603057E-1,-3.19633E-2],"split_indices":[0,0,9734,0,0],"split_type":[0,0,0,0,0],"sum_hessian":[1.3045091E1,1.0071587E1,2.973504E0,1.2018825E0,1.7716216E0],"tree_param":{"num_deleted":"0","num_feature":"10000","num_nodes":"5","size_leaf_vector":"1"}},{"base_weights":[-2.3420526E-1,6.000086E-2,-5.0437117E-1,4.11221E-1,-5.0172895E-2,7.4379414E-2,-5.053185E-1,5.91036E-1,-2.7353832E-1,-5.0207734E-1,-8.334852E-2,5.7726074E-2,4.0258312E-1,-4.7025274E-2,6.3051894E-2,-5.0255425E-2,1.953013E-2],"categories":[],"categories_nodes":[],"categories_segments":[],"categories_sizes":[],"default_left":[1,1,0,1,0,0,1,1,1,1,0,0,0,0,0,0,0],"id":52,"left_children":[1,3,5,7,-1,-1,9,11,13,15,-1,-1,-1,-1,-1,-1,-1],"loss_changes":[3.2235086E2,3.83364E2,2.8756104E0,1.4736401E2,0E0,0E0,1.8291016E0,4.2492096E1,4.4636837E1,7.9486084E-1,0E0,0E0,0E0,0E0,0E0,0E0,0E0],"parents":[2147483647,0,0,1,1,2,2,3,3,6,6,7,7,8,8,9,9],"right_children":[2,4,6,8,-1,-1,10,12,14,16,-1,-1,-1,-1,-1,-1,-1],"split_conditions":[-1E-5,-1E-5,1.865106E-1,5.2594934E-2,-5.0172895E-2,7.4379414E-2,1.5896116E-1,-1E-5,7.908648E-2,7.346987E-2,-8.334852E-2,5.7726074E-2,4.0258312E-1,-4.7025274E-2,6.3051894E-2,-5.0255425E-2,1.953013E-2],"split_indices":[9734,8306,7441,0,0,0,9381,9927,7737,8245,0,0,0,0,0,0,0],"split_type":[0,0,0,0,0,0,0,0,0,0,0,0,0,0,0,0,0],"sum_hessian":[4.054139E3,1.9410961E3,2.1130427E3,1.1945037E3,7.465924E2,1.0078954E0,2.112035E3,9.46178E2,2.4832562E2,2.0938843E3,1.8150671E1,9.435619E2,2.6161058E0,2.0434245E2,4.3983166E1,2.0927324E3,1.1516896E0],"tree_param":{"num_deleted":"0","num_feature":"10000","num_nodes":"17","size_leaf_vector":"1"}},{"base_weights":[2.2538565E-1,8.765762E-1,-4.2358905E-2,1.6118773E0,-3.412708E-2,2.6541558E-1,-2.8542647E-2],"categories":[],"categories_nodes":[],"categories_segments":[],"categories_sizes":[],"default_left":[1,1,0,1,0,0,0],"id":53,"left_children":[1,3,-1,5,-1,-1,-1],"loss_changes":[5.3232765E0,6.079394E0,0E0,8.716711E0,0E0,0E0,0E0],"parents":[2147483647,0,0,1,1,3,3],"right_children":[2,4,-1,6,-1,-1,-1],"split_conditions":[-1E-5,-1E-5,-4.2358905E-2,-1E-5,-3.412708E-2,2.6541558E-1,-2.8542647E-2],"split_indices":[9734,9674,0,9848,0,0,0],"split_type":[0,0,0,0,0,0,0],"sum_hessian":[1.071769E1,5.1746564E0,5.543034E0,3.024814E0,2.1498425E0,1.6948459E0,1.329968E0],"tree_param":{"num_deleted":"0","num_feature":"10000","num_nodes":"7","size_leaf_vector":"1"}},{"base_weights":[-3.88518E-1,-4.608566E-1,5.157441E-1,-4.659882E-1,3.4271678E-1,6.796905E-1,-5.3901207E-2,-4.7397986E-1,1.7187761E-1,5.83412E-1,4.5192978E-1,-4.8759285E-2,4.8720643E-2,6.766348E-2,-7.7480495E-2],"categories":[],"categories_nodes":[],"categories_segments":[],"categories_sizes":[],"default_left":[1,1,1,1,0,0,0,1,0,1,0,0,0,0,0],"id":54,"left_children":[1,3,5,7,-1,9,-1,11,-1,13,-1,-1,-1,-1,-1],"loss_changes":[1.2315469E2,3.6321777E1,2.4516777E1,3.1177734E1,0E0,4.2209766E1,0E0,2.291925E1,0E0,1.5654308E1,0E0,0E0,0E0,0E0,0E0],"parents":[2147483647,0,0,1,1,2,2,3,3,5,5,7,7,9,9],"right_children":[2,4,6,8,-1,10,-1,12,-1,14,-1,-1,-1,-1,-1],"split_conditions":[-1E-5,1.1931431E-1,-1E-5,1.4394331E-1,3.4271678E-1,2.0504428E-1,-5.3901207E-2,-1E-5,1.7187761E-1,-1E-5,4.5192978E-1,-4.8759285E-2,4.8720643E-2,6.766348E-2,-7.7480495E-2],"split_indices":[7802,9989,7631,7430,0,7802,0,8504,0,8341,0,0,0,0,0],"split_type":[0,0,0,0,0,0,0,0,0,0,0,0,0,0,0],"sum_hessian":[1.8780903E3,1.7394308E3,1.3865952E2,1.738017E3,1.41377E0,1.2031406E2,1.8345467E1,1.7324629E3,5.5541415E0,1.18494736E2,1.8193214E0,1.708755E3,2.370783E1,1.1135366E2,7.141072E0],"tree_param":{"num_deleted":"0","num_feature":"10000","num_nodes":"15","size_leaf_vector":"1"}},{"base_weights":[9.3349874E-2,-4.2079497E-2,8.899315E-1,1.697915E-1,-2.9630885E-2],"categories":[],"categories_nodes":[],"categories_segments":[],"categories_sizes":[],"default_left":[1,0,1,0,0],"id":55,"left_children":[1,-1,3,-1,-1],"loss_changes":[4.170792E0,0E0,4.295748E0,0E0,0E0],"parents":[2147483647,0,0,2,2],"right_children":[2,-1,4,-1,-1],"split_conditions":[3.9744124E-2,-4.2079497E-2,-1E-5,1.697915E-1,-2.9630885E-2],"split_indices":[8299,0,8332,0,0],"split_type":[0,0,0,0,0],"sum_hessian":[8.269285E0,5.312281E0,2.9570045E0,1.5023605E0,1.454644E0],"tree_param":{"num_deleted":"0","num_feature":"10000","num_nodes":"5","size_leaf_vector":"1"}},{"base_weights":[2.1715678E-2,4.8371202E-1,-7.1825606E-1,5.4823095E-1,-7.129479E-1,-7.183138E-1,3.5770934E-2,-2.0886725E-1,5.661279E-1,7.070085E-2,-7.189141E-1,-5.3425017E-3,-7.183524E-1,-1.2089711E-3,-6.9273844E-2,5.721888E-2,-5.614541E-2,-7.2112314E-2,3.7657984E-2,-7.183821E-2,3.589533E-3],"categories":[],"categories_nodes":[],"categories_segments":[],"categories_sizes":[],"default_left":[1,1,1,1,0,0,0,1,1,0,1,0,1,0,0,0,0,0,0,0,0],"id":56,"left_children":[1,3,5,7,9,11,-1,13,15,-1,17,-1,19,-1,-1,-1,-1,-1,-1,-1,-1],"loss_changes":[2.940376E4,4.0885605E3,2.3125E0,6.808906E2,2.3460327E1,8.0859375E-1,0E0,1.10533905E2,3.357588E2,0E0,6.801758E0,0E0,7.65625E-1,0E0,0E0,0E0,0E0,0E0,0E0,0E0,0E0],"parents":[2147483647,0,0,1,1,2,2,3,3,4,4,5,5,7,7,8,8,10,10,12,12],"right_children":[2,4,6,8,10,12,-1,14,16,-1,18,-1,20,-1,-1,-1,-1,-1,-1,-1,-1],"split_conditions":[-1E-5,-1E-5,1.7530715E-1,-1E-5,1.1099683E-1,1.8315104E-1,3.5770934E-2,-1E-5,-1E-5,7.070085E-2,-1E-5,-5.3425017E-3,5.4865647E-2,-1.2089711E-3,-6.9273844E-2,5.721888E-2,-5.614541E-2,-7.2112314E-2,3.7657984E-2,-7.183821E-2,3.589533E-3],"split_indices":[9800,9135,9314,8299,8332,4907,0,7802,7588,0,8410,0,8319,0,0,0,0,0,0,0,0],"split_type":[0,0,0,0,0,0,0,0,0,0,0,0,0,0,0,0,0,0,0,0,0],"sum_hessian":[8.600802E4,5.294963E4,3.3058395E4,5.0241363E4,2.7082634E3,3.3056953E4,1.441688E0,1.1599758E3,4.9081387E4,1.0840012E1,2.6974236E3,1.9985731E0,3.3054957E4,8.2535205E2,3.3462375E2,4.881947E4,2.619176E2,2.6923362E3,5.087253E0,3.3053703E4,1.2538717E0],"tree_param":{"num_deleted":"0","num_feature":"10000","num_nodes":"21","size_leaf_vector":"1"}},{"base_weights":[-3.5970625E-3,-4.8937818E-1,7.27253E-1,-5.563254E-1,7.0439136E-1,-5.4085594E-2,7.284861E-1,6.788419E-2,-5.711789E-1,7.227444E-1,-5.7446033E-2,8.875462E-1,7.282984E-1,-9.76756E-3,7.488727E-2,-5.7151854E-2,2.4594918E-1,7.309914E-2,-5.0495572E-2,6.814855E-2,1.03696264E-1,7.283214E-2,3.2041505E-2],"categories":[],"categories_nodes":[],"categories_segments":[],"categories_sizes":[],"default_left":[1,1,0,1,1,0,0,1,1,1,0,1,1,0,0,0,0,0,0,0,0,0,0],"id":57,"left_children":[1,3,5,7,9,-1,11,13,15,17,-1,19,21,-1,-1,-1,-1,-1,-1,-1,-1,-1,-1],"loss_changes":[2.987177E4,4.0397646E3,5.292578E1,4.4378125E2,6.3420532E1,0E0,3.5546875E-1,1.2558955E2,4.9523438E1,2.7167969E1,0E0,3.7052155E-1,8.0078125E-2,0E0,0E0,0E0,0E0,0E0,0E0,0E0,0E0,0E0,0E0],"parents":[2147483647,0,0,1,1,2,2,3,3,4,4,6,6,7,7,8,8,9,9,11,11,12,12],"right_children":[2,4,6,8,10,-1,12,14,16,18,-1,20,22,-1,-1,-1,-1,-1,-1,-1,-1,-1,-1],"split_conditions":[-1E-5,8.439664E-2,3.7054364E-2,-1E-5,-1E-5,-5.4085594E-2,2.30911E-1,-1E-5,-1E-5,-1E-5,-5.7446033E-2,3.7310526E-2,-1E-5,-9.76756E-3,7.488727E-2,-5.7151854E-2,2.4594918E-1,7.309914E-2,-5.0495572E-2,6.814855E-2,1.03696264E-1,7.283214E-2,3.2041505E-2],"split_indices":[9800,9135,8299,8299,7737,0,9381,9467,8510,8113,0,7700,1508,0,0,0,0,0,0,0,0,0,0],"split_type":[0,0,0,0,0,0,0,0,0,0,0,0,0,0,0,0,0,0,0,0,0,0,0],"sum_hessian":[8.413596E4,5.0542035E4,3.3593926E4,4.7858633E4,2.6834006E3,3.2208992E1,3.356172E4,1.1122838E3,4.6746348E4,2.6458643E3,3.7536514E1,3.39865E1,3.352773E4,8.95443E2,2.1684074E2,4.674192E4,4.4266067E0,2.6286113E3,1.7252838E1,1.662286E1,1.7363642E1,3.352506E4,2.673458E0],"tree_param":{"num_deleted":"0","num_feature":"10000","num_nodes":"23","size_leaf_vector":"1"}},{"base_weights":[1.2666477E-1,-3.7927738E-1,3.0048418E-1,-4.562174E-2,2.4710776E-2],"categories":[],"categories_nodes":[],"categories_segments":[],"categories_sizes":[],"default_left":[1,1,0,0,0],"id":58,"left_children":[1,3,-1,-1,-1],"loss_changes":[2.089063E1,7.114774E-1,0E0,0E0,0E0],"parents":[2147483647,0,0,1,1],"right_children":[2,4,-1,-1,-1],"split_conditions":[1.4454842E-1,5.577762E-2,3.0048418E-1,-4.562174E-2,2.4710776E-2],"split_indices":[0,1235,0,0,0],"split_type":[0,0,0,0,0],"sum_hessian":[1.2563441E1,1.1423566E1,1.1398757E0,1.0415836E1,1.0077301E0],"tree_param":{"num_deleted":"0","num_feature":"10000","num_nodes":"5","size_leaf_vector":"1"}},{"base_weights":[-2.328437E-1,5.6554463E-2,-5.034905E-1,3.9047068E-1,-5.014507E-2,7.319302E-2,-5.045207E-1,5.6036866E-1,-2.6502725E-1,-5.0179094E-1,-7.794928E-2,5.99464E-2,-4.878546E-2,-4.680452E-2,6.172768E-2,2.315355E-2,-5.023098E-2],"categories":[],"categories_nodes":[],"categories_segments":[],"categories_sizes":[],"default_left":[1,1,0,1,0,0,1,1,1,0,0,0,0,0,0,0,0],"id":59,"left_children":[1,3,5,7,-1,-1,9,11,13,15,-1,-1,-1,-1,-1,-1,-1],"loss_changes":[2.94515E2,3.3891306E2,2.842163E0,1.2686917E2,0E0,0E0,1.0664673E0,3.7337463E1,4.2363846E1,8.4902954E-1,0E0,0E0,0E0,0E0,0E0,0E0,0E0],"parents":[2147483647,0,0,1,1,2,2,3,3,6,6,7,7,8,8,9,9],"right_children":[2,4,6,8,-1,-1,10,12,14,16,-1,-1,-1,-1,-1,-1,-1],"split_conditions":[-1E-5,-1E-5,2.3049696E-1,5.131666E-2,-5.014507E-2,7.319302E-2,1.5896116E-1,-1E-5,7.509308E-2,2.5014943E-1,-7.794928E-2,5.99464E-2,-4.878546E-2,-4.680452E-2,6.172768E-2,2.315355E-2,-5.023098E-2],"split_indices":[9734,8306,1623,0,0,0,9381,9284,7737,8248,0,0,0,0,0,0,0],"split_type":[0,0,0,0,0,0,0,0,0,0,0,0,0,0,0,0,0],"sum_hessian":[3.7588174E3,1.8168647E3,1.9419525E3,1.1368574E3,6.800073E2,1.0269147E0,1.9409257E3,9.0296405E2,2.3389339E2,1.9246437E3,1.6281912E1,8.7091E2,3.2054028E1,1.905235E2,4.336989E1,1.0460765E0,1.9235977E3],"tree_param":{"num_deleted":"0","num_feature":"10000","num_nodes":"17","size_leaf_vector":"1"}},{"base_weights":[-2.2843817E-2,6.08107E-1,-3.2281935E-1,1.749956E-1,-3.3665497E-2,2.0665182E-2,-4.319176E-2],"categories":[],"categories_nodes":[],"categories_segments":[],"categories_sizes":[],"default_left":[1,1,0,0,0,0,0],"id":60,"left_children":[1,3,5,-1,-1,-1,-1],"loss_changes":[2.3778853E0,4.969957E0,5.7825255E-1,0E0,0E0,0E0,0E0],"parents":[2147483647,0,0,1,1,2,2],"right_children":[2,4,6,-1,-1,-1,-1],"split_conditions":[-1E-5,2.461791E-2,1.4009348E-1,1.749956E-1,-3.3665497E-2,2.0665182E-2,-4.319176E-2],"split_indices":[8299,9725,744,0,0,0,0],"split_type":[0,0,0,0,0,0,0],"sum_hessian":[1.05262785E1,3.0609238E0,7.4653544E0,1.0000188E0,2.060905E0,1.1226711E0,6.3426833E0],"tree_param":{"num_deleted":"0","num_feature":"10000","num_nodes":"7","size_leaf_vector":"1"}},{"base_weights":[-3.870008E-1,-4.581374E-1,4.9004304E-1,-4.6823835E-1,1.4086016E-1,4.2336255E-1,3.871332E-1,-4.767318E-1,1.3522093E0,5.9094095E-1,-4.9684903E-1,-4.817103E-2,2.4895029E-1,2.508602E-1,-1.0455004E-1,6.5043546E-2,-1.1682256E-1,-6.0406353E-2,7.87959E-2],"categories":[],"categories_nodes":[],"categories_segments":[],"categories_sizes":[],"default_left":[1,1,1,1,0,1,0,1,1,1,1,0,0,0,0,0,0,0,0],"id":61,"left_children":[1,3,5,7,-1,9,-1,11,13,15,17,-1,-1,-1,-1,-1,-1,-1,-1],"loss_changes":[1.0860657E2,3.0967743E1,2.7854992E1,2.5375275E1,0E0,2.0249052E1,0E0,2.4720215E1,2.394033E1,1.2264954E1,3.2969346E0,0E0,0E0,0E0,0E0,0E0,0E0,0E0,0E0],"parents":[2147483647,0,0,1,1,2,2,3,3,5,5,7,7,8,8,9,9,10,10],"right_children":[2,4,6,8,-1,10,-1,12,14,16,18,-1,-1,-1,-1,-1,-1,-1,-1],"split_conditions":[-1E-5,1.1866438E-1,4.0502734E-2,5.184942E-2,1.4086016E-1,2.687756E-2,3.871332E-1,1.1931431E-1,-1E-5,-1E-5,2.2224527E-2,-4.817103E-2,2.4895029E-1,2.508602E-1,-1.0455004E-1,6.5043546E-2,-1.1682256E-1,-6.0406353E-2,7.87959E-2],"split_indices":[7802,7363,7495,8483,0,9043,0,9989,6029,3262,7733,0,0,0,0,0,0,0,0],"split_type":[0,0,0,0,0,0,0,0,0,0,0,0,0,0,0,0,0,0,0],"sum_hessian":[1.7361733E3,1.60636E3,1.298134E2,1.5984598E3,7.9001417E0,1.2840637E2,1.4070222E0,1.5917714E3,6.688402E0,1.0892755E2,1.9478817E1,1.5899404E3,1.830926E0,4.4810057E0,2.2073963E0,1.0597381E2,2.9537427E0,1.8467579E1,1.0112386E0],"tree_param":{"num_deleted":"0","num_feature":"10000","num_nodes":"19","size_leaf_vector":"1"}},{"base_weights":[1.10967524E-1,-1.7754959E-1,1.0562024E-1,-4.2195514E-2,5.652043E-2],"categories":[],"categories_nodes":[],"categories_segments":[],"categories_sizes":[],"default_left":[1,1,0,0,0],"id":62,"left_children":[1,3,-1,-1,-1],"loss_changes":[2.642521E0,1.6459063E0,0E0,0E0,0E0],"parents":[2147483647,0,0,1,1],"right_children":[2,4,-1,-1,-1],"split_conditions":[3.1325914E-2,5.5528693E-2,1.0562024E-1,-4.2195514E-2,5.652043E-2],"split_indices":[8443,8129,0,0,0],"split_type":[0,0,0,0,0],"sum_hessian":[8.001997E0,6.752939E0,1.2490579E0,5.4059863E0,1.3469528E0],"tree_param":{"num_deleted":"0","num_feature":"10000","num_nodes":"5","size_leaf_vector":"1"}},{"base_weights":[2.1543428E-2,4.746811E-1,-6.8917567E-1,5.390786E-1,-6.850332E-1,3.4485664E-2,-6.8923205E-1,-1.9795772E-1,5.5790365E-1,-6.910914E-1,6.5440126E-2,4.992014E-3,-6.8926346E-1,-6.8846725E-2,-4.1847583E-3,5.637116E-2,-5.5350836E-2,-6.860795E-2,-1.2185019E-1,-5.8330424E-2,-6.894362E-2],"categories":[],"categories_nodes":[],"categories_segments":[],"categories_sizes":[],"default_left":[1,1,0,1,1,0,0,0,1,1,0,0,0,0,0,0,0,0,0,0,0],"id":63,"left_children":[1,3,5,7,9,-1,11,13,15,17,-1,-1,19,-1,-1,-1,-1,-1,-1,-1,-1],"loss_changes":[2.5765225E4,3.6489512E3,2.053711E0,6.423008E2,2.131128E1,0E0,7.5878906E-1,8.8297424E1,2.9164258E2,5.9296875E0,0E0,0E0,1.6796875E-1,0E0,0E0,0E0,0E0,0E0,0E0,0E0,0E0],"parents":[2147483647,0,0,1,1,2,2,3,3,4,4,6,6,7,7,8,8,9,9,12,12],"right_children":[2,4,6,8,10,-1,12,14,16,18,-1,-1,20,-1,-1,-1,-1,-1,-1,-1,-1],"split_conditions":[-1E-5,-1E-5,4.6232782E-2,-1E-5,-1E-5,3.4485664E-2,1.14365265E-1,2.499497E-1,-1E-5,2.584055E-1,6.5440126E-2,4.992014E-3,4.491199E-2,-6.8846725E-2,-4.1847583E-3,5.637116E-2,-5.5350836E-2,-6.860795E-2,-1.2185019E-1,-5.8330424E-2,-6.894362E-2],"split_indices":[9800,9135,8315,8299,8306,0,8636,9466,7588,7845,0,0,8129,0,0,0,0,0,0,0,0],"split_type":[0,0,0,0,0,0,0,0,0,0,0,0,0,0,0,0,0,0,0,0,0],"sum_hessian":[8.00009E4,4.8853434E4,3.114746E4,4.6283883E4,2.5695525E3,1.3651863E0,3.1146096E4,1.1524828E3,4.51314E4,2.5584646E3,1.1087798E1,1.2576475E0,3.1144838E4,2.7741486E2,8.75068E2,4.489727E4,2.3412788E2,2.5366594E3,2.18051E1,5.6183113E1,3.1088656E4],"tree_param":{"num_deleted":"0","num_feature":"10000","num_nodes":"21","size_leaf_vector":"1"}},{"base_weights":[-5.288842E-3,-4.8180744E-1,6.9653505E-1,-5.464118E-1,7.0015615E-1,-5.44926E-2,6.9785255E-1,4.854036E-2,-5.6205785E-1,6.983791E-2,1.0863614E-1,8.237958E-1,6.977064E-2,-8.707249E-3,7.415996E-2,-5.633844E-2,5.329665E-2,6.48764E-2,9.3814425E-2],"categories":[],"categories_nodes":[],"categories_segments":[],"categories_sizes":[],"default_left":[1,1,0,1,1,0,0,1,1,0,0,1,0,0,0,0,0,0,0],"id":64,"left_children":[1,3,5,7,9,-1,11,13,15,-1,-1,17,-1,-1,-1,-1,-1,-1,-1],"loss_changes":[2.607947E4,3.5469893E3,5.1960938E1,4.099756E2,8.935547E-1,0E0,5.859375E-3,1.0621367E2,6.2632812E1,0E0,0E0,1.15242E-2,0E0,0E0,0E0,0E0,0E0,0E0,0E0],"parents":[2147483647,0,0,1,1,2,2,3,3,4,4,6,6,7,7,8,8,11,11],"right_children":[2,4,6,8,10,-1,12,14,16,-1,-1,18,-1,-1,-1,-1,-1,-1,-1],"split_conditions":[-1E-5,5.9641227E-2,3.7054364E-2,-1E-5,-1E-5,-5.44926E-2,2.30911E-1,-1E-5,2.0796788E-1,6.983791E-2,1.0863614E-1,3.7310526E-2,6.977064E-2,-8.707249E-3,7.415996E-2,-5.633844E-2,5.329665E-2,6.48764E-2,9.3814425E-2],"split_indices":[9800,9423,8299,8299,7481,0,9381,8770,8307,0,0,7700,0,0,0,0,0,0,0],"split_type":[0,0,0,0,0,0,0,0,0,0,0,0,0,0,0,0,0,0,0],"sum_hessian":[7.797934E4,4.644489E4,3.1534455E4,4.403836E4,2.4065325E3,3.2992607E1,3.1501463E4,1.1283932E3,4.2909965E4,2.3983057E3,8.226861E0,2.9985296E1,3.1471477E4,9.4446204E2,1.8393118E2,4.285853E4,5.1435112E1,1.4485736E1,1.549956E1],"tree_param":{"num_deleted":"0","num_feature":"10000","num_nodes":"19","size_leaf_vector":"1"}},{"base_weights":[3.057109E-1,-3.7021264E-1,3.337532E-1,-4.5227002E-2,2.1988928E-2],"categories":[],"categories_nodes":[],"categories_segments":[],"categories_sizes":[],"default_left":[1,1,0,0,0],"id":65,"left_children":[1,3,-1,-1,-1],"loss_changes":[2.7941002E1,6.590204E-1,0E0,0E0,0E0],"parents":[2147483647,0,0,1,1],"right_children":[2,4,-1,-1,-1],"split_conditions":[1.4454842E-1,7.458152E-2,3.337532E-1,-4.5227002E-2,2.1988928E-2],"split_indices":[0,8299,0,0,0],"split_type":[0,0,0,0,0],"sum_hessian":[1.2031609E1,1.0556092E1,1.4755167E0,9.472461E0,1.0836313E0],"tree_param":{"num_deleted":"0","num_feature":"10000","num_nodes":"5","size_leaf_vector":"1"}},{"base_weights":[-2.293308E-1,5.7716254E-2,-5.0295377E-1,3.7927073E-1,-5.0118502E-2,-5.040764E-1,7.443621E-2,4.7774374E-1,-4.9863286E-2,-5.0463855E-1,2.0344162E-2,5.8164775E-2,-5.0044145E-2,-5.0207615E-2,-7.3826134E-2],"categories":[],"categories_nodes":[],"categories_segments":[],"categories_sizes":[],"default_left":[1,1,1,1,0,1,0,1,0,1,0,0,0,0,0],"id":66,"left_children":[1,3,5,7,-1,9,-1,11,-1,13,-1,-1,-1,-1,-1],"loss_changes":[2.7348083E2,3.057098E2,2.871399E0,9.357872E1,0E0,8.1121826E-1,0E0,9.9013885E1,0E0,6.951904E-1,0E0,0E0,0E0,0E0,0E0],"parents":[2147483647,0,0,1,1,2,2,3,3,5,5,7,7,9,9],"right_children":[2,4,6,8,-1,10,-1,12,-1,14,-1,-1,-1,-1,-1],"split_conditions":[-1E-5,-1E-5,1.0536016E-1,-1E-5,-5.0118502E-2,1.9946134E-1,7.443621E-2,-1E-5,-4.9863286E-2,1.5896116E-1,2.0344162E-2,5.8164775E-2,-5.0044145E-2,-5.0207615E-2,-7.3826134E-2],"split_indices":[9734,8306,7490,8308,0,8248,0,7053,0,9381,0,0,0,0,0],"split_type":[0,0,0,0,0,0,0,0,0,0,0,0,0,0,0],"sum_hessian":[3.4805703E3,1.6990027E3,1.7815676E3,1.0787076E3,6.20295E2,1.7805608E3,1.0067601E0,9.7032385E2,1.0838381E2,1.7794338E3,1.1270149E0,8.775182E2,9.280567E1,1.7632435E3,1.6190313E1],"tree_param":{"num_deleted":"0","num_feature":"10000","num_nodes":"15","size_leaf_vector":"1"}},{"base_weights":[2.7118236E-1,8.740459E-1,-4.1432742E-2,1.576953E0,-3.3837736E-2,2.7899602E-1,-3.0072192E-2],"categories":[],"categories_nodes":[],"categories_segments":[],"categories_sizes":[],"default_left":[1,1,0,1,0,0,0],"id":67,"left_children":[1,3,-1,5,-1,-1,-1],"loss_changes":[4.9171166E0,5.8054557E0,0E0,1.0160158E1,0E0,0E0,0E0],"parents":[2147483647,0,0,1,1,3,3],"right_children":[2,4,-1,6,-1,-1,-1],"split_conditions":[-1E-5,-1E-5,-4.1432742E-2,-1E-5,-3.3837736E-2,2.7899602E-1,-3.0072192E-2],"split_indices":[9734,8332,0,0,0,0,0],"split_type":[0,0,0,0,0,0,0],"sum_hessian":[1.0021821E1,5.1860127E0,4.8358083E0,3.0924757E0,2.093537E0,1.5835918E0,1.5088838E0],"tree_param":{"num_deleted":"0","num_feature":"10000","num_nodes":"7","size_leaf_vector":"1"}},{"base_weights":[-3.823435E-1,-4.4707683E-1,4.2146808E-1,-4.5376447E-1,4.508306E-1,5.816163E-1,-5.4751206E-2,-4.7178745E-1,7.438865E-1,6.793267E-1,-7.160966E-1,-4.8790455E-2,4.871544E-2,1.19213395E-1,-8.08792E-2,6.0275447E-2,2.4114485E-1,-3.9227437E-2,-8.6701825E-2],"categories":[],"categories_nodes":[],"categories_segments":[],"categories_sizes":[],"default_left":[1,1,1,1,0,1,0,1,1,0,1,0,0,0,0,0,0,0,0],"id":68,"left_children":[1,3,5,7,-1,9,-1,11,13,15,17,-1,-1,-1,-1,-1,-1,-1,-1],"loss_changes":[8.368527E1,5.12771E1,1.8957577E1,3.2393616E1,0E0,1.3618076E1,0E0,2.2850037E1,1.6551542E1,1.1388382E1,3.8081408E-2,0E0,0E0,0E0,0E0,0E0,0E0,0E0,0E0],"parents":[2147483647,0,0,1,1,2,2,3,3,5,5,7,7,8,8,9,9,10,10],"right_children":[2,4,6,8,-1,10,-1,12,14,16,18,-1,-1,-1,-1,-1,-1,-1,-1],"split_conditions":[-1E-5,1.4978407E-1,-1E-5,-1E-5,4.508306E-1,-1E-5,-5.4751206E-2,-1E-5,-1E-5,2.0504428E-1,2.1467375E-2,-4.8790455E-2,4.871544E-2,1.19213395E-1,-8.08792E-2,6.0275447E-2,2.4114485E-1,-3.9227437E-2,-8.6701825E-2],"split_indices":[7802,7561,7631,7363,0,8341,0,8701,8341,7802,7819,0,0,0,0,0,0,0,0],"split_type":[0,0,0,0,0,0,0,0,0,0,0,0,0,0,0,0,0,0,0],"sum_hessian":[1.6036782E3,1.4845656E3,1.1911266E2,1.4834719E3,1.0936201E0,1.0256156E2,1.65511E1,1.4620758E3,2.139613E1,9.582314E1,6.73842E0,1.4383917E3,2.368409E1,1.6783157E1,4.612973E0,9.305732E1,2.7658186E0,3.2863398E0,3.4520802E0],"tree_param":{"num_deleted":"0","num_feature":"10000","num_nodes":"19","size_leaf_vector":"1"}},{"base_weights":[1.6843623E-2,-4.1292317E-2,6.3496405E-1,1.4504357E-1,-3.1187061E-2],"categories":[],"categories_nodes":[],"categories_segments":[],"categories_sizes":[],"default_left":[1,0,1,0,0],"id":69,"left_children":[1,-1,3,-1,-1],"loss_changes":[2.5750694E0,0E0,3.5136745E0,0E0,0E0],"parents":[2147483647,0,0,2,2],"right_children":[2,-1,4,-1,-1],"split_conditions":[3.9744124E-2,-4.1292317E-2,6.522382E-2,1.4504357E-1,-3.1187061E-2],"split_indices":[8299,0,7596,0,0],"split_type":[0,0,0,0,0],"sum_hessian":[7.706564E0,4.7417145E0,2.9648495E0,1.3071629E0,1.6576866E0],"tree_param":{"num_deleted":"0","num_feature":"10000","num_nodes":"5","size_leaf_vector":"1"}},{"base_weights":[2.1211153E-2,4.667101E-1,-6.6498077E-1,-6.552856E-1,5.313341E-1,-6.6501087E-1,-1.3416208E-2,-6.648022E-1,5.6470115E-2,-2.0051864E-1,5.523162E-1,-5.535641E-2,-6.65128E-2,-6.666563E-2,-1.5431533E-2,-2.49494E-3,-6.439887E-2,5.5830836E-2,-5.5408485E-2],"categories":[],"categories_nodes":[],"categories_segments":[],"categories_sizes":[],"default_left":[1,0,1,1,1,0,0,1,0,1,1,0,0,0,0,0,0,0,0],"id":70,"left_children":[1,3,5,7,9,11,-1,13,-1,15,17,-1,-1,-1,-1,-1,-1,-1,-1],"loss_changes":[2.2630066E4,3.2549346E3,3.7597656E-1,2.8761475E1,6.5184375E2,1.26953125E-2,0E0,2.1937256E0,0E0,9.2140884E1,2.738506E2,0E0,0E0,0E0,0E0,0E0,0E0,0E0,0E0],"parents":[2147483647,0,0,1,1,2,2,3,3,4,4,5,5,7,7,9,9,10,10],"right_children":[2,4,6,8,10,12,-1,14,-1,16,18,-1,-1,-1,-1,-1,-1,-1,-1],"split_conditions":[-1E-5,2.3615663E-1,-1E-5,-1E-5,-1E-5,1.8559574E-1,-1.3416208E-2,6.38398E-2,5.6470115E-2,-1E-5,-1E-5,-5.535641E-2,-6.65128E-2,-6.666563E-2,-1.5431533E-2,-2.49494E-3,-6.439887E-2,5.5830836E-2,-5.5408485E-2],"split_indices":[9725,9848,8665,8332,8299,7753,0,8245,0,7802,7588,0,0,0,0,0,0,0,0],"split_type":[0,0,0,0,0,0,0,0,0,0,0,0,0,0,0,0,0,0,0],"sum_hessian":[7.402556E4,4.4885016E4,2.9140545E4,2.4439656E3,4.244105E4,2.9138643E4,1.9027197E0,2.4255005E3,1.8465141E1,1.1826284E3,4.125842E4,3.555885E1,2.9103084E4,2.4164182E3,9.082403E0,8.4797314E2,3.3465527E2,4.1036664E4,2.2175604E2],"tree_param":{"num_deleted":"0","num_feature":"10000","num_nodes":"19","size_leaf_vector":"1"}},{"base_weights":[-4.26969E-3,-4.7472844E-1,6.7105824E-1,-5.403101E-1,6.4632666E-1,-5.3583156E-2,6.723091E-1,6.352722E-2,-5.5664945E-1,6.653415E-1,-5.661741E-2,6.723369E-2,2.7833084E-2,-7.620898E-3,6.916768E-2,-5.57076E-2,2.3541205E-1,6.733436E-2,-4.985301E-2],"categories":[],"categories_nodes":[],"categories_segments":[],"categories_sizes":[],"default_left":[1,1,0,1,1,0,1,1,1,1,0,0,0,0,0,0,0,0,0],"id":71,"left_children":[1,3,5,7,9,-1,11,13,15,17,-1,-1,-1,-1,-1,-1,-1,-1,-1],"loss_changes":[2.3013473E4,3.139168E3,4.5259766E1,3.9798438E2,5.4786987E1,0E0,1.3671875E-1,9.340603E1,5.0072266E1,2.197998E1,0E0,0E0,0E0,0E0,0E0,0E0,0E0,0E0,0E0],"parents":[2147483647,0,0,1,1,2,2,3,3,4,4,6,6,7,7,8,8,9,9],"right_children":[2,4,6,8,10,-1,12,14,16,18,-1,-1,-1,-1,-1,-1,-1,-1,-1],"split_conditions":[-1E-5,8.439664E-2,3.7054364E-2,-1E-5,-1E-5,-5.3583156E-2,8.608915E-2,-1E-5,-1E-5,-1E-5,-5.661741E-2,6.723369E-2,2.7833084E-2,-7.620898E-3,6.916768E-2,-5.57076E-2,2.3541205E-1,6.733436E-2,-4.985301E-2],"split_indices":[9800,9135,8299,8299,7737,0,4494,9077,8510,8113,0,0,0,0,0,0,0,0,0],"split_type":[0,0,0,0,0,0,0,0,0,0,0,0,0,0,0,0,0,0,0],"sum_hessian":[7.243257E4,4.269201E4,2.9740559E4,4.033305E4,2.358963E3,3.0349815E1,2.9710209E4,1.0625497E3,3.92705E4,2.3229844E3,3.597856E1,2.9707408E4,2.7999177E0,8.699107E2,1.9263895E2,3.9265555E4,4.9455748E0,2.3075405E3,1.5443839E1],"tree_param":{"num_deleted":"0","num_feature":"10000","num_nodes":"19","size_leaf_vector":"1"}},{"base_weights":[2.4180794E-1,-3.6111334E-1,2.3267479E-1,-4.489019E-2,2.438086E-2],"categories":[],"categories_nodes":[],"categories_segments":[],"categories_sizes":[],"default_left":[1,1,0,0,0],"id":72,"left_children":[1,3,-1,-1,-1],"loss_changes":[1.6938126E1,6.829369E-1,0E0,0E0,0E0],"parents":[2147483647,0,0,1,1],"right_children":[2,4,-1,-1,-1],"split_conditions":[1.4454842E-1,7.65091E-2,2.3267479E-1,-4.489019E-2,2.438086E-2],"split_indices":[0,9877,0,0,0],"split_type":[0,0,0,0,0],"sum_hessian":[1.1806049E1,9.799141E0,2.0069084E0,8.782508E0,1.0166332E0],"tree_param":{"num_deleted":"0","num_feature":"10000","num_nodes":"5","size_leaf_vector":"1"}},{"base_weights":[-2.1929425E-1,6.762194E-2,-5.02359E-1,3.7431985E-1,-5.0092574E-2,-5.0419813E-1,1.2395296E-1,4.671004E-1,-4.9800497E-2,-5.01853E-2,-7.028266E-2,5.660162E-2,-4.670575E-2],"categories":[],"categories_nodes":[],"categories_segments":[],"categories_sizes":[],"default_left":[1,1,1,1,0,1,0,1,0,0,0,0,0],"id":73,"left_children":[1,3,5,7,-1,9,-1,11,-1,-1,-1,-1,-1],"loss_changes":[2.6332236E2,2.8107452E2,5.8532715E0,8.496777E1,0E0,4.0701294E-1,0E0,8.7753586E1,0E0,0E0,0E0,0E0,0E0],"parents":[2147483647,0,0,1,1,2,2,3,3,5,5,7,7],"right_children":[2,4,6,8,-1,10,-1,12,-1,-1,-1,-1,-1],"split_conditions":[-1E-5,-1E-5,7.182424E-2,5.9641227E-2,-5.0092574E-2,1.5896116E-1,1.2395296E-1,1.2704597E-1,-4.9800497E-2,-5.01853E-2,-7.028266E-2,5.660162E-2,-4.670575E-2],"split_indices":[9734,8306,9341,9423,0,9381,0,3133,0,0,0,0,0],"split_type":[0,0,0,0,0,0,0,0,0,0,0,0,0],"sum_hessian":[3.2408347E3,1.6098458E3,1.6309889E3,1.0459559E3,5.638899E2,1.6299784E3,1.0104636E0,9.458227E2,1.0013329E2,1.6144438E3,1.553466E1,8.5561743E2,9.0205246E1],"tree_param":{"num_deleted":"0","num_feature":"10000","num_nodes":"13","size_leaf_vector":"1"}},{"base_weights":[-8.726644E-2,2.0068079E-1,-4.0876962E-2,-3.344436E-2,5.2219063E-1,1.2468894E-1,-3.230944E-2],"categories":[],"categories_nodes":[],"categories_segments":[],"categories_sizes":[],"default_left":[1,0,0,0,1,0,0],"id":74,"left_children":[1,3,-1,-1,5,-1,-1],"loss_changes":[1.0913311E0,1.2795429E0,0E0,0E0,3.099524E0,0E0,0E0],"parents":[2147483647,0,0,1,1,4,4],"right_children":[2,4,-1,-1,6,-1,-1],"split_conditions":[-1E-5,4.1174415E-2,-4.0876962E-2,-3.344436E-2,4.559857E-2,1.2468894E-1,-3.230944E-2],"split_indices":[9734,8299,0,0,8299,0,0],"split_type":[0,0,0,0,0,0,0],"sum_hessian":[9.902389E0,5.422052E0,4.480336E0,2.0198925E0,3.4021592E0,1.5759335E0,1.8262258E0],"tree_param":{"num_deleted":"0","num_feature":"10000","num_nodes":"7","size_leaf_vector":"1"}},{"base_weights":[-3.7776938E-1,4.9290204E-1,-4.4547233E-1,4.2105123E-1,3.5127747E-1,-4.5343477E-1,4.9443626E-1,1.9916601E-1,1.0594476E0,-4.6344298E-1,1.2284291E-1,-5.591264E-2,5.4008663E-2,1.3923867E-1,5.242302E-2,-4.80236E-2,4.8642986E-2],"categories":[],"categories_nodes":[],"categories_segments":[],"categories_sizes":[],"default_left":[0,1,1,1,0,1,0,1,1,1,0,0,0,0,0,0,0],"id":75,"left_children":[1,3,5,7,-1,9,-1,11,13,15,-1,-1,-1,-1,-1,-1,-1],"loss_changes":[8.729048E1,2.1747948E1,6.1082733E1,1.4760782E1,0E0,2.3628967E1,0E0,2.089692E1,4.0865936E0,2.1968323E1,0E0,0E0,0E0,0E0,0E0,0E0,0E0],"parents":[2147483647,0,0,1,1,2,2,3,3,5,5,7,7,8,8,9,9],"right_children":[2,4,6,8,-1,10,-1,12,14,16,-1,-1,-1,-1,-1,-1,-1],"split_conditions":[2.2699288E-1,5.065799E-2,2.5235575E-1,1.8897124E-2,3.5127747E-1,3.5321087E-1,4.9443626E-1,8.862606E-2,3.133563E-2,-1E-5,1.2284291E-1,-5.591264E-2,5.4008663E-2,1.3923867E-1,5.242302E-2,-4.80236E-2,4.8642986E-2],"split_indices":[7802,7058,9951,9276,0,7430,0,8113,6029,8701,0,0,0,0,0,0,0],"split_type":[0,0,0,0,0,0,0,0,0,0,0,0,0,0,0,0,0],"sum_hessian":[1.4761052E3,1.06046646E2,1.3700586E3,1.046951E2,1.3515472E0,1.3689521E3,1.1064945E0,7.866556E1,2.6029541E1,1.3615743E3,7.3778334E0,2.419959E1,5.4465965E1,1.5059836E1,1.0969704E1,1.3384067E3,2.3167553E1],"tree_param":{"num_deleted":"0","num_feature":"10000","num_nodes":"17","size_leaf_vector":"1"}},{"base_weights":[2.765423E-1,-4.07111E-2,1.1299381E0,2.1449399E-1,-3.0240221E-2],"categories":[],"categories_nodes":[],"categories_segments":[],"categories_sizes":[],"default_left":[1,0,1,0,0],"id":76,"left_children":[1,-1,3,-1,-1],"loss_changes":[5.3434973E0,0E0,6.4462895E0,0E0,0E0],"parents":[2147483647,0,0,2,2],"right_children":[2,-1,4,-1,-1],"split_conditions":[3.9744124E-2,-4.07111E-2,6.522382E-2,2.1449399E-1,-3.0240221E-2],"split_indices":[8299,0,7596,0,0],"split_type":[0,0,0,0,0],"sum_hessian":[7.37035E0,4.3824954E0,2.9878545E0,1.4575099E0,1.5303447E0],"tree_param":{"num_deleted":"0","num_feature":"10000","num_nodes":"5","size_leaf_vector":"1"}},{"base_weights":[2.14371E-2,4.5992148E-1,-6.444008E-1,5.231781E-1,-6.399605E-1,3.1609695E-2,-6.444546E-1,-1.6825399E-1,5.436558E-1,-6.4615476E-1,5.958065E-2,-6.4449006E-1,1.0717112E-2,-4.2314916E-3,-7.015288E-2,5.4936584E-2,-5.3800106E-2,3.7979543E-2,-6.485516E-2,-6.445239E-2,1.1565336E-2],"categories":[],"categories_nodes":[],"categories_segments":[],"categories_sizes":[],"default_left":[1,1,0,1,1,0,1,1,1,0,0,1,0,0,0,0,0,0,0,0,0],"id":77,"left_children":[1,3,5,7,9,-1,11,13,15,17,-1,19,-1,-1,-1,-1,-1,-1,-1,-1,-1],"loss_changes":[1.9998635E4,2.8737744E3,1.609375E0,5.530625E2,1.7581299E1,0E0,7.949219E-1,7.546808E1,2.3457031E2,5.7440796E0,0E0,7.7246094E-1,0E0,0E0,0E0,0E0,0E0,0E0,0E0,0E0,0E0],"parents":[2147483647,0,0,1,1,2,2,3,3,4,4,6,6,7,7,8,8,9,9,11,11],"right_children":[2,4,6,8,10,-1,12,14,16,18,-1,20,-1,-1,-1,-1,-1,-1,-1,-1,-1],"split_conditions":[-1E-5,-1E-5,4.6232782E-2,-1E-5,-1E-5,3.1609695E-2,5.4865647E-2,-1E-5,-1E-5,4.290139E-1,5.958065E-2,9.001884E-2,1.0717112E-2,-4.2314916E-3,-7.015288E-2,5.4936584E-2,-5.3800106E-2,3.7979543E-2,-6.485516E-2,-6.445239E-2,1.1565336E-2],"split_indices":[9800,9135,8315,8299,8306,0,8319,6089,8310,8248,0,9859,0,0,0,0,0,0,0,0,0],"split_type":[0,0,0,0,0,0,0,0,0,0,0,0,0,0,0,0,0,0,0,0,0],"sum_hessian":[6.849597E4,4.1299008E4,2.7196957E4,3.905348E4,2.2455261E3,1.1951915E0,2.7195764E4,1.1231455E3,3.7930336E4,2.2348015E3,1.0724759E1,2.7194621E4,1.1408428E0,9.0944806E2,2.1369745E2,3.7731645E4,1.9869145E2,4.841678E0,2.2299597E3,2.7193564E4,1.0575997E0],"tree_param":{"num_deleted":"0","num_feature":"10000","num_nodes":"21","size_leaf_vector":"1"}},{"base_weights":[-5.1038675E-3,-4.6813956E-1,6.495518E-1,-5.3408283E-1,6.2540776E-1,-5.3570528E-2,6.508173E-1,3.5199087E-2,-5.506108E-1,6.364082E-1,-5.7191458E-2,1.560084E-3,6.508465E-1,-9.612759E-3,6.700682E-2,-5.5107176E-2,6.531487E-2,-1.2529213E-3,6.5002955E-2,6.508621E-2,2.325989E-2],"categories":[],"categories_nodes":[],"categories_segments":[],"categories_sizes":[],"default_left":[1,1,0,1,1,0,0,1,1,1,0,0,1,0,0,0,0,0,0,0,0],"id":78,"left_children":[1,3,5,7,9,-1,11,13,15,17,-1,-1,19,-1,-1,-1,-1,-1,-1,-1,-1],"loss_changes":[2.028269E4,2.826497E3,4.1926758E1,3.478047E2,2.9727112E1,0E0,5.0390625E-1,8.709183E1,2.0292969E1,1.9539246E1,0E0,0E0,2.8320312E-2,0E0,0E0,0E0,0E0,0E0,0E0,0E0,0E0],"parents":[2147483647,0,0,1,1,2,2,3,3,4,4,6,6,7,7,8,8,9,9,12,12],"right_children":[2,4,6,8,10,-1,12,14,16,18,-1,-1,20,-1,-1,-1,-1,-1,-1,-1,-1],"split_conditions":[-1E-5,8.439664E-2,3.7054364E-2,-1E-5,-1E-5,-5.3570528E-2,1.4884537E-1,-1E-5,3.7091002E-1,-1E-5,-5.7191458E-2,1.560084E-3,5.4865647E-2,-9.612759E-3,6.700682E-2,-5.5107176E-2,6.531487E-2,-1.2529213E-3,6.5002955E-2,6.508621E-2,2.325989E-2],"split_indices":[9800,9135,8299,8299,8311,0,8143,9077,8303,8299,0,0,8319,0,0,0,0,0,0,0,0],"split_type":[0,0,0,0,0,0,0,0,0,0,0,0,0,0,0,0,0,0,0,0,0],"sum_hessian":[6.6909086E4,3.9190242E4,2.771884E4,3.6961875E4,2.2283691E3,2.9113253E1,2.7689727E4,1.0428041E3,3.591907E4,2.2085466E3,1.982257E1,1.2983766E0,2.768843E4,8.647696E2,1.7803445E2,3.5905863E4,1.32086525E1,4.540646E1,2.1631401E3,2.768684E4,1.5884914E0],"tree_param":{"num_deleted":"0","num_feature":"10000","num_nodes":"21","size_leaf_vector":"1"}},{"base_weights":[2.207752E-2,-3.5081473E-1,1.1196452E0,-4.4450514E-2,2.3326186E-2,2.2124588E-1,-2.8892934E-2],"categories":[],"categories_nodes":[],"categories_segments":[],"categories_sizes":[],"default_left":[1,1,1,0,0,0,0],"id":79,"left_children":[1,3,5,-1,-1,-1,-1],"loss_changes":[5.4880085E0,6.538534E-1,5.866129E0,0E0,0E0,0E0,0E0],"parents":[2147483647,0,0,1,1,2,2],"right_children":[2,4,6,-1,-1,-1,-1],"split_conditions":[1.4454842E-1,3.195117E-2,1.01574235E-1,-4.4450514E-2,2.3326186E-2,2.2124588E-1,-2.8892934E-2],"split_indices":[0,4980,9020,0,0,0,0],"split_type":[0,0,0,0,0,0,0],"sum_hessian":[1.1449396E1,9.053794E0,2.3956027E0,8.008181E0,1.0456134E0,1.0276297E0,1.3679731E0],"tree_param":{"num_deleted":"0","num_feature":"10000","num_nodes":"7","size_leaf_vector":"1"}},{"base_weights":[-2.1502677E-1,5.8090365E-1,-3.1014663E-1,6.419224E-1,-6.6939585E-2,-4.1234434E-1,5.608275E-1,6.7993027E-1,-7.1590865E-1,6.063568E-1,-4.6336308E-1,1.910799E-2,5.621198E-2,1.5114081E-1,6.1784487E-2,-5.128011E-2,-1.1409434E-1,7.75844E-2,-4.748142E-2,9.016482E-2,-4.8696384E-2],"categories":[],"categories_nodes":[],"categories_segments":[],"categories_sizes":[],"default_left":[0,1,1,1,0,0,1,0,0,1,0,0,0,0,0,0,0,0,0,0,0],"id":80,"left_children":[1,3,5,7,-1,9,11,13,15,17,19,-1,-1,-1,-1,-1,-1,-1,-1,-1,-1],"loss_changes":[2.2727165E2,2.4884995E1,2.3878125E2,1.6286331E1,0E0,1.2497043E2,2.7267456E-2,1.4466293E1,1.7661285E-1,2.141513E1,7.405969E1,0E0,0E0,0E0,0E0,0E0,0E0,0E0,0E0,0E0,0E0],"parents":[2147483647,0,0,1,1,2,2,3,3,5,5,6,6,7,7,8,8,9,9,10,10],"right_children":[2,4,6,8,-1,10,12,14,16,18,20,-1,-1,-1,-1,-1,-1,-1,-1,-1,-1],"split_conditions":[3.6959562E-1,-1E-5,1.8894874E-1,-1E-5,-6.6939585E-2,7.470134E-1,-1E-5,1.2575509E-1,3.0783933E-1,4.4076163E-2,4.4021988E-1,1.910799E-2,5.621198E-2,1.5114081E-1,6.1784487E-2,-5.128011E-2,-1.1409434E-1,7.75844E-2,-4.748142E-2,9.016482E-2,-4.8696384E-2],"split_indices":[9381,7689,9252,5974,0,9466,7737,2847,7845,6089,7219,0,0,0,0,0,0,0,0,0,0],"split_type":[0,0,0,0,0,0,0,0,0,0,0,0,0,0,0,0,0,0,0,0,0],"sum_hessian":[2.998539E3,3.1954965E2,2.6789893E3,3.051442E2,1.4405473E1,2.3981265E3,2.80863E2,2.9732095E2,7.82323E0,1.1385603E2,2.2842703E3,1.4966798E0,2.7936633E2,1.9036098E1,2.7828485E2,6.7866473E0,1.0365822E0,9.8670586E1,1.5185452E1,3.8190964E1,2.2460793E3],"tree_param":{"num_deleted":"0","num_feature":"10000","num_nodes":"21","size_leaf_vector":"1"}},{"base_weights":[3.13492E-1,8.4309775E-1,-4.023481E-2,-3.2615915E-2,1.409005E0,2.313685E-1,-2.94379E-2],"categories":[],"categories_nodes":[],"categories_segments":[],"categories_sizes":[],"default_left":[1,0,0,0,1,0,0],"id":81,"left_children":[1,3,-1,-1,5,-1,-1],"loss_changes":[4.300376E0,4.647065E0,0E0,0E0,7.5424557E0,0E0,0E0],"parents":[2147483647,0,0,1,1,4,4],"right_children":[2,4,-1,-1,6,-1,-1],"split_conditions":[-1E-5,4.1174415E-2,-4.023481E-2,-3.2615915E-2,4.708498E-2,2.313685E-1,-2.94379E-2],"split_indices":[9734,8299,0,0,8299,0,0],"split_type":[0,0,0,0,0,0,0],"sum_hessian":[9.448485E0,5.3284907E0,4.1199946E0,1.8760067E0,3.452484E0,2.020888E0,1.4315959E0],"tree_param":{"num_deleted":"0","num_feature":"10000","num_nodes":"7","size_leaf_vector":"1"}},{"base_weights":[-3.7453547E-1,4.41554E-1,-4.4414032E-1,3.7407243E-1,2.784049E-1,-4.50425E-1,3.2916853E-1,1.8061864E-1,9.3008274E-1,-4.6770278E-1,7.9064137E-1,3.939837E-2,-6.571904E-2,1.2163923E-1,5.242426E-2,-4.801669E-2,1.20204724E-1,1.0355455E-1,-5.550913E-2],"categories":[],"categories_nodes":[],"categories_segments":[],"categories_sizes":[],"default_left":[0,1,1,1,0,1,0,1,1,1,1,0,0,0,0,0,0,0,0],"id":82,"left_children":[1,3,5,7,-1,9,-1,11,13,15,17,-1,-1,-1,-1,-1,-1,-1,-1],"loss_changes":[7.7493515E1,1.5942518E1,3.0932709E1,1.11894E1,0E0,2.7240036E1,0E0,1.4483686E1,2.5012226E0,2.6311829E1,6.367958E0,0E0,0E0,0E0,0E0,0E0,0E0,0E0,0E0],"parents":[2147483647,0,0,1,1,2,2,3,3,5,5,7,7,8,8,9,9,10,10],"right_children":[2,4,6,8,-1,10,-1,12,14,16,18,-1,-1,-1,-1,-1,-1,-1,-1],"split_conditions":[2.443883E-1,5.065799E-2,2.5235575E-1,-1E-5,2.784049E-1,-1E-5,3.2916853E-1,-1E-5,3.133563E-2,5.184942E-2,1.5599579E-2,3.939837E-2,-6.571904E-2,1.2163923E-1,5.242426E-2,-4.801669E-2,1.20204724E-1,1.0355455E-1,-5.550913E-2],"split_indices":[7802,7058,9951,8405,0,7363,0,6089,6029,8483,9466,0,0,0,0,0,0,0,0],"split_type":[0,0,0,0,0,0,0,0,0,0,0,0,0,0,0,0,0,0,0],"sum_hessian":[1.3597793E3,1.06442215E2,1.253337E3,1.0458896E2,1.8532637E0,1.2521101E3,1.2269698E0,7.8575035E1,2.6013922E1,1.2355326E3,1.657757E1,6.3048264E1,1.5526769E1,1.408213E1,1.193179E1,1.2270852E3,8.447334E0,1.4220195E1,2.3573747E0],"tree_param":{"num_deleted":"0","num_feature":"10000","num_nodes":"19","size_leaf_vector":"1"}},{"base_weights":[1.6921498E-1,-4.0099774E-2,8.194698E-1,1.6725072E-1,-3.1038228E-2],"categories":[],"categories_nodes":[],"categories_segments":[],"categories_sizes":[],"default_left":[1,0,1,0,0],"id":83,"left_children":[1,-1,3,-1,-1],"loss_changes":[3.3758779E0,0E0,4.5365467E0,0E0,0E0],"parents":[2147483647,0,0,2,2],"right_children":[2,-1,4,-1,-1],"split_conditions":[3.9744124E-2,-4.0099774E-2,9.2414945E-2,1.6725072E-1,-3.1038228E-2],"split_indices":[8299,0,7830,0,0],"split_type":[0,0,0,0,0],"sum_hessian":[7.2184668E0,4.050169E0,3.1682975E0,1.5316298E0,1.6366677E0],"tree_param":{"num_deleted":"0","num_feature":"10000","num_nodes":"5","size_leaf_vector":"1"}},{"base_weights":[2.217821E-2,4.5285076E-1,-6.2708116E-1,5.1760817E-1,-6.152153E-1,-6.27114E-2,-1.2664812E-2,5.259145E-1,-5.519948E-1,-6.24526E-1,5.5300485E-2,5.3609718E-2,-9.565878E-3,4.5915782E-2,-6.3711785E-2,-6.297704E-2,-6.8075918E-3],"categories":[],"categories_nodes":[],"categories_segments":[],"categories_sizes":[],"default_left":[1,1,1,1,1,0,0,1,0,1,0,0,0,0,0,0,0],"id":84,"left_children":[1,3,5,7,9,-1,-1,11,13,15,-1,-1,-1,-1,-1,-1,-1],"loss_changes":[1.7648842E4,2.6248975E3,3.3398438E-1,3.1815918E2,2.394458E1,0E0,0E0,2.2475781E2,2.4064957E1,6.23999E0,0E0,0E0,0E0,0E0,0E0,0E0,0E0],"parents":[2147483647,0,0,1,1,2,2,3,3,4,4,7,7,8,8,9,9],"right_children":[2,4,6,8,10,-1,-1,12,14,16,-1,-1,-1,-1,-1,-1,-1],"split_conditions":[-1E-5,-1E-5,-1E-5,-1E-5,-1E-5,-6.27114E-2,-1.2664812E-2,6.4653866E-2,1.0639449E-1,6.38398E-2,5.5300485E-2,5.3609718E-2,-9.565878E-3,4.5915782E-2,-6.3711785E-2,-6.297704E-2,-6.8075918E-3],"split_indices":[9725,9848,8665,9466,8332,0,0,8245,8245,8245,0,0,0,0,0,0,0],"split_type":[0,0,0,0,0,0,0,0,0,0,0,0,0,0,0,0,0],"sum_hessian":[6.3115633E4,3.794555E4,2.5170082E4,3.5776895E4,2.168656E3,2.5168176E4,1.9067094E0,3.5501703E4,2.75191E2,2.1519702E3,1.668574E1,3.492962E4,5.720828E2,2.1026697E1,2.5416429E2,2.1317473E3,2.0223001E1],"tree_param":{"num_deleted":"0","num_feature":"10000","num_nodes":"17","size_leaf_vector":"1"}},{"base_weights":[-4.547156E-3,-4.3909016E-1,6.297701E-1,-5.3381896E-1,6.1265755E-1,6.329735E-1,-5.48922E-2,-5.448773E-1,1.0101215E-1,6.2504524E-1,-5.5410456E-2,6.330878E-1,-4.266663E-2,-5.453175E-2,1.6304044E-1,1.4378582E-2,-4.842233E-2,-4.301754E-2,6.329023E-2,6.32913E-2,1.4635076E-1],"categories":[],"categories_nodes":[],"categories_segments":[],"categories_sizes":[],"default_left":[1,1,1,1,1,1,0,1,1,1,0,1,0,0,0,0,0,0,0,0,0],"id":85,"left_children":[1,3,5,7,9,11,-1,13,15,17,-1,19,-1,-1,-1,-1,-1,-1,-1,-1,-1],"loss_changes":[1.7036135E4,3.654683E3,9.522363E1,2.3627539E2,4.415625E1,3.3066406E0,0E0,3.255957E1,1.45121765E1,2.5143066E1,0E0,2.7128906E0,0E0,0E0,0E0,0E0,0E0,0E0,0E0,0E0,0E0],"parents":[2147483647,0,0,1,1,2,2,3,3,4,4,5,5,7,7,8,8,9,9,11,11],"right_children":[2,4,6,8,10,12,-1,14,16,18,-1,20,-1,-1,-1,-1,-1,-1,-1,-1,-1],"split_conditions":[-1E-5,1.0080181E-1,-1E-5,6.4653866E-2,-1E-5,-1E-5,-5.48922E-2,3.2674626E-1,8.211545E-2,-1E-5,-5.5410456E-2,1.7676403E-1,-4.266663E-2,-5.453175E-2,1.6304044E-1,1.4378582E-2,-4.842233E-2,-4.301754E-2,6.329023E-2,6.32913E-2,1.4635076E-1],"split_indices":[6089,9135,9928,8245,7737,7365,0,8510,6064,8299,0,8601,0,0,0,0,0,0,0,0,0],"split_type":[0,0,0,0,0,0,0,0,0,0,0,0,0,0,0,0,0,0,0,0,0],"sum_hessian":[6.180416E4,3.6677984E4,2.5126176E4,3.364788E4,3.0301042E3,2.5058535E4,6.763985E1,3.3071934E4,5.759482E2,2.9987305E3,3.1373571E1,2.5056234E4,2.301335E0,3.306599E4,5.942369E0,5.374233E2,3.8524864E1,2.176612E1,2.9769644E3,2.5052719E4,3.5140576E0],"tree_param":{"num_deleted":"0","num_feature":"10000","num_nodes":"21","size_leaf_vector":"1"}},{"base_weights":[2.1289936E-1,-3.406002E-1,1.6349117E0,-4.4032346E-2,